tree
version=v4
num_class=1
num_tree_per_iteration=1
label_index=0
max_feature_idx=20
objective=binary sigmoid:1
feature_names=Column_0 Column_1 Column_2 Column_3 Column_4 Column_5 Column_6 Column_7 Column_8 Column_9 Column_10 Column_11 Column_12 Column_13 Column_14 Column_15 Column_16 Column_17 Column_18 Column_19 Column_20
feature_infos=[-1.2247425317764282:6.8556075096130371] [-2.9302265644073486:5.4797635078430176] [-1.0954428911209106:7.1413755416870117] [-2.987781286239624:5.9986510276794434] [-1.2247425317764282:7.6810860633850098] [-3.0327608585357666:7.4298439025878906] [-1.0954428911209106:6.5489182472229004] [-3.3079450130462646:8.2551631927490234] [-1.2247425317764282:6.7822833061218262] [-3.3079450130462646:5.7651491165161133] [-1.0488067865371704:7.8101882934570312] [-2.5146853923797607:6.9062719345092773] [-1.2247425317764282:6.8556075096130371] [-3.6351120471954346:7.1454381942749023] [-1.0444637537002563:11.78968620300293] [-2.7099747657775879:6.4407272338867188] [-1.2247425317764282:7.1413760185241699] [-3.0286586284637451:7.4593319892883301] [-0.99999797344207764:15.264103889465332] [-2.6101796627044678:7.4900412559509277] [0.42607989907264709:44.807945251464844]
tree_sizes=8522 8880 8563 8774 8875 8235 8773 8576 9647 8884 9100 8675 8918 8772 8391 8357 8785 8987 8780 8610 9002 9314 9209 9007 8501 9105 9094 9249 8703 8789 9037 8487 9530 8916 9025 9125 9533 9240 9253 9771 9338 9324 9882 9469 9141 9031 9774 9237 9457 9462 9028 9355 9482 9459 9671 10206 9885 10298 9369 9905 9991 9465 10206 9690 9241 10112 9574 10320 10004 10216 10428 10207 10322 10116 9560 9591 9498 10093 10534 10213 10349 10463 9905 10359 10024 10337 10971 10086 10543 10987 10967 10726 10847 10444 10569 10317 10442 10955 11067 10316 10748 10262 10888 10219 10696 11089 10320 10795 10777 11741 11631 10647 11216 11202 10578 10979 11639 9921 10659 10562 11414 10763 12080 13611 11993 11962 11520 11324 13492 13411 11000 12006 12014 11508 12542 13485 12518 12183 12824 12393 14678 11783 11739 13799 13833 13524 12093 12957 11439 11986 12710 12734 13828 13504 13405 12653 13082 13642 12982 14837 14503 12553 14641 11600 14268 13264 13190 15412 13110 12858 12878 14203 13533 12231 14711 12536 12745 12428 14160 12886 16459 14551 14678 15172 14498 13445 13326 13214 14074 14103 13954 14308 15433 13860 16418 13779 14844 13875 14190 11557 14852 13321 14321 14845 13992 15275 13844 11367 13759 15165 14677 16067 15820 12569 13542 15208 14754 14131 14313 15215 14541 12579 15512 15938 13345 14494 14664 12688 12927 16055 13657 15744 15421 13852 15517 14939 13559 13532 12022 15012 14376 15522 12802 12388 13443 14564 16329 15678 12817 15184 13901 16303 14651 14997 15531 14349 15878 15343 15344 12825 14482 15665 15000 13248 13710 14903 14918 15817 15212 14061 14599 15522 16769 13740 15713 14789 14844 14771 14860 14775 13519 13040 14911 14359 14069 14504 15185 14805 14928 13685 16044 13867 13822 15177 14387 14188 14605 12819 14531 15587 14421 15935 16196 15386 15012 15251 15291 14360 14251 16517 13087 17046

Tree=0
num_leaves=82
num_cat=0
split_feature=20 4 11 5 19 7 5 13 19 9 5 12 4 15 7 9 9 20 19 5 9 19 19 19 16 14 5 20 5 15 11 2 9 5 2 6 10 5 19 19 19 13 13 12 7 15 11 13 5 15 2 7 20 13 15 5 14 16 9 13 9 15 13 14 0 14 5 15 15 6 15 11 9 19 19 5 11 19 2 9 13
split_gain=2831.41 814.851 560.328 553.491 362.156 251.486 189.918 112.314 111.325 87.4788 81.5371 75.4272 74.1047 46.7909 45.4005 44.0913 42.9423 40.0802 68.7417 33.6217 30.2236 29.9498 26.7921 25.1128 24.3203 23.6327 22.7933 18.6838 18.5809 17.8396 15.553 18.568 14.9758 13.8333 13.7071 13.1609 12.598 12.5399 12.438 12.0865 12.069 10.8992 10.1882 10.0296 16.1392 9.98295 9.86037 9.20869 8.89804 8.89534 8.89532 8.07553 7.60843 12.7443 7.54273 6.99721 6.86953 6.49551 5.73273 5.06145 4.39182 4.34521 4.29251 3.88079 2.80608 4.77831 2.58419 2.44551 2.36869 4.10367 2.28919 1.83244 1.82556 1.75829 1.37718 1.32494 2.16231 1.25481 1.25371 1.06416 0.713395
threshold=10.360692977905275 -1.0000000180025095e-35 0.79544511437416088 -0.66792577505111683 -0.18579441308975217 0.76254475116729747 -0.53406909108161915 -1.0580267310142515 1.389140844345093 -0.82065960764884938 0.62112230062484752 -0.36959698796272272 1.0000000180025095e-35 0.65207207202911388 2.56612241268158 -0.61453598737716664 -0.68570017814636219 14.889966964721681 0.69841724634170543 -0.88692089915275563 -1.163939297199249 0.8997042477130891 1.7233175039291384 0.47856476902961737 -0.13111755996942517 -0.58868059515953053 -1.153491675853729 20.354435920715336 -0.45073883235454554 1.1822396516799929 -0.151306077837944 -0.70710542798042286 -0.15087682753801343 -0.68065205216407765 1.1640599966049197 1.0571863055229189 1.0033200383186343 -0.69629770517349232 0.36255258321762091 1.4020644426345827 1.5436875224113467 -1.0070687532424925 -0.77479636669158924 -0.76528075337409962 0.74864435195922863 -0.26981493830680842 1.3545089364051821 -0.73402783274650563 -0.78002604842185963 0.89382007718086254 1.1091136932373049 1.4515461325645449 20.354435920715336 -0.91981860995292652 1.4428185224533083 0.74635085463523876 1.0382344126701357 -0.86602380871772755 -0.64213773608207692 -1.2059330344200132 -0.87140908837318409 1.0077638626098635 -0.78674405813217152 1.1406821608543398 -0.83107784390449513 1.0877941250801089 -0.52797728776931752 0.49001267552375799 0.82610467076301586 1.1546980738639834 0.86038821935653698 1.833728611469269 -1.2842530608177183 1.6882070302963259 1.0706731677055361 1.5289578437805178 -0.69741293787956227 0.12987188994884494 1.0274001955986025 0.018770786933600906 -1.2259116768836973
decision_type=2 2 2 2 2 2 2 2 2 2 2 2 2 2 2 2 2 2 2 2 2 2 2 2 2 2 2 2 2 2 2 2 2 2 2 2 2 2 2 2 2 2 2 2 2 2 2 2 2 2 2 2 2 2 2 2 2 2 2 2 2 2 2 2 2 2 2 2 2 2 2 2 2 2 2 2 2 2 2 2 2
left_child=4 2 3 7 32 8 29 48 15 19 45 16 -3 14 22 23 -10 18 37 40 61 33 25 77 39 -11 60 -21 38 36 70 -32 47 41 -27 -35 -6 -4 -17 55 51 80 54 44 -28 -8 52 -1 59 58 -25 -9 53 -23 -15 -14 -50 -18 -43 -2 -20 62 72 -37 65 -54 -33 -57 69 71 -7 -48 -19 -61 -31 76 -41 -5 -70 -30 -22
right_child=1 12 17 5 6 30 10 9 11 13 -12 -13 24 42 -16 28 57 20 26 27 21 46 -24 50 -26 34 43 -29 79 74 31 66 -34 35 -36 63 -38 -39 -40 75 -42 49 -44 -45 -46 -47 68 -49 56 -51 -52 -53 64 -55 -56 67 -58 -59 -60 73 -62 -63 -64 -65 -66 -67 -68 -69 78 -71 -72 -73 -74 -75 -76 -77 -78 -79 -80 -81 -82
leaf_value=0.5060171225697867 0.52390098647990457 0.52835386591695732 0.46962355764911745 0.4185724158444471 0.47518979046726351 0.49898961220580446 0.43678352684866245 0.48847310143091427 0.4864464295471671 0.47322207427998031 0.48003699649887788 0.5175188746050029 0.48173471837897697 0.46042318277808236 0.50320158819016425 0.41700010554504136 0.40985367767092817 0.51886904330987971 0.52378756939238846 0.4513913143016986 0.52078768711341583 0.50374296201380764 0.47597186571401068 0.44808215244582994 0.46150955023426132 0.41573764639643751 0.45033869147271455 0.49590100760168032 0.40407154098178238 0.47790708109038532 0.51070212996593467 0.4765238380609676 0.52251846278298431 0.49906781526663563 0.45379610318324998 0.4785334075820572 0.43602382597402739 0.42725818880235839 0.45350981368249227 0.51941401205330684 0.52615965048043301 0.46389382805503521 0.50526886043882635 0.50391463555656313 0.49568010737617613 0.40289823017617998 0.5043450355736333 0.47215796419043432 0.48381315791898138 0.50555180491217766 0.47954673686379418 0.51829675360431948 0.51123098979172721 0.4661530365574949 0.49229357006101587 0.49290563892589945 0.51173518701536813 0.44429830508188078 0.49166011698881412 0.49760692520368111 0.49952477584238913 0.52338490297077478 0.49852080154408468 0.4584445803067671 0.51770214256291469 0.48776880493410674 0.45682460210454356 0.51152298427053144 0.51002024333739038 0.49438386204155099 0.51968985314885274 0.52344906067355645 0.50230008736647236 0.51538713584497609 0.49196210168611576 0.52581560488616874 0.50007897673200519 0.4404270265839218 0.52284502459557303 0.4268455335130914 0.50520582709294082
leaf_weight=11.806812018156053 67.534958899021149 554.92045414447784 12.042948350310327 26.447329804301262 12.279084891080858 11.806812003254892 12.279084682464598 22.669077143073082 14.40431074798107 11.806812047958372 12.987493440508841 17.001835569739342 20.54385894536972 12.042948216199877 12.751354947686194 21.488477453589439 15.584991306066511 53.60292162001133 28.100212767720222 14.404314145445822 12.987493336200716 20.307716771960258 18.182489007711411 19.363171711564064 11.806808844208716 36.12889438867569 12.279090687632563 17.946352854371071 123.02666509151459 11.806811988353731 11.80681189894676 12.042948126792906 17.001809686422348 17.94636382162571 13.695901259779928 16.765672892332077 18.654762968420982 13.695932716131209 17.237945675849915 14.168174386024477 31.87839250266552 12.279083058238031 19.127035811543465 15.584988400340078 14.1681732237339 421.03065522015095 14.640435069799425 15.821128264069555 14.168173804879187 16.765672713518143 13.459765851497648 12.515220507979391 19.127034783363342 12.279086425900458 12.7513570189476 12.987487375736238 17.946354925632477 12.75135697424412 12.515222385525702 15.112722441554071 12.042945981025694 89.731769263744354 19.59930308163166 17.237945646047592 20.071589395403862 14.168174207210539 11.806859046220781 17.71021793782711 22.669046029448509 15.348855763673781 14.640446975827215 14.404310733079909 12.279089093208311 11.806812107563017 11.806812137365339 16.765672385692596 14.40431100130081 11.806812107563017 49.588642343878746 12.751376673579214 13.932038158178328
leaf_count=50 286 2350 51 112 52 50 52 96 61 50 55 72 87 51 54 91 66 227 119 61 55 86 77 82 50 153 52 76 521 50 50 51 72 76 58 71 79 58 73 60 135 52 81 66 60 1783 62 67 60 71 57 53 81 52 54 55 76 54 53 64 51 380 83 73 85 60 50 75 96 65 62 61 52 50 50 71 61 50 210 54 59
internal_value=0.479985 0.496761 0.483257 0.46556 0.419709 0.439662 0.412421 0.491851 0.428496 0.479589 0.405972 0.46552 0.523915 0.464044 0.452041 0.419585 0.44445 0.504555 0.487888 0.500878 0.508141 0.502569 0.443681 0.440469 0.500954 0.43437 0.501275 0.47582 0.411352 0.465566 0.494501 0.481394 0.501186 0.490597 0.425478 0.478907 0.450934 0.445952 0.432176 0.505916 0.512849 0.499353 0.489402 0.485592 0.474316 0.403757 0.509598 0.487032 0.514529 0.489344 0.46059 0.499847 0.501425 0.489589 0.476655 0.495461 0.499904 0.423609 0.477818 0.51924 0.517161 0.518229 0.512377 0.468025 0.508343 0.501765 0.466232 0.504303 0.515387 0.508314 0.511478 0.514951 0.516161 0.506394 0.485136 0.517143 0.510676 0.424138 0.519286 0.405806 0.513916
internal_weight=0 1999.37 1336.06 729.897 545.474 367.428 500.845 362.469 305.324 235.9 446.297 59.7425 663.307 136.487 92.5655 245.582 42.7407 606.162 107.914 99.4134 498.247 323.034 79.8141 71.0771 108.387 61.6316 82.1754 32.3507 174.504 54.5475 62.1039 35.6566 44.6297 120.429 49.8248 51.95 30.9338 25.7389 38.7264 96.5797 67.0627 68.4795 43.9213 42.0323 26.4473 433.31 202.605 27.6279 126.569 41.56 32.8229 35.1843 85.9536 32.5868 24.7943 51.2416 32.1145 28.3363 24.7943 94.4545 40.1432 175.213 85.4813 34.0036 53.3668 33.2952 23.8498 30.6977 116.651 44.3936 26.4473 29.0447 65.882 26.9195 23.6136 45.3382 28.5725 38.2541 72.2577 135.778 26.9195
internal_count=10777 8467 5658 3091 2310 1556 2121 1535 1293 999 1890 253 2809 578 392 1040 181 2567 457 421 2110 1368 338 301 459 261 348 137 739 231 263 151 189 510 211 220 131 109 164 409 284 290 186 178 112 1835 858 117 536 176 139 149 364 138 105 217 136 120 105 400 170 742 362 144 226 141 101 130 494 188 112 123 279 114 100 192 121 162 306 575 114
is_linear=0
shrinkage=1


Tree=1
num_leaves=83
num_cat=0
split_feature=20 0 3 11 11 7 5 15 0 5 20 9 2 8 3 1 13 5 5 13 4 15 15 1 7 17 11 17 3 5 14 13 17 11 7 13 20 17 1 2 11 11 14 1 5 8 1 1 17 3 1 15 6 20 17 6 11 6 3 5 20 13 9 3 4 11 1 11 5 13 11 2 15 6 6 4 17 1 9 9 17 13
split_gain=2675.79 801.449 629.318 479.092 312.582 249.681 139.681 91.6658 87.0252 72.5459 59.9617 58.4552 54.8119 52.8146 52.5125 39.7599 35.2839 32.6119 32.4931 32.4656 30.1088 27.1483 26.2933 22.1268 20.3619 19.6294 19.5947 21.4633 21.031 23.0861 19.5652 19.4566 18.8911 18.6057 16.7941 15.3385 15.1324 22.1285 15.0414 14.1613 13.5378 13.3866 16.0937 13.0451 11.8782 11.8217 10.8758 10.4415 8.48151 7.52088 7.13243 6.39476 6.11082 5.96639 4.98505 5.39119 4.85541 8.98474 4.68364 4.51029 4.3695 10.197 4.09344 4.00175 6.24029 3.78726 3.66156 7.69217 7.78104 3.19337 2.78864 2.65162 2.33855 1.92962 1.54545 1.33794 4.57351 1.03405 0.903203 1.42537 0.580016 0.437988
threshold=10.115549564361574 -1.0000000180025095e-35 0.41846047341823583 0.65151977539062511 -0.42282494902610773 0.76254475116729747 -0.52042970061302174 1.2860376834869387 1.0000000180025095e-35 0.45067061483860021 14.716123104095461 -1.0424923300743101 -0.16553179919719693 -0.22645436227321622 0.74007102847099315 0.43089479207992559 -1.0357592105865476 -0.93324127793312062 -0.67473718523979176 0.020042018964886669 -0.49999871850013727 -0.28763964772224421 1.3063585758209231 -0.61138656735420216 0.95005494356155407 -0.82346597313880909 1.3013490438461306 -1.0832855105400083 -0.62978741526603688 -0.55883067846298207 1.0274001955986025 -0.68723195791244496 -1.2873361706733701 1.5858260393142702 1.3154549002647402 -0.74825340509414662 19.249749183654789 -1.2189654707908628 -0.63258984684944142 1.0741701722145083 0.60330459475517284 1.0294892191886904 1.0488068461418154 -0.62000513076782215 -0.77471986413002003 -0.58795765042304982 -1.0246465206146238 -0.80544039607048024 -0.32037426531314844 -0.063799418509006486 -0.52486914396286 1.07762086391449 -0.30808340013027186 19.601392745971683 -0.88210678100585926 1.0842192173004153 0.10455369949340822 1.0842192173004153 0.18053752928972247 -0.39736884832382197 17.78408241271973 -1.0357592105865476 0.9843864142894746 -1.0417682528495786 -0.56252065300941456 0.90142837166786205 -0.68404436111450184 1.4923880100250246 -0.71527561545371998 -0.61133190989494313 0.74496176838874828 1.0725981593132021 0.46469576656818395 1.0488067269325259 1.1344966888427737 -0.95680305361747731 -1.2045810818672178 -0.65955781936645497 0.93811973929405224 -0.9868999421596526 -1.5224360823631284 -0.71547138690948475
decision_type=2 2 2 2 2 2 2 2 2 2 2 2 2 2 2 2 2 2 2 2 2 2 2 2 2 2 2 2 2 2 2 2 2 2 2 2 2 2 2 2 2 2 2 2 2 2 2 2 2 2 2 2 2 2 2 2 2 2 2 2 2 2 2 2 2 2 2 2 2 2 2 2 2 2 2 2 2 2 2 2 2 2
left_child=4 2 3 5 12 7 16 13 -3 21 17 36 -1 19 18 25 -6 -5 32 43 23 -8 24 -9 30 -10 27 77 -29 -30 62 -15 -13 46 38 -18 37 81 -7 74 -20 42 -34 52 53 54 -32 -48 -39 -14 -19 58 -2 -24 -46 -56 -36 -58 -41 -33 80 -62 65 -17 -65 -16 72 68 -68 71 -23 -45 -38 -69 75 76 -28 -12 79 -66 -26 -4
right_child=1 8 11 10 6 34 9 20 15 -11 26 14 49 31 22 63 35 50 40 -21 -22 70 44 -25 60 -27 39 28 29 -31 33 59 41 -35 56 -37 66 48 -40 51 -42 -43 -44 69 45 -47 47 -49 -50 -51 -52 -53 -54 -55 55 -57 57 -59 -60 -61 61 -63 -64 64 78 -67 67 73 -70 -71 -72 -73 -74 -75 -76 -77 -78 -79 -80 -81 -82 -83
leaf_value=-0.026193139032967574 -0.057340804292913071 0.047494934794861651 0.028243296787439719 0.016303852048768767 0.024301318595789309 0.01529795193128403 -0.026898934755736764 0.002805017114853221 0.016052303070552412 -0.00095623849779606651 0.037716084723686413 0.033232513168556355 0.045986974877525691 0.0061310726142769093 0.0060550559883642691 0.042098566018295196 -0.052327503381210339 -0.020434792261718078 -0.045638170958627586 -0.014469567230336907 0.028839686748291779 -0.07410907435767039 0.019140631169394025 -0.051162057646920174 0.041948719580781571 -0.026894912124102867 0.042237330430198963 0.022272599955173999 0.0082902424845881211 -0.039956208370355926 0.0093116314540652913 -0.022043438132519876 0.0095383899159297413 0.026463920824699616 0.02993468891201018 -0.0062453491806221161 0.030404762087636799 -0.015961780429501523 -0.02495269546238961 -0.011764279692879992 -0.0062539998364666196 0.020035473478294218 -0.03021683356479906 -0.063819710745990715 0.028248888392828828 0.041091371986223042 -0.03934238947888434 -0.0071539230098501012 0.016582549412696431 0.014410152710977692 -0.05472233686142719 0.026973875485656863 -0.027419586417821742 0.044891750825076876 0.016046195350057 -0.008544587701362745 0.024698020173579995 -0.0092048434737548677 0.013934627367836057 -0.049645910262442298 0.035213123507365392 0.0044425322396548401 0.03518793407520493 0.008239568082035428 0.034904111313283762 0.026790906240756321 0.030095145792857228 0.024965468605150903 0.00020199586252552077 -0.073076989574488188 -0.049276743094244707 -0.039587695592941216 0.043503905417196807 0.042721978476944332 0.020160316742312518 0.038970825693684014 0.018467098898675427 0.020907703331207093 0.037347784494603797 0.019515881159464649 0.027971334174702982 0.044492680064899252
leaf_weight=20.842965468764305 18.583208933472633 554.41125735640526 11.973617598414423 13.642909124493597 14.628928169608114 13.17923568189144 13.068159580230711 12.512700423598288 17.361406967043877 13.252407744526861 12.214270755648615 18.509854599833488 20.221335217356682 12.077342703938482 21.26718370616436 22.05466516315937 14.26589812338352 11.83736293017864 16.903555765748028 12.08379130065441 12.240333288908003 425.67258779704571 11.991867393255232 13.817901983857157 12.379807144403456 19.123054340481758 12.86375869810581 18.12358820438385 16.704250335693359 17.490029767155647 13.222286045551298 11.896196305751799 16.477717950940132 12.227186739444731 19.730975583195686 11.852934896945955 27.20857435464859 14.164069250226023 19.622695192694664 11.776229858398439 14.645303577184675 16.68512487411499 18.651780217885971 35.136330112814903 11.975257232785223 18.766083121299744 15.876670494675631 20.813354179263118 12.736119255423544 11.814601406455038 13.325836494565012 12.663702219724653 13.767627984285353 55.215370863676071 18.132573097944263 12.98250040411949 15.048744380474092 11.795257583260534 11.761455610394476 15.52424441277981 16.867351889610291 21.920099720358849 11.7746265232563 15.098896846175192 11.734501793980597 12.455478847026823 20.146326392889023 12.86941511929035 12.472706437110899 138.74543130397797 12.215040683746336 12.381383791565893 97.870240047574043 37.21181084215641 12.463528484106062 47.150904655456543 22.009030848741531 11.751622304320334 19.979935392737389 21.61263644695282 21.913549065589905 13.326631650328634
leaf_count=88 78 2376 51 58 62 56 55 53 74 56 52 79 86 51 90 94 60 50 71 51 52 1773 51 58 53 81 55 77 71 74 56 50 70 52 84 50 116 60 83 50 62 71 79 147 51 80 67 88 54 50 56 54 58 236 77 55 64 50 50 65 72 93 50 64 50 53 86 55 53 579 51 52 418 159 53 201 94 50 85 92 93 57
internal_value=0 0.0160119 0.00223892 -0.0191847 -0.0582899 -0.0398995 -0.0655449 -0.0520654 0.0423598 -0.0702128 0.0135581 0.022458 0.0109213 -0.0582227 0.0153632 0.0197405 -0.0119598 -0.0202867 -0.00329867 -0.0637265 -0.00855082 -0.0722414 0.0214911 -0.0263518 0.0139803 -0.00657512 0.0199708 0.0077495 -0.00311503 -0.0168215 0.00559003 -0.0252967 0.00806997 -0.005346 0.00748338 -0.0324165 0.0335902 0.018601 -0.00880656 0.0269915 -0.0281095 -0.00137794 -0.0118215 -0.0663708 0.0318195 0.0217366 -0.0135053 -0.0217569 -0.000511311 0.0351304 -0.0399902 0.0106471 -0.0458111 0.0406449 0.0125666 0.00583932 0.0189 0.0100055 0.00112166 -0.0388677 0.0260955 0.0183723 0.02032 0.0303076 0.0259556 0.0142648 0.0372488 0.0312767 0.0190108 -0.069678 -0.0735302 -0.0584518 0.0409182 0.0387371 0.0330765 0.0347727 0.0281684 0.0306417 0.0307277 0.0257894 0.0340627 0.0381688
internal_weight=0 1986.93 1305.56 633.922 557.835 388.143 504.956 308.766 681.376 464.208 245.778 671.634 52.8789 270.196 411.655 126.965 40.7478 38.8061 101.873 230.698 38.5709 450.956 309.781 26.3306 180.718 36.4845 206.972 76.2838 52.3179 34.1943 107.637 39.4978 70.3245 62.1395 79.3769 26.1188 259.98 52.2004 32.8019 130.689 31.5489 51.8146 35.1295 218.614 129.064 61.8564 49.9123 36.69 26.9002 32.0359 25.1632 36.2014 32.3508 67.2072 43.0903 31.1151 46.575 26.844 23.5377 27.4204 73.0808 38.7875 45.4973 90.4806 68.426 33.7227 207.779 82.7003 32.619 186.263 437.888 47.5177 125.079 50.0812 94.4872 82.0237 34.8728 23.9659 53.3271 33.3471 34.2934 25.3002
internal_count=10781 8450 5534 2676 2331 1631 2107 1294 2916 1935 1045 2858 224 1131 1749 540 172 164 432 965 163 1879 1317 111 767 155 881 324 222 145 456 166 299 263 337 110 1109 222 139 557 133 220 149 914 550 263 211 155 114 136 106 154 136 287 183 132 198 114 100 115 311 165 193 385 291 143 887 353 139 778 1824 199 534 214 403 350 149 102 227 142 146 108
is_linear=0
shrinkage=0.03


Tree=2
num_leaves=80
num_cat=0
split_feature=9 0 5 18 19 19 5 8 19 9 9 7 19 18 11 2 5 15 2 7 11 13 14 7 13 11 5 7 7 6 15 13 11 19 18 0 5 11 9 19 13 0 16 7 9 11 15 6 2 10 11 6 4 9 5 10 2 11 15 4 5 7 5 11 14 9 0 13 5 13 13 13 18 14 13 5 10 6 0
split_gain=1154.9 1395.15 842.901 378.101 368.4 631.132 210.637 201.765 129.651 107.005 87.4241 64.908 58.5917 50.2835 44.4155 41.4808 38.8988 36.7852 34.5988 33.6404 27.5227 24.2944 23.5267 20.4519 18.7895 15.406 15.3434 13.528 13.4426 13.0663 12.3157 12.2712 15.0483 21.476 16.0553 18.2827 11.2109 10.9454 13.947 12.3556 10.5101 10.4756 10.047 9.69085 9.30346 8.77692 8.67695 7.68173 7.17589 7.01586 12.068 6.24186 5.84127 5.11042 4.86187 4.82171 7.73018 4.33262 4.03425 3.90602 3.7802 3.62021 3.23365 3.17415 2.9539 2.30224 2.14668 2.13186 2.1253 2.06061 5.81903 1.90183 1.67344 1.4381 0.742157 0.614145 0.403929 0.0789695 0.0547257
threshold=-0.66447767615318287 -0.084666144102811799 -0.59509512782096852 1.8439044356346133 -1.0000000180025095e-35 1.0000000180025095e-35 0.55569675564765941 -1.0000000180025095e-35 0.19525448977947238 -0.50048398971557606 -1.0424923300743101 0.18398241698741916 1.6224113106727602 0.96219453215599071 0.92115464806556713 -0.55222278833389271 -0.66088652610778797 0.74344944953918468 -0.35240049660205836 1.5675534009933474 -0.68292963504791249 -0.77479636669158924 1.0513128638267519 0.77836108207702648 -1.3714717626571653 -1.0412961244583128 -1.0101910233497617 -0.86001768708229054 1.1651321649551394 -0.62789586186408985 0.919071525335312 -1.0526062250137327 2.3089450597763066 1.1360582709312441 1.0488067269325259 -0.99669736623764027 0.26444102823734289 1.1414753198623659 -0.33521832525730128 0.87494608759880077 -1.080023407936096 -0.92581817507743824 -0.7174374759197234 0.8829782009124757 -0.85968273878097523 2.8535257577896123 1.5903332233428957 1.043823301792145 1.032793462276459 1.0488068461418154 1.1892144083976748 -0.74999848008155812 -0.74716511368751515 -0.75406512618064869 -0.68065205216407765 1.0444638133049013 1.1091136932373049 0.2460235878825188 1.1318843364715578 -0.77849712967872609 -0.4785234928131103 -0.54363998770713795 -0.5428461730480193 0.57095900177955639 1.0725981593132021 -0.83149418234825123 -0.96608966588973988 -0.30424544215202326 -0.9088042378425597 -1.0580267310142515 -0.79111722111701954 0.42853394150733953 1.1776016354560854 1.0246931910514834 -0.47980707883834833 -0.86488974094390858 1.0530562996864321 1.0355168581008913 -0.9749900996685027
decision_type=2 2 2 2 2 2 2 2 2 2 2 2 2 2 2 2 2 2 2 2 2 2 2 2 2 2 2 2 2 2 2 2 2 2 2 2 2 2 2 2 2 2 2 2 2 2 2 2 2 2 2 2 2 2 2 2 2 2 2 2 2 2 2 2 2 2 2 2 2 2 2 2 2 2 2 2 2 2 2
left_child=7 2 9 6 71 -6 23 8 11 17 31 21 14 -11 19 25 24 28 -5 20 46 -1 45 29 75 -7 53 -27 72 -4 -24 57 33 34 35 -33 -29 38 64 -40 -22 -28 -8 44 48 47 60 -13 -16 -36 -51 -41 55 67 58 66 -57 -10 -43 63 -12 -23 -31 -42 -26 -56 -35 76 -39 -45 -71 -3 -2 -21 -20 -15 -14 -34 -59
right_child=1 4 3 18 5 15 42 -9 10 13 12 22 26 16 43 -17 -18 -19 74 73 40 61 30 -25 37 27 41 36 -30 62 -32 32 77 52 49 -37 -38 68 39 51 59 54 -44 69 -46 -47 -48 -49 -50 50 -52 -53 -54 -55 65 56 -58 78 -60 -61 -62 -63 -64 -65 -66 -67 -68 -69 -70 70 -72 -73 -74 -75 -76 -77 -78 -79 -80
leaf_value=-0.0034702091862765599 -0.061674489326138275 0.045642238966701026 -0.037297909871485076 -0.016152405004036401 -0.070626818832799032 0.033964553090996955 0.026416278846259765 0.046717606445637369 0.02310797323752729 -0.042538699185885487 -0.019694723794039266 -0.0044151154018168244 0.043319160013015487 0.045636668144020238 0.031207995091024225 0.044783862265183778 -0.016698890693771364 0.0053683912686182667 0.028107409577055289 0.025690624223866445 -0.011773453438344203 -0.033658759224132639 -0.028489312725393148 -0.027128230816348915 0.03880073897959227 0.023891689775155343 -0.0065063324869636683 -0.025846993538300663 -0.015984928993339295 -0.04716257454585019 0.0081704449034418255 0.019789626545926944 0.031916652074059353 0.027489022994221152 0.035185548611273029 -0.025299257200320689 0.0087750686949711384 0.035415587184810929 -0.013708065177219331 0.026944777172497686 -0.055479275609502575 0.00031619078396202642 -0.0081488217235310446 0.033254923287674015 -0.0070921994856630276 0.041587106764097416 0.0186027344957835 0.026887405804759099 0.0047022720260686754 -0.010382079042651716 0.026756232416554299 0.00093843167752275555 0.011407631955649145 0.017610396030790069 0.018968655878185955 0.0068306692553158537 0.036688481726354465 0.034073253237444028 0.022906327820572264 -0.023509467786932768 0.0018905522317834212 -0.059318348138963986 -0.070797606788316814 -0.029571877769078294 0.016287994419891833 0.035617595724259057 0.043641548252857904 0.023554746440966716 0.018667516888552931 0.003001791452208634 0.031118855337702801 0.03320345245885889 -0.038146382620293649 0.011332802015755428 0.044456573884332516 0.029921914150871361 0.029593859312384965 0.043379729507972253 0.044042222810281133
leaf_weight=13.05196890234947 19.003541514277462 255.92537713050842 14.653604209423063 13.530235752463339 85.859656035900116 21.75882089138031 17.819580361247066 245.95545350015163 16.797861516475677 11.52012564241886 13.72813580930233 14.113616019487383 40.177455276250839 30.085171580314636 16.161827012896538 82.331852376461029 22.550715789198875 19.729314014315605 11.949173107743261 11.937936499714853 20.098283886909485 12.906471475958822 18.548774033784866 12.16467724740505 14.04993510246277 18.481350556015968 15.751901075243948 14.914410442113878 12.752562418580053 13.419944792985914 13.645634487271307 13.375333577394487 17.446890905499458 17.898543506860733 19.394285798072815 17.606890216469765 17.083362251520157 29.646655723452568 22.416225522756577 16.699004948139187 15.754852578043939 16.239893376827244 12.028111577033995 21.191299557685852 23.089015886187553 11.882110208272932 14.802791640162466 12.645063370466231 20.714039728045464 12.52150931954384 18.435149610042572 15.79196520149708 12.635446533560751 17.344339221715927 21.317856460809704 14.746423915028574 17.018495380878448 22.76959140598774 11.702071815729139 14.515064239501951 14.165456652641296 23.294906675815582 535.40996977686882 11.852190822362898 11.757539406418799 17.344594165682796 43.657909512519836 13.496995434164999 14.018950954079626 11.990582495927812 14.478910788893698 25.348961114883423 11.907724633812903 18.278729274868965 21.292825296521187 12.064095348119734 13.096321627497671 41.521474838256836 75.937416419386864
leaf_count=55 79 1109 61 57 353 93 76 1067 72 48 58 60 173 130 69 356 95 84 51 51 85 54 78 51 60 79 67 63 54 56 58 57 75 77 83 75 73 127 95 71 66 69 51 91 98 51 63 54 88 53 79 67 54 74 91 63 73 98 50 61 60 97 2204 50 50 74 188 58 60 51 62 109 50 78 91 52 56 179 327
internal_value=0 -0.0177374 -0.0400193 -0.0583012 0.0213976 -0.00586888 -0.0646445 0.0227059 0.0160333 0.00520075 0.0205473 -0.0128778 0.0110079 0.0159365 0.00158428 0.0303253 0.0197043 -0.0284913 0.0234515 -0.00983826 -0.0178459 -0.038962 0.00554898 -0.0686686 0.0247041 0.0134599 0.0246586 0.00413343 -0.0435683 -0.0695157 -0.013173 0.0312782 0.0272464 0.0228561 0.0110643 -0.0058238 -0.00765679 0.0185766 0.0117899 0.00307049 -0.0304136 0.0151656 0.0126745 0.0158848 0.00765765 0.0210864 0.000745592 0.0108129 0.0168364 0.021367 0.0118795 0.0147101 0.0317195 0.0336657 0.0203114 0.0343196 0.0234589 0.0395664 0.0102415 -0.0388284 -0.00904683 -0.0513209 -0.0703065 -0.0457793 0.0295344 0.0271473 0.0394594 0.0375149 0.0305769 0.0258658 0.0189549 0.0446428 -0.0540903 0.0176465 0.0395722 0.0419364 0.0405525 0.0405769 0.0421074
internal_weight=0 1437.97 916.262 652.268 521.704 240.429 605.496 1137.04 891.082 263.994 770.994 120.089 409.231 200.6 242.759 154.57 189.08 63.3931 46.7722 135.133 104.917 49.2533 70.8352 575.648 166.53 72.2379 166.471 50.4791 43.6638 563.484 32.1944 361.763 246.258 187.29 81.3332 30.9822 31.9978 124.38 80.7147 54.9072 62.2204 82.3563 29.8477 107.626 59.9649 38.6408 42.6964 26.7587 36.8759 50.3509 30.9567 32.491 105.957 84.1151 66.6044 93.3214 31.7649 115.505 27.942 42.1221 27.8936 36.2014 548.83 27.607 25.8075 38.6625 61.5565 66.7708 43.6656 47.6608 26.4695 281.274 30.9113 30.2167 33.242 42.1493 53.2738 58.9684 98.707
internal_count=10925 6055 3820 2698 2235 1017 2499 4870 3803 1122 3296 507 1743 855 1031 664 807 267 199 572 443 206 301 2372 712 308 712 215 183 2321 136 1553 1056 802 347 132 136 530 343 233 262 351 127 459 255 165 181 114 157 215 132 138 455 361 284 401 136 497 119 177 118 151 2260 116 110 165 265 287 187 204 113 1218 129 129 142 182 229 254 425
is_linear=0
shrinkage=0.03


Tree=3
num_leaves=82
num_cat=0
split_feature=20 8 11 7 19 15 5 18 16 3 8 3 6 20 19 1 10 10 16 5 15 11 13 13 7 9 5 19 1 19 13 3 10 3 19 18 16 7 11 5 14 19 11 19 9 15 9 3 5 11 14 9 7 13 15 3 19 5 7 8 19 1 11 14 11 13 13 15 19 20 1 13 1 3 1 19 2 1 20 20 3
split_gain=2336.99 701.472 559.102 439.576 298.671 274.085 150.403 125.486 113.549 109.517 74.7219 67.4353 46.7041 43.7889 53.0466 43.3098 41.5088 28.3271 28.0233 25.1477 24.3467 23.2245 30.7463 24.7063 22.3032 19.4223 18.6691 16.0838 15.8615 15.783 14.1879 13.9456 13.8252 13.5044 13.3686 13.3111 12.0707 11.3922 10.7369 10.1532 9.88844 8.52636 8.26229 8.21216 7.56974 7.43209 6.85574 6.30039 7.90245 6.10403 5.76168 5.3328 5.16385 4.32144 4.22009 5.04763 5.78216 5.42081 7.57258 5.13945 4.13128 3.91546 3.72788 3.71704 3.53015 8.11114 6.06488 5.20026 6.96234 6.3393 3.20212 1.76019 2.09706 1.67091 1.61685 1.77735 1.47366 1.26681 0.661434 0.520563 0.123922
threshold=10.360692977905275 -1.0000000180025095e-35 0.79544511437416088 0.61416447162628185 -0.18579441308975217 0.99082371592521679 -0.53406909108161915 3.2723408937454228 -0.16553179919719693 0.64296683669090282 1.0000000180025095e-35 -0.43382936716079706 -0.67612186074256886 14.889966964721681 0.69841724634170543 -0.62000513076782215 1.043823301792145 1.0488068461418154 -1.0000000180025095e-35 -0.65519773960113514 1.2860376834869387 1.4923880100250246 -0.71547138690948475 -0.24652152508497235 1.7192895412445071 -0.80218887329101551 -1.153491675853729 1.3468446731567385 -0.60474660992622364 1.7233175039291384 -0.45711885392665857 0.67191961407661449 1.0274001955986025 1.3926036357879641 0.2539967149496079 1.1649623513221743 -0.88585862517356861 1.7192895412445071 1.7166131734848025 0.50218862295150768 1.1435414552688601 0.06045238301157952 0.8867878019809724 1.5436875224113467 -0.66447767615318287 1.41942834854126 -0.87140908837318409 0.96501156687736522 -1.1162015199661253 0.39102733135223394 1.0809413194656374 -1.0424923300743101 0.93270269036293041 -0.6424722671508788 2.0943149328231816 0.96501156687736522 2.2320301532745366 -0.36288663744926447 1.2273040413856509 -0.92195230722427357 1.3131163716316225 -0.44820375740528101 0.41655765473842626 1.0346947908401491 2.3553075790405278 -1.0357592105865476 -0.92474675178527821 1.0388900041580202 0.55805468559265148 20.420166015625004 -0.98728895187377919 -0.8760891556739806 0.77629584074020397 0.27047221362590795 0.16528537124395373 1.592346251010895 1.0930591821670534 -0.68404436111450184 20.463960647583011 20.272291183471683 0.32082989811897283
decision_type=2 2 2 2 2 2 2 2 2 2 2 2 2 2 2 2 2 2 2 2 2 2 2 2 2 2 2 2 2 2 2 2 2 2 2 2 2 2 2 2 2 2 2 2 2 2 2 2 2 2 2 2 2 2 2 2 2 2 2 2 2 2 2 2 2 2 2 2 2 2 2 2 2 2 2 2 2 2 2 2 2
left_child=4 2 3 5 8 7 28 9 -1 12 -3 -8 -2 14 36 17 27 47 39 -18 24 22 40 35 30 34 46 31 32 37 49 -7 -6 44 -14 -24 -4 50 53 60 54 -23 -13 -22 -11 -30 -16 48 -5 -17 -19 -50 -42 -28 55 56 57 58 59 -15 -12 -26 -21 -33 65 76 -67 68 -68 -70 -53 -41 -73 -69 75 -27 -43 -29 -57 -66 -71
right_child=1 10 13 15 6 16 11 -9 -10 33 18 42 25 21 26 20 19 29 -20 62 43 41 23 -25 61 74 38 77 45 -31 -32 63 -34 -35 -36 -37 -38 -39 -40 71 52 64 -44 -45 -46 -47 -48 -49 51 -51 -52 70 -54 -55 -56 78 -58 -59 -60 -61 -62 -63 -64 -65 79 66 67 73 69 80 -72 72 -74 -75 -76 -77 -78 -79 -80 -81 -82
leaf_value=-0.057582840930504565 -0.0093843836654013638 0.045659493549334428 -0.046291005452586367 0.042455173309482855 -0.0020729364394762402 -0.011437208065249524 -0.0057466614759669873 0.035906485768337291 0.044970631714451557 0.00054303672982206356 -0.0024812651141526898 -0.067944911809658157 -0.056241273830640759 -0.010712110812631058 0.042588263090060738 0.0040486163552166084 0.0099313846100965702 0.003976330465388876 -0.020318547135761558 -0.046342628234833309 0.0068913988603465206 0.014337644932179707 -0.036405831812223226 0.02879769898126994 0.00026760000925915735 -0.066474313460370554 -0.016209809014959393 0.039993545320933195 -0.011057503439312484 0.034188482787034132 -0.044451135795897677 0.008750830816317683 -0.043375426600931445 0.017621779866086987 -0.020508035744257892 0.0015490072347142691 -0.0061477373090033623 0.021669831137870042 0.024434500089992688 0.040279466726865228 0.0025074631390145461 0.043912579574804912 -0.037319805942140787 0.039673810296889475 -0.031698428876896056 0.020691490917964687 0.013736128310492444 0.040465935224482844 0.033981529005952096 -0.023160455857675455 -0.021594826273049976 0.021288361799441782 0.026094794887087398 0.0071349819941614843 0.041665032381239711 0.026288333769297931 0.039431864158977085 0.031913763552226734 0.026946816197508449 0.014135157764868149 0.019736068685455774 0.02392849402584795 -0.020684849775587856 0.032633071438339961 0.029571040102610635 0.011963767333078993 0.0032298672694913038 0.027310673470905936 0.0095438803451029369 0.027237127779743613 0.0016295736663660312 0.014288758055123744 0.033883520953561092 0.043189743502970848 -0.04491371606812785 -0.050266575096287708 0.027814365703834443 0.024432543267661436 0.040328452101251001 0.041904903308303529 0.040918929654391416
leaf_weight=12.260547563433645 17.787232637405396 546.600112631917 14.821992248296739 16.781572341918945 12.461618021130564 20.617414802312851 16.851500540971756 15.243119716644285 35.795116409659386 11.823697581887243 14.11642535030842 443.82244347035885 20.130317196249962 14.208548530936239 25.674890264868736 14.87425507605076 17.572098910808563 12.935384154319765 15.35688531398773 14.018214702606203 14.752283036708834 21.944962710142136 14.39638467133045 15.662136882543562 11.946843385696413 184.04217381775379 15.527751848101614 18.467955708503723 11.83172792196274 13.733882397413252 15.769464358687399 12.426699489355089 16.953035071492195 15.094962209463118 20.271620988845825 17.914520055055618 12.35514724254608 12.361872836947439 15.174785777926443 18.970606222748756 22.476943150162697 48.88066391646862 12.110248595476149 12.785016968846319 13.612413316965105 12.87402395904064 12.050175756216047 58.208814978599548 11.780006676912306 13.325526282191275 18.448393017053604 12.299194693565367 12.527057126164435 11.775588631629946 24.899025946855545 14.131603360176085 12.942748308181761 15.569573223590849 16.18950729072094 13.781583145260813 14.677076056599615 12.358250454068182 11.989503890275953 12.116369649767874 15.462444230914114 22.46046270430088 12.851758971810339 18.038789138197899 12.099804580211638 11.826086997985842 17.390005096793178 12.119232609868051 11.76473546028137 27.872915551066399 13.840434670448301 24.000108048319817 13.872005894780157 16.532622590661049 23.791073635220528 76.337869629263878 16.615079969167709
leaf_count=51 75 2404 62 73 53 87 71 65 155 50 60 1807 83 61 112 63 75 55 65 58 63 94 61 67 51 752 66 80 50 59 66 53 71 64 85 76 52 53 65 82 96 213 50 55 57 55 52 253 51 56 78 53 54 50 108 61 56 67 70 59 63 53 50 52 67 97 55 78 52 51 74 52 51 121 57 99 60 71 103 332 72
internal_value=0 0.015524 0.0033193 -0.014509 -0.0531037 -0.0323263 -0.0596258 -0.0463537 0.0181655 -0.0503643 0.0415488 -0.0650408 -0.0570128 0.0241427 0.00663627 0.0158543 0.00581217 0.0247339 0.0154983 -0.0175017 -0.000355039 0.0277606 0.02016 -0.00104932 -0.00995796 -0.0601949 0.0188879 0.0185463 -0.0119999 0.00733087 -0.0225251 0.00646179 -0.026521 -0.00415604 -0.0392406 -0.0159473 -0.0289071 -0.00167666 0.0050247 0.0233492 0.0260983 0.0332424 -0.0672149 0.0229685 -0.0172577 0.00564805 0.033965 0.0331878 0.0253548 -0.00916161 -0.0112579 0.0175979 0.0114391 -0.00624513 0.0297733 0.0267472 0.0215466 0.017087 0.0112712 0.00158759 0.00912602 0.0127685 -0.0357183 0.021357 0.0346867 0.0317576 0.0267792 0.0299775 0.0227953 0.0287706 0.0102018 0.0324796 0.0249145 0.037666 -0.0638172 -0.064854 0.040846 0.0335261 0.0359063 0.0401685 0.0363483
internal_weight=0 1987.08 1353.47 729.338 574.96 459.587 526.905 335.846 48.0557 320.603 633.605 472.784 280.072 624.134 107.38 269.751 123.741 173.939 87.005 43.5798 95.8116 516.754 218.491 47.973 68.2743 262.285 80.2032 80.1611 54.1204 57.4795 43.9692 45.1605 29.4147 40.5311 40.4019 32.3109 27.1771 43.7457 42.4781 71.6481 170.518 298.263 455.933 27.5373 25.4361 24.7058 37.7251 116.46 58.2508 28.1998 31.3838 41.4692 35.004 27.3033 135.514 110.615 72.692 59.7492 44.1796 27.9901 28.7935 24.3051 26.0077 24.5431 276.318 184.518 121.765 99.3044 53.3927 40.541 29.6892 42.8546 23.884 45.9117 221.883 208.042 62.7527 35.0006 37.9227 91.8003 28.4412
internal_count=10899 8536 5759 3069 2363 1913 2157 1387 206 1322 2777 1928 1151 2690 459 1156 526 749 373 183 407 2231 939 204 289 1076 345 343 229 245 185 192 124 171 168 137 114 186 181 308 735 1292 1857 118 107 105 164 504 251 119 133 178 150 116 585 477 313 257 190 120 123 104 108 105 1198 799 526 429 230 175 127 185 103 199 908 851 273 151 164 399 123
is_linear=0
shrinkage=0.03


Tree=4
num_leaves=83
num_cat=0
split_feature=20 4 11 5 11 5 3 5 13 19 4 10 8 1 15 19 20 5 5 15 1 11 20 13 16 19 10 19 13 19 13 11 13 4 11 3 13 1 14 19 11 5 14 0 20 0 20 13 20 19 3 3 3 0 20 19 13 19 20 1 1 14 1 14 13 2 20 3 11 0 13 15 6 0 8 11 5 11 0 10 1 5
split_gain=2213.92 652.978 517.257 437.939 278.172 172.164 140.566 117.818 86.3132 82.5596 79.8652 64.6844 61.2652 53.6356 46.5576 43.21 39.0156 66.2865 32.3462 29.0738 27.7171 24.5339 24.3589 23.5562 22.0784 20.883 20.2341 19.7986 18.9453 17.1424 15.1378 14.2165 14.1674 13.7442 13.4998 12.4787 12.3116 12.3054 10.4929 9.36072 9.29053 9.05932 8.33331 7.90733 7.84978 7.35236 6.89784 12.8285 6.75439 6.53393 5.95099 5.36453 5.2662 4.97779 4.83332 4.81559 4.1807 4.17498 3.81651 3.54263 3.53772 3.37438 3.02186 2.62139 2.44828 3.15732 2.24675 1.9248 2.34176 2.2331 1.93698 1.81155 1.74264 1.46505 1.31041 1.26672 1.17547 0.999047 0.845617 0.551242 0.169861 0.0236625
threshold=10.360692977905275 -1.0000000180025095e-35 0.79544511437416088 -0.65519773960113514 -0.35947269201278681 0.55569675564765941 0.81952074170112621 -0.52797728776931752 -1.1043147444725034 1.3312783241271975 1.0000000180025095e-35 -0.16553179919719693 -0.2959629744291305 -0.62000513076782215 0.65207207202911388 -0.13900213688611981 14.424175739288332 -0.91417133808135975 -1.143127381801605 0.90621402859687816 -0.44125969707965845 1.7730706930160525 4.3694243431091317 1.4782148003578188 -0.80380773544311512 0.8997042477130891 -0.19200663268566129 0.46793231368064886 -0.81377679109573353 1.3633519411087038 -0.70334187150001515 0.94110360741615307 -0.54982802271842945 -0.8744727075099944 0.28005966544151312 1.33385306596756 -0.45026558637619013 0.26673014461994177 1.1406821608543398 1.4380692243576052 -0.77042070031166066 -0.78002604842185963 1.0382344126701357 -0.70419830083847035 14.371915340423586 -0.60260677337646473 20.354435920715336 -0.87023895978927601 20.272291183471683 2.0036547183990483 -0.36881756782531733 0.23510100692510608 0.50068590044975292 -0.81649503111839283 19.601392745971683 0.071766659617424025 -1.2059330344200132 2.3492455482482915 20.354435920715336 -0.58547747135162342 -1.0011916756629942 1.0846496820449831 -0.66981709003448475 1.1002693176269533 -1.080023407936096 1.032793462276459 22.858906745910648 0.51324766874313366 3.0710403919219975 -0.46625120937824244 -1.0357592105865476 0.75548911094665538 1.0904048681259157 -0.89534100890159596 -0.80960023403167714 1.8677977919578554 -0.65519773960113514 1.1414753198623659 -0.95492148399353016 -0.79471775889396656 0.89406913518905651 -1.4881061911582945
decision_type=2 2 2 2 2 2 2 2 2 2 2 2 2 2 2 2 2 2 2 2 2 2 2 2 2 2 2 2 2 2 2 2 2 2 2 2 2 2 2 2 2 2 2 2 2 2 2 2 2 2 2 2 2 2 2 2 2 2 2 2 2 2 2 2 2 2 2 2 2 2 2 2 2 2 2 2 2 2 2 2 2 2
left_child=4 2 3 8 11 6 9 22 41 37 -3 19 20 18 28 -9 17 39 81 -1 -11 25 -6 29 -19 30 -8 32 -15 35 38 -17 -12 -24 -28 54 -32 40 48 -4 -5 56 -43 74 -30 51 47 57 -18 50 58 -16 -50 -46 -20 -23 -2 77 -29 61 -48 -42 -41 -31 -62 -66 -25 68 69 70 -57 -54 78 -22 -7 -69 -67 -27 -72 -60 -51 -10
right_child=1 10 16 5 7 43 26 15 13 12 27 -13 -14 14 45 31 21 24 23 -21 73 55 33 66 -26 46 34 49 44 63 36 -33 -34 -35 -36 -37 -38 -39 -40 62 59 42 -44 -45 53 -47 60 -49 52 80 -52 -53 71 -55 -56 67 -58 -59 79 -61 64 -63 -64 -65 65 76 -68 75 -70 -71 72 -73 -74 -75 -76 -77 -78 -79 -80 -81 -82 -83
leaf_value=-0.042189111208509794 0.041423039047644251 0.045198104617389712 0.0072583263115602601 -0.03521066293357436 -0.044511042736957086 0.019558347406984297 0.036013060162964988 -0.0092816384864641086 0.04389130822788527 0.00041309810952403468 0.015441250873108671 0.044696805321757425 0.035716906015006662 0.0041156523401291124 -0.012537970938246028 -0.065319870751560927 0.0031176436781575035 -0.041705686493759227 -0.036829880987055419 0.011495284906966163 -0.059461164673857266 0.018618348559256329 -0.019293373367359649 0.018055112415469976 0.0028347631757200129 0.012985370686210747 -0.02280773715119647 0.01367561639685692 -0.021611485385945012 0.0054306111896455841 -0.02506179146729964 -0.029507026603813158 -0.0283858114071831 0.020418643435828578 0.016379971982884742 0.0089996087173935639 0.013090817660798343 -0.025672526672256571 -0.0026264011458424219 0.039130861582399562 -0.056532974697518758 -0.0019316734652647539 0.031664665698175345 0.0039841306720888956 -0.062634135475702291 0.028118254955794224 0.041379766382247052 -0.00025270927887366965 0.013729568987290934 0.028645972295129919 0.0029668362391674185 0.011068632299177376 0.022630756855947579 -0.034558206061682195 -0.012475089194135843 0.035230525359729606 0.022729021945762897 0.043156857790382974 0.038502896037423705 -0.063881700630794208 0.016558429964281952 -0.030863645560194917 0.018952600890606557 0.024593214841342224 0.018289879840995438 0.025328071857069871 0.038857157354158962 0.026257516119918556 0.043418440847345023 0.040966202260958769 0.017238251687806086 0.041389502303567915 0.010624480222930584 -0.036736093992891898 0.036521635571162427 0.040895385708596202 0.039599454500315281 0.026450994904689797 0.030496991300720176 0.023363751973833179 0.042886855646637016 0.030053893130010889
leaf_weight=18.301598876714706 64.871595323085785 526.26653461158276 17.232088476419449 17.49672831594944 12.218558371067045 12.367913991212847 13.488539993762968 13.541997551918028 19.761455833911896 13.52509725093841 12.576438322663309 25.57782718539238 13.838626518845556 12.090285018086432 13.479070529341696 446.54741290211678 12.287319228053091 22.636001765727997 15.092544153332712 16.49958473443985 16.48051455616951 18.341081157326698 12.375973850488661 11.998320758342745 17.173679128289223 12.701737880706789 18.217678040266041 21.947862342000008 22.401198074221611 13.55327692627907 15.431742921471598 12.604277119040487 12.065306857228277 18.026238322257999 12.533338800072668 13.327229380607603 13.314093843102453 12.116194695234297 17.761388912796974 30.542010918259621 19.560485228896145 12.093270853161814 13.459728196263312 18.864507898688316 12.097479626536364 12.127552539110182 32.825902581214905 20.563917472958565 17.380400598049164 14.555005982518198 17.489598751068115 20.600375905632973 11.995815321803091 21.705545425415043 16.35814568400383 14.117447972297667 18.05559977889061 12.599488392472265 11.535800039768221 176.14682503044605 17.448474481701851 12.089941918849943 12.453952908515928 12.615628749132155 17.320064201951027 16.385281935334206 12.617912605404852 13.237826406955717 15.917596340179442 12.396187826991079 13.943759024143214 20.318615108728409 13.418505698442457 12.135746747255331 13.773641571402548 103.56130768358707 30.138456895947456 14.50405792891979 15.083520948886877 12.274280175566672 11.894767358899115 12.248126968741415
leaf_count=76 285 2348 74 72 51 53 58 57 87 57 54 112 60 51 57 1804 53 94 63 70 67 79 52 52 73 55 76 95 94 58 65 52 51 77 53 57 57 50 76 134 80 52 58 80 50 52 144 88 75 63 75 88 52 90 69 62 78 55 50 715 76 50 54 54 75 71 55 58 70 54 61 89 58 50 59 455 131 63 66 53 52 53
internal_value=0 0.0153826 0.00343528 -0.013485 -0.0514195 -0.0356366 -0.0429721 -0.0585459 0.0107264 -0.0504663 0.0402589 0.00936459 -0.0173039 0.000726688 -0.0141141 -0.0628468 0.0239959 0.00680291 0.0140531 -0.0171267 -0.0351395 0.027395 -0.0104984 0.00515138 -0.0228925 0.0214091 0.006745 0.0173303 -0.029683 -0.00370282 0.0109285 -0.064403 -0.00628788 0.00415328 -0.00682296 -0.0148607 -0.00754478 -0.0581804 0.0175986 0.0264844 -0.0598075 0.0328305 0.0162908 0.0191313 -0.0368984 0.00903833 0.0278262 0.0190565 0.0233439 0.0238164 0.0180783 0.00164052 0.0281849 -0.046117 -0.0249372 0.0349622 0.0376721 0.0287936 0.0236672 -0.0617 0.0322595 -0.0479733 0.0338498 0.0152338 0.0281187 0.030974 0.0298186 0.0363493 0.0316408 0.0283404 0.0249098 0.0353142 0.0207452 -0.0513896 0.0295124 0.0394733 0.0352119 0.0208475 0.0249141 0.0319548 0.0363793 0.0396674
internal_weight=0 1976.83 1336.22 733.19 575.693 382.636 337.63 515.314 350.554 293.39 640.606 60.379 55.98 242.074 114.502 472.694 603.032 100.038 127.573 34.8012 42.1414 502.994 42.6208 95.5631 39.8097 282.977 44.2396 114.339 68.2945 70.9468 108.489 459.152 24.6417 30.4022 30.751 44.7779 28.7458 237.41 79.7435 60.2281 225.294 108.48 25.553 45.0061 56.2042 46.207 174.487 60.3692 61.9822 89.6973 63.2475 34.0794 49.6948 33.803 31.4507 220.017 82.9272 39.8053 45.7579 207.797 114.118 31.6504 42.996 26.1689 81.2923 63.8438 24.6162 201.676 84.877 68.9594 56.5632 32.3144 42.4458 28.6163 26.1416 116.799 46.5237 27.2058 29.0273 23.8101 26.4498 32.0096
internal_count=10892 8541 5700 3083 2351 1580 1388 2093 1503 1201 2841 258 234 1030 482 1913 2617 429 548 146 174 2188 180 408 167 1225 187 493 285 301 467 1856 105 129 129 189 122 967 345 262 917 473 110 192 234 197 758 261 269 388 273 145 216 140 132 963 363 173 198 845 497 130 188 112 353 277 107 884 371 301 247 141 185 117 112 513 202 118 127 103 115 140
is_linear=0
shrinkage=0.03


Tree=5
num_leaves=77
num_cat=0
split_feature=20 4 3 11 11 7 18 19 5 4 10 9 10 3 19 20 7 12 17 11 6 5 7 9 20 19 19 3 5 9 7 4 9 19 11 12 19 3 20 6 20 17 17 3 7 6 17 8 10 19 7 0 0 3 11 10 14 12 17 9 11 5 11 6 5 5 7 10 3 10 18 7 19 9 19 3
split_gain=2082.52 666.801 513.32 371.281 255.851 218.645 181.101 115.22 69.4787 65.1594 57.1228 55.2927 54.2587 51.1835 41.7237 30.5264 29.8067 26.5676 25.3293 22.072 19.6846 19.1798 15.7107 14.6514 14.4861 13.7751 13.4261 18.4034 13.3176 12.8216 12.3092 12.1216 10.8496 10.6395 13.13 10.6364 10.5803 10.6427 10.3275 16.774 10.1133 24.9453 23.2891 18.1923 9.90734 13.4264 9.32845 8.36216 8.09671 7.41156 6.94394 4.76755 4.67368 4.60943 5.25719 4.10872 3.65754 3.18716 3.0962 5.62281 6.10745 2.53329 2.53128 3.23186 2.86289 2.43334 2.24329 1.97492 3.23006 1.39267 1.16064 1.03094 0.92168 0.758274 0.481266 0.169436
threshold=10.360692977905275 -1.0000000180025095e-35 0.37407147884368902 0.77579557895660411 -0.4370433241128921 0.80965286493301403 3.2197148799896245 -0.24053491652011869 -0.53406909108161915 1.0000000180025095e-35 -0.16553179919719693 -0.93385484814643849 -0.65011358261108387 1.0893537998199465 0.9368465542793275 14.424175739288332 1.0465415716171267 -0.82915461063384999 0.47908109426498419 0.94110360741615307 1.1435414552688601 -0.69072341918945301 1.6624641418457033 0.18368728458881381 4.3694243431091317 2.2320301532745366 1.7648473381996157 -0.60515767335891713 0.67767533659935009 -1.0803855657577512 0.82832050323486339 -0.84918051958084095 -0.87140908837318409 0.87494608759880077 2.0000474452972417 -0.56252065300941456 1.4765865206718447 2.1595681905746464 20.354435920715336 1.0488067269325259 20.354435920715336 -1.1590877175331114 -0.018012686632573601 1.4638212919235232 0.80965286493301403 0.99414998292922985 -0.75589102506637562 -0.92581817507743824 1.0741701722145083 0.31572741270065313 1.0835669040679934 -0.52613484859466542 -0.22941467165946958 0.50068590044975292 1.6439662575721743 1.1502388715744021 1.3698595166206362 -0.81649503111839283 -1.0053286552429197 0.11827789619565011 1.4923880100250246 -0.61216095089912403 -1.0878790020942686 -0.60744664072990406 1.5289578437805178 -0.99804773926734913 1.4783110618591311 1.0954428911209109 0.96501156687736522 1.0877941250801089 4.6364734172821054 0.46434716880321508 1.9528586864471438 -0.99364802241325367 1.7233175039291384 0.21112374216318133
decision_type=2 2 2 2 2 2 2 2 2 2 2 2 2 2 2 2 2 2 2 2 2 2 2 2 2 2 2 2 2 2 2 2 2 2 2 2 2 2 2 2 2 2 2 2 2 2 2 2 2 2 2 2 2 2 2 2 2 2 2 2 2 2 2 2 2 2 2 2 2 2 2 2 2 2 2 2
left_child=4 2 3 5 10 6 12 -6 24 -3 17 40 32 14 21 16 -5 -1 23 -10 33 47 26 29 -9 38 27 -7 35 -14 -22 -23 -2 34 49 -11 37 44 39 50 41 65 43 -43 45 -15 -47 -13 -46 -17 -16 -30 56 54 -42 -40 71 -24 75 60 -60 -36 -53 64 -64 -4 -27 73 -69 -39 -8 -31 74 -55 -38 -35
right_child=1 9 11 15 7 22 70 8 19 28 -12 13 18 36 25 20 -18 -19 -20 -21 30 31 57 -25 -26 66 -28 -29 51 52 -32 -33 -34 58 61 -37 72 69 55 -41 53 42 -44 -45 48 46 -48 -49 -50 -51 -52 62 -54 67 -56 -57 -58 -59 59 -61 -62 -63 63 -65 -66 -67 -68 68 -70 -71 -72 -73 -74 -75 -76 -77
leaf_value=0.018484698320285195 0.013754549636965555 0.044629413591626227 0.038919457175115309 -0.030627632687491833 0.017228230763501794 0.014383215647923948 0.024476945430999365 -0.042371321075738648 -0.063043892434023807 0.015787021806503879 0.043808377366813776 0.017120457283373254 -0.024540511835285776 0.021960747965319459 -0.0033330516045683906 0.018587067488059876 0.023758345147828923 -0.035055294095938154 -0.010978559588046995 -0.023676581196485157 -0.014628023243020066 -0.05117577558118272 0.031768929541201973 -0.021626219042116958 -0.0025632194733990958 0.039663758435673352 0.02300939024181518 -0.027666856709582969 0.007718465864049691 -0.062687348608124985 0.018124800352912331 -0.011457105235361736 -0.025321712980564345 0.042116305007360848 0.03623617963246719 -0.01705593160069625 0.032989330852666587 0.035170586088178288 0.0091428656815039089 -0.021062855863329545 0.0083946935504523885 -0.026841026089445146 0.029777903264542702 0.017900497048055051 0.036197666579416747 0.0067766439720924549 -0.028955711225224712 -0.013116750748085002 0.0065526358054526545 -0.0079516847151451138 0.027318542027528286 0.042696537906100805 -0.041386934842319818 0.03813834460393159 0.033586230750311599 0.032440598802343935 -0.041629495529561453 0.013136205139385076 -0.0011643709924440944 0.038354933934215948 0.028068006237799887 0.017155447015149358 0.011232645934783425 0.038724700118841271 0.029197638601505854 0.021592140792523789 0.018733414111316196 0.013653269055692696 0.033936726407988699 0.020164525186155916 0.043309420416884785 -0.04421109409033766 0.039729432237726625 0.025898445996491447 0.019926133655896579 0.029302065596354503
leaf_weight=12.505894437432287 11.703549385070803 521.71962870657444 46.314429074525833 22.9857047945261 18.145093321800232 14.724474206566809 11.574635371565821 12.080397397279738 459.31487257778645 23.050748690962791 24.499617144465446 11.524375304579733 12.332463398575781 16.21628426015377 11.640099078416826 15.114559307694433 13.673656314611433 21.36720672249794 12.484872683882712 14.807053253054617 21.295654222369194 17.244700774550441 19.629452645778656 12.508687332272528 22.552466690540314 13.788398593664171 13.217261821031569 22.591392025351524 11.573661640286444 194.07502861320972 18.238470882177353 12.297075256705282 11.976583629846571 25.22796668112278 19.043474972248077 13.096314325928686 13.658689543604853 26.940527588129044 16.357692703604702 22.419431895017624 15.539420098066332 19.408921048045158 22.957472309470177 12.761166036128996 18.419689431786537 11.869322851300241 12.92717134952545 23.088749751448631 15.398985400795935 22.04783108830452 13.936279624700544 12.271756097674368 22.622636944055557 138.88721406459808 15.108639523386953 12.259663268923758 17.743656858801842 17.715087056159973 11.632957115769388 15.978024587035177 13.179499775171278 13.765173226594923 19.746705338358879 12.379002690315245 15.376423195004461 13.987725049257277 11.438236176967619 13.069549292325972 22.481529518961906 13.75252506136894 11.747432410717009 13.858704730868338 29.52796958386898 14.213887259364126 12.085295319557188 14.283712863922117
leaf_count=53 50 2363 206 96 78 63 50 50 1846 99 109 50 51 70 50 65 59 89 52 61 91 71 85 52 95 60 57 95 50 783 79 51 50 111 84 56 60 118 70 95 67 82 100 55 81 51 54 98 66 95 61 54 92 616 67 53 73 76 50 70 58 60 86 54 67 61 50 57 99 59 51 57 130 62 53 63
internal_value=0 0.0148587 0.00272406 -0.0163337 -0.0496295 -0.0329845 -0.0440759 -0.056221 -0.0588693 0.0402418 0.0098136 0.0210821 -0.0501596 0.0124433 0.000559754 0.0145927 -0.0102499 -0.0153252 -0.0537669 -0.0618669 0.0194193 -0.018227 0.00902162 -0.0556755 -0.0172482 0.0124568 -0.00192887 -0.011132 0.0187315 -0.0572207 0.000556373 -0.0355589 -0.00623407 0.0243453 0.0154409 0.00374899 0.0239223 0.0184733 0.00594587 -0.00259967 0.0297112 0.0221336 0.00733933 -0.00908845 0.0115048 0.00147627 -0.0122521 -0.00285128 0.023275 0.00304628 0.0137681 0.0261653 -0.0587389 0.0335812 0.0214823 0.0198819 -0.0602881 0.0235032 0.0318188 0.0247538 0.0148487 0.0289749 0.0295513 0.0253451 0.019688 0.035318 0.0312497 0.0354231 0.0270575 0.0307045 0.0353536 -0.0616734 0.0347807 0.0371774 0.0278313 0.0383215
internal_weight=0 1947.71 1318.49 646.973 585.273 420.506 332.628 526.9 508.755 629.214 58.3727 671.521 309.306 336.791 165.995 226.467 36.6594 33.8731 285.626 474.122 189.807 64.1549 87.8777 273.141 34.6329 101.84 50.5331 37.3159 107.495 260.632 39.5341 29.5418 23.6801 150.273 69.971 36.1471 170.796 115.525 76.6132 47.9958 334.73 115.43 55.1276 32.1701 74.8315 41.0128 24.7965 34.6131 33.8187 37.1624 25.5764 71.3475 248.3 219.3 30.6481 28.6174 225.677 37.3445 80.3022 40.7905 24.8125 32.8086 59.7739 47.5021 35.1231 60.3022 25.2266 188.652 35.5511 40.6931 23.3221 207.934 55.272 153.101 25.744 39.5117
internal_count=10851 8470 5641 2718 2381 1737 1361 2130 2052 2829 251 2923 1260 1451 709 981 155 142 1160 1907 826 270 376 1108 145 439 215 158 466 1056 170 122 100 656 304 155 742 499 329 206 1472 504 237 137 322 175 105 148 147 160 111 311 1005 968 134 123 913 161 352 178 108 144 261 207 153 267 110 834 156 177 101 840 243 678 113 174
is_linear=0
shrinkage=0.03


Tree=6
num_leaves=82
num_cat=0
split_feature=20 4 3 11 19 7 19 11 4 0 11 11 3 5 1 20 7 10 13 1 13 10 5 20 12 19 11 17 11 0 7 7 5 0 10 15 13 20 19 0 10 15 13 13 5 13 4 12 7 11 6 5 0 5 5 13 1 15 0 19 3 1 17 17 5 3 7 14 15 3 11 11 20 3 8 20 13 6 13 13 20
split_gain=1914.86 619.853 474.728 343.532 245.389 176.96 119.612 117.895 75.789 70.5836 69.4271 52.0848 63.8799 59.9453 40.6043 33.9485 48.8703 28.3526 26.4542 26.3783 24.9361 21.97 20.0911 19.6902 18.242 17.9453 19.4905 17.86 13.7293 12.9464 12.2481 12.2258 14.2606 12.1069 11.9135 11.1553 10.7811 10.5695 12.9683 13.5694 10.2901 10.024 22.079 9.7924 9.65186 9.5387 6.34454 6.27559 5.8495 10.8608 5.82692 5.44398 5.39939 5.39602 4.93158 4.88934 13.5055 4.22695 4.13114 3.8176 4.41563 3.62859 4.06367 9.72655 3.42588 4.45228 3.39642 2.14655 2.14585 4.60584 3.0801 2.81395 2.60355 1.76396 1.24021 1.21753 0.830822 0.776184 0.685672 0.132176 0.129283
threshold=10.360692977905275 -1.0000000180025095e-35 0.36276513338088995 0.65151977539062511 -0.20278214663267133 0.80965286493301403 1.3468446731567385 -0.4370433241128921 1.0000000180025095e-35 -0.31466899812221522 0.76121661067008983 1.1414753198623659 1.0465162396430971 -0.68065205216407765 -0.58547747135162342 14.716123104095461 0.8829782009124757 1.0488068461418154 -0.99171012639999379 0.43089479207992559 0.50917595624923717 1.0513128638267519 0.67767533659935009 7.1736445426940927 -0.73029521107673634 0.87494608759880077 1.9674980044364931 -0.94999969005584706 0.21897939592599872 -0.77849712967872609 -0.73534744977951039 1.6624641418457033 -0.16289199143648145 -1.0000000180025095e-35 1.0382344126701357 1.07762086391449 -0.96794539690017689 20.420166015625004 0.68411883711814891 -0.88928613066673268 1.0246931910514834 0.49001267552375799 -0.79111722111701954 -0.96794539690017689 -0.53406909108161915 -0.34136255085468287 -0.85972526669502247 -0.82223510742187489 1.1251800060272219 1.1734854578971865 1.1275102496147158 -0.64977484941482533 -0.86602380871772755 -0.7967051863670348 -0.49566973745822901 -0.70334187150001515 -0.7850498855113982 0.43900732696056372 -0.22360574454069135 1.592346251010895 -0.6423472762107848 -0.63258984684944142 -1.1590877175331114 -0.81587669253349293 -0.85235744714736927 1.4210673570632937 0.79254359006881725 1.0382344126701357 0.67557072639465343 0.62518897652626049 1.6943612694740298 2.2238835096359257 23.367365837097172 1.7344653606414797 -0.20851338654756543 19.650675773620609 -0.95645925402641285 1.0690427422523501 0.056150548160076148 -0.35249701142311091 22.003000259399418
decision_type=2 2 2 2 2 2 2 2 2 2 2 2 2 2 2 2 2 2 2 2 2 2 2 2 2 2 2 2 2 2 2 2 2 2 2 2 2 2 2 2 2 2 2 2 2 2 2 2 2 2 2 2 2 2 2 2 2 2 2 2 2 2 2 2 2 2 2 2 2 2 2 2 2 2 2 2 2 2 2 2 2
left_child=4 2 3 5 41 6 20 33 -3 14 44 12 13 17 -8 16 -5 34 -19 22 30 64 -10 52 27 26 29 -15 -23 35 -2 32 36 -6 40 -17 -7 38 39 -13 47 42 -1 73 -9 77 -20 66 49 -27 80 -28 -12 -45 -16 56 -29 -24 -32 60 -21 62 -40 -64 75 -66 -4 -67 71 70 -70 72 -39 -30 -11 -14 -50 -33 -46 -68 -51
right_child=1 8 11 15 7 31 9 10 19 74 23 37 21 24 54 25 -18 18 46 59 -22 28 57 -25 -26 48 51 55 43 -31 58 45 -34 -35 -36 -37 -38 68 61 -41 -42 -43 -44 53 78 -47 -48 -49 76 50 -52 -53 -54 -55 -56 -57 -58 -59 -60 -61 -62 -63 63 -65 65 67 79 -69 69 -71 -72 -73 -74 -75 -76 -77 -78 -79 -80 -81 -82
leaf_value=0.036644211338509987 -0.029609515206183171 0.043987065019255651 0.01337808666684233 -0.038917348798316362 -0.013543126499789407 0.0069633857734123653 0.0083712553150027836 -0.031069829752331479 -0.023145087016552889 0.021985452700879218 -0.04578342934447166 -0.016313992566538343 0.028860013439869516 0.00086285773528554932 -0.027977134442418439 -0.027843360984223232 0.027911535056340815 0.019668393120537989 -0.034879634571697113 0.030020252964387126 -0.011961749958888959 -0.006782742723956979 0.0041429237762236337 0.009201827710169903 0.0079857855646589659 0.0032482768449070163 0.038588310818240414 -0.050161721937911283 0.023438612880749516 0.016958771495378895 -0.058928235060687104 0.038024362312787725 0.024203984426193741 0.023109963633137078 0.04019205574823663 0.0054221358812443507 -0.027579410813110636 0.028603303021638278 0.038840130213697324 0.024812177998982735 -0.0072150769399416505 0.042072149962106849 -0.012757932237404609 -0.0059510437450978971 -0.06139920701589497 -0.001733184747633332 -0.0070537523589341462 0.0034869536480928772 0.041892620393734051 0.025473642277660725 0.00871088113373732 0.013747161058762534 -0.016783004985862212 0.018670031889015289 -0.055995283481225892 -0.054956599530153777 -0.0066749759560843884 0.028687844086328462 -0.040195418885367956 0.0380519691567602 0.0086920389930072953 0.015853878271744309 0.0035050665027552622 0.038903519361484895 0.013186160422348603 0.023457214384647408 0.040082707393582932 0.040437253342621153 0.011861450589566355 0.040474076255196702 0.032186119915100994 0.037051162071204395 0.010476883172813627 0.042542094311873314 0.040175438583027093 0.041953971215685046 0.026382719874385865 0.021912210310774064 -0.044625663515115696 0.02605409174085169 0.03645219657710376
leaf_weight=14.315132811665533 19.101465463638306 510.12527096271515 11.961029067635534 23.743605256080627 16.418624639511112 13.319156065583227 17.234214082360268 13.216151908040045 20.09336930513382 11.718702614307405 14.421784356236456 13.946008935570719 21.170415654778481 12.625708952546118 12.104404821991919 20.763863727450371 15.454400733113287 21.632152855396271 16.625245288014415 21.91814099252224 13.376302301883696 23.085361570119858 13.37759540975094 14.311358928680418 13.808134689927099 22.842126861214638 14.154567301273344 13.084703266620631 15.306946188211443 17.037585332989693 191.67416779696941 11.639685004949571 11.540645658969877 14.21178402006626 24.444330930709839 15.078682065010069 18.620577529072765 17.371629104018215 33.753565564751625 12.998280718922613 13.725163772702215 12.51539623737335 16.586896002292637 13.279034286737444 434.42685881257057 11.577362537384031 13.75514344871044 13.000816673040388 19.764646098017693 14.465909540653227 11.986146494746206 20.561413526535034 12.080619290471079 17.833840981125832 22.580863401293755 13.929031953215601 12.472028836607935 11.675056830048559 21.185864731669426 24.758450493216515 15.901469916105269 21.035111933946609 13.971276596188547 13.423168912529944 18.145741298794746 20.708497315645218 12.18579745292663 18.298805207014084 11.619169220328329 92.579304158687592 23.191161066293716 19.37849235534668 14.554107159376143 12.023856103420256 12.008932605385779 43.077077984809875 13.423080906271933 11.559016048908232 14.926550164818762 11.594027459621435 26.971339181065559
leaf_count=64 78 2347 52 98 69 57 73 55 85 51 59 59 94 54 50 88 67 94 70 96 56 98 58 60 58 98 63 54 67 73 771 51 50 61 109 65 78 77 151 56 60 56 70 57 1740 50 58 56 88 64 52 90 50 76 91 57 52 51 86 110 69 92 61 59 79 91 54 81 51 416 104 87 64 53 53 194 59 50 60 51 120
internal_value=0 0.0143514 0.00281609 -0.015915 -0.0478033 -0.0328524 -0.0426884 -0.053375 0.0391581 -0.00955198 -0.0568456 0.0199269 0.0129788 0.00114019 -0.0289949 0.0127258 -0.0125302 0.0123037 -0.00516299 0.0160963 -0.0528253 0.0248649 -0.00140906 -0.0187666 -0.0222188 0.0177878 0.00754316 -0.0302219 0.0125963 -0.00395142 -0.0551203 0.00752156 -0.00309981 0.00365601 0.0226965 -0.0140815 -0.0134007 0.0296917 0.0219406 0.00370375 0.0153248 0.0203852 0.0105585 0.0202364 -0.0601577 0.0205169 -0.0229073 0.0216893 0.0258441 0.0207616 0.0280525 0.0246724 -0.033655 0.00830362 -0.0472756 -0.0399372 -0.0299901 0.0162435 -0.0572604 0.0285488 0.0215076 0.0278033 0.0315927 0.0216094 0.0329338 0.0265174 0.0280353 0.0322344 0.0342768 0.0367307 0.0259227 0.027598 0.0209091 0.0330479 0.0324441 0.0381478 0.0365747 0.0312336 -0.0609424 0.0345704 0.0333101
internal_weight=0 1948.93 1331.08 635.489 577.431 399.241 320.985 534.014 617.849 75.6471 503.383 695.594 407.773 204.843 51.9195 236.247 39.198 138.924 52.0125 107.724 245.338 202.93 45.146 40.8138 65.9196 197.049 87.5961 52.1115 81.529 52.8801 231.961 78.2564 43.4804 30.6304 86.9112 35.8425 31.9397 287.821 109.127 26.9443 62.4668 43.4174 30.902 58.4437 462.57 34.7761 30.3804 48.7417 109.453 76.2655 53.4234 34.716 26.5024 31.1129 34.6853 39.4858 25.5567 25.0527 212.86 62.5781 37.8196 82.1831 61.148 27.3944 121.401 57.153 35.7409 39.0073 178.694 127.39 34.8103 51.3042 31.9257 27.3308 23.7276 64.2475 33.1877 23.1987 449.353 23.7798 41.4372
internal_count=10876 8532 5716 2670 2344 1645 1309 2154 2816 318 2024 3046 1769 879 214 1025 165 604 222 469 991 890 194 169 275 860 379 217 351 226 935 336 185 130 382 153 135 1277 478 115 273 190 134 253 1855 151 128 213 481 334 236 153 109 133 141 163 106 109 857 275 165 363 271 120 539 251 157 172 799 571 155 228 141 120 104 288 147 101 1800 105 184
is_linear=0
shrinkage=0.03


Tree=7
num_leaves=80
num_cat=0
split_feature=20 0 11 1 19 7 18 5 18 1 0 5 10 9 1 13 20 19 13 15 10 10 13 1 7 15 5 5 14 9 5 18 15 14 9 0 7 20 6 13 9 13 11 7 11 9 5 20 6 13 9 5 18 1 18 19 6 18 15 7 9 9 15 16 7 15 19 5 20 1 0 19 20 19 16 5 11 1 9
split_gain=1838.13 603.141 435.682 403.164 234.067 154.647 120.443 100.821 88.155 80.8494 78.4618 55.1858 42.3624 40.5745 36.9223 27.5886 26.5357 45.1473 31.5417 22.8593 22.141 24.8105 19.8368 19.1453 18.8274 18.5354 17.6353 18.7317 16.5485 15.4747 14.5882 13.6992 13.3548 16.8741 12.9576 12.1369 11.261 10.4067 10.1472 9.8281 9.36152 8.60452 8.74274 8.35341 6.90736 6.44394 5.49033 9.16763 5.47767 5.18809 4.86621 4.59007 4.47239 4.4275 3.86821 3.77592 6.10008 9.02955 3.42562 5.62827 7.15511 3.18261 3.12083 2.89638 4.8128 2.89547 2.28749 1.64105 1.4614 1.85875 1.07412 0.925027 0.722637 0.632056 0.528452 0.401435 0.362388 0.163338 0.10064
threshold=10.360692977905275 -1.0000000180025095e-35 0.9617639183998109 -0.61138656735420216 -0.20278214663267133 0.66763532161712658 3.2197148799896245 -0.5428461730480193 1.0000000180025095e-35 0.71387869119644176 1.0000000180025095e-35 0.62112230062484752 1.0444638133049013 0.3565670400857926 0.59106281399726879 -1.1448797583580015 14.889966964721681 1.2964160442352297 -0.66822782158851612 0.89382007718086254 1.0382344126701357 1.0266881585121157 -1.0633157491683958 -0.41040652990341181 -0.62420395016670216 1.2488355636596682 -1.0485161542892454 -0.5125003159046172 1.0140533447265627 -0.70010536909103382 -0.63836625218391407 1.2387564182281496 1.0223951339721682 1.113122880458832 -0.50048398971557606 -0.2959629744291305 1.1251800060272219 9.0425019264221209 -1.0000000180025095e-35 -0.71547138690948475 -0.70010536909103382 -0.70898479223251332 1.8677977919578554 0.48493354022502905 1.3981766700744631 -0.84807774424552906 -1.0402219295501707 19.616351127624515 1.1093980669975283 0.19937419891357425 -1.0424923300743101 -1.153491675853729 1.0877941250801089 -0.92347010970115651 1.1275102496147158 0.8613051474094392 1.0488067269325259 1.0274001955986025 2.0302112102508549 1.4231547117233279 -0.44060425460338587 -0.99364802241325367 1.4058738350868227 -0.84132158756256092 -0.30764083564281458 0.97738912701606762 1.2964160442352297 -0.11888086423277854 19.487177848815922 -0.48532071709632868 -0.93896168470382679 1.2377148270606997 23.031609535217289 1.6688470244407656 -0.80380773544311512 -0.74856820702552784 -0.77042070031166066 -0.70273181796073902 -0.78091073036193837
decision_type=2 2 2 2 2 2 2 2 2 2 2 2 2 2 2 2 2 2 2 2 2 2 2 2 2 2 2 2 2 2 2 2 2 2 2 2 2 2 2 2 2 2 2 2 2 2 2 2 2 2 2 2 2 2 2 2 2 2 2 2 2 2 2 2 2 2 2 2 2 2 2 2 2 2 2 2 2 2 2
left_child=4 2 3 8 37 6 9 22 -2 13 -3 23 20 29 24 52 17 18 -4 28 21 31 -6 -9 54 74 -17 30 -7 39 34 46 33 41 45 43 -21 -1 -35 -5 -30 55 -43 49 -40 -28 -10 -48 -41 -33 68 77 -14 -29 -12 56 57 -18 59 60 62 -46 -52 76 71 -49 -38 -39 -34 -70 -58 -65 -57 -31 -24 -67 -16 -19 -60
right_child=1 10 16 5 7 19 -8 11 12 -11 14 -13 15 -15 63 26 32 51 -20 36 -22 -23 25 -25 -26 -27 27 53 40 73 -32 35 50 38 -36 -37 66 67 44 48 -42 42 -44 -45 61 -47 47 65 -50 -51 58 -53 -54 -55 -56 72 70 -59 78 -61 -62 -63 -64 64 -66 75 -68 -69 69 -71 -72 -73 -74 -75 -76 -77 -78 -79 -80
leaf_value=0.00017498973209544312 -0.044635092228801056 0.043266753498200736 -0.044097178270687543 -0.02007638930229649 0.019955095140827273 0.014388713375454023 0.037678165871370885 -0.020383727389084883 0.041181826278999072 0.011536001049905993 0.0015188136627537982 0.0023145067388870054 0.040248977003383181 0.0025406471793819586 0.041206073331096958 0.025587876938805289 0.027340665708958788 0.041453772766025861 0.01001113496423992 -0.0031810382207929674 0.042831451841080739 -0.013248764105018849 -0.043984796878389611 -0.05925396502137964 -0.024207895882082761 0.004666161905202533 -0.0073772771427085314 0.023419415997580122 -0.0050274102797825048 -0.059149433230713651 -0.037254230343945698 -0.021794921969382215 0.023800740527899097 0.023869472980674968 0.0079934013540829962 0.035988865159036883 0.017012829292618947 0.022856544304519572 -0.020035829283905088 -0.055803100109421827 -0.034458379092076601 -0.0068922318021087262 0.027797905752610798 0.016546253170805002 0.017384156969511191 -0.037811279232867749 0.0044623720394198485 0.017360798200818428 -0.027447040546131431 0.0044202601301039039 0.017088151257023534 0.015842639684132451 0.015669054856071646 0.0004394019695957641 0.024740745504492661 0.028841432405842859 0.04095721345667433 -0.0065766052739273566 0.039802925600509007 0.036694991777966084 0.032044926886322558 -0.0034065322863918615 -0.00053617955946318771 0.034586797521568402 0.0053701838416071665 0.039166995286108057 0.036950452376008497 0.041312374223823931 0.040686315935077412 0.026944171571125823 0.02420493138821684 0.019659236664861753 0.03900226269652355 -0.045188723012068367 -0.027765273030083824 0.025738687548160478 0.028795630850987679 0.027134519448959147 0.028403152962830514
leaf_weight=14.215383633971213 23.479196324944496 511.07905623316765 17.550577446818352 19.79429903626442 12.24004429578781 14.676085710525511 15.167342931032179 13.063035205006598 26.168703496456146 19.380936563014984 13.155223086476328 13.88158082962036 12.402280524373056 11.940103098750113 17.624352559447289 13.807527363300322 14.614977449178697 14.426546886563303 19.690572991967201 15.669422939419745 39.609570950269699 19.698172524571419 12.930015102028845 455.42096316814423 21.87297859787941 14.393629893660544 13.347145557403563 12.074211388826372 17.321926876902577 181.35488617420197 22.522689670324326 11.872544899582865 13.479893788695334 19.961456820368767 22.918588742613792 12.264425635337828 12.623177811503412 16.225074335932732 11.973543763160704 25.938744053244591 22.397435754537586 13.0400328040123 11.510745212435721 22.284073263406754 11.888009548187254 11.903418108820917 16.877063348889351 15.005912616848944 12.253965497016905 13.804222404956816 17.834435895085335 19.59860572218895 17.719525888562202 17.937252849340439 11.947265699505804 32.641818672418594 12.030283555388452 12.319519430398939 17.885036528110504 18.296688556671143 17.579738304018974 13.080628201365473 17.279332652688026 15.337243571877481 11.558021321892737 22.367048382759091 14.031118184328077 11.283294990658762 80.809932962059975 19.735457241535187 14.914677008986471 12.344062149524687 36.80671501159668 21.506915017962456 12.688255518674852 12.771349236369135 20.814089402556419 11.558167874813078 19.257745981216431
leaf_count=61 95 2390 73 82 52 63 67 53 118 82 57 58 55 50 79 60 65 66 84 67 180 86 53 1823 93 61 57 52 74 728 93 50 60 88 97 54 55 72 51 105 93 56 51 97 52 50 73 66 50 59 78 85 77 76 52 146 55 54 80 82 78 57 76 67 50 101 62 51 368 89 66 55 166 87 53 56 92 52 86
internal_value=0 0.0141553 0.00239641 -0.0116247 -0.0468525 -0.0324628 -0.0428447 -0.0521897 0.0105111 -0.0471392 0.0380608 -0.0564727 0.0142488 -0.0513348 0.0165418 0.001698 0.0239654 0.0082994 -0.0159747 0.000627906 0.0227343 0.0179163 -0.0123325 -0.0582158 -0.00441648 -0.0224554 -0.00506846 -0.00948204 -0.0121452 -0.0538012 -0.0178384 0.0219777 0.026978 0.0212386 -0.00818698 0.010576 0.0169457 0.021155 0.00719271 -0.0387292 -0.022062 0.0265589 0.00982379 0.00347516 -0.00221006 -0.0226181 0.0291557 0.0239237 -0.0476376 -0.00806386 0.0321497 0.0280483 0.0267576 0.0101418 0.0130955 0.0297845 0.0229271 0.0121472 0.0269633 0.0224409 0.0169002 0.00678053 0.0086406 0.0291113 0.0222376 0.0302585 0.0284649 0.0316103 0.0367908 0.0382809 0.0328824 0.0288476 0.0347037 -0.0578983 -0.0372965 0.0351336 0.0353865 0.0363261 0.034792
internal_weight=0 1930.39 1294.66 784.891 576.341 404.056 307.337 534.618 380.835 292.17 635.732 482.366 357.356 272.789 124.653 144.633 509.765 82.8245 37.2412 96.7192 212.723 173.114 52.2519 468.484 46.9755 40.0119 114.511 100.703 54.3954 260.849 70.6918 153.415 426.941 204.782 48.1692 60.2253 42.3237 41.7238 56.9036 57.987 39.7194 147.879 24.5508 47.9608 36.9422 25.2506 93.1901 67.0214 38.1927 25.6768 222.158 45.5833 30.1218 30.0115 25.1025 123.328 53.8795 26.9345 108.133 70.9902 52.6935 24.9686 35.1138 77.6778 39.2393 50.1443 26.6543 27.5084 114.025 100.545 26.945 27.6813 69.4485 202.862 25.6183 35.1384 38.4384 25.9847 37.1428
internal_count=10853 8516 5581 3317 2337 1665 1251 2153 1652 1184 2935 1934 1557 1102 545 617 2264 360 157 414 940 760 219 1876 202 167 485 425 230 1052 297 674 1904 907 204 260 184 184 248 237 167 659 107 206 160 107 414 296 155 109 997 203 132 128 109 552 240 119 480 314 232 109 154 343 172 223 117 123 517 457 121 122 312 815 106 157 171 118 166
is_linear=0
shrinkage=0.03


Tree=8
num_leaves=90
num_cat=0
split_feature=1 7 1 9 4 19 19 2 14 6 9 17 19 1 19 5 4 6 17 4 1 7 12 8 1 3 11 17 13 5 17 1 11 11 3 11 10 1 16 9 7 13 1 19 2 7 11 10 6 19 3 13 5 1 5 2 11 7 2 9 4 17 1 13 14 13 9 1 7 16 6 9 5 7 19 5 1 11 3 3 2 19 16 9 11 3 3 3 1
split_gain=852.248 779.419 490.449 387.159 199.073 173.246 156.096 134.632 116.093 103.079 89.5574 78.9935 69.0927 58.9254 57.8711 36.6638 44.3237 45.8269 32.6226 30.5232 41.281 30.3085 29.1806 28.81 27.0913 25.5193 22.5858 22.1992 23.5375 20.9555 17.2667 15.6413 15.8611 15.349 15.0257 14.8862 14.3628 13.9931 13.9457 13.6381 13.3313 11.2822 16.7958 10.5853 10.4505 10.2688 10.1167 9.89432 9.25984 9.14147 8.24629 7.7493 7.18749 6.8941 6.77874 6.76079 7.74147 6.48814 6.39401 6.18779 5.96346 5.80126 10.7229 4.94235 4.9379 4.28223 12.6282 10.4435 7.50184 4.10866 4.04823 2.87505 2.49433 2.35391 2.27938 1.58378 2.06657 3.21886 1.13469 1.07531 0.805485 0.731857 1.87165 0.454396 0.288011 0.189 0.0234746 0.88803 0.0127317
threshold=-0.45377886295318598 -0.43816219270229334 0.34304521977901464 -0.6923537254333495 -0.086776267737150178 -0.24053491652011869 -0.10947720333933829 -1.0000000180025095e-35 1.7360469102859499 -1.0000000180025095e-35 -1.0424923300743101 1.0000000180025095e-35 0.086991921067237868 -0.62000513076782215 0.88850656151771557 -0.60110235214233387 -0.20851338654756543 1.0488067269325259 -0.5818083882331847 -0.086776267737150178 0.59106281399726879 0.82832050323486339 -0.16725043952465055 -0.67700165510177601 0.23146467655897143 1.8339857459068301 -0.30775058269500727 -1.1519064903259275 -1.1496890783309934 -0.99135220050811756 -0.61184361577033985 0.51110336184501659 0.9617639183998109 0.62005871534347545 0.50068590044975292 0.84529885649681102 1.032793462276459 -0.7164267599582671 -0.44655750691890711 0.73881772160530101 0.93270269036293041 -0.74391353130340565 -0.68888577818870533 1.7046319246292116 1.0412564873695376 0.96446087956428539 1.2249740958213808 1.0488068461418154 1.0924152731895449 0.65852880477905285 1.4638212919235232 -1.0526062250137327 -0.78002604842185963 -1.0074853897094724 -0.99135220050811756 -0.69693073630332936 1.0123915076255801 -0.32162855565547938 -0.17846748232841489 -0.76689994335174549 -0.23570121079683301 -0.86932703852653492 -0.97374692559242237 -0.49471311271190638 1.1344966888427737 -1.2059330344200132 -1.2094460129737852 -0.75848811864852894 1.0642961263656618 -0.63119679689407338 1.0355168581008913 -0.78091073036193837 -0.68600359559059132 0.66763532161712658 1.3468446731567385 -0.89309126138687123 -0.52486914396286 1.833728611469269 0.1269800812005997 0.75819137692451488 -0.26658351719379419 1.6397562623023989 -0.69371822476387013 -0.75406512618064869 1.5681731104850771 0.45431672036647802 -0.80527770519256581 -1.023841857910156 0.51110336184501659
decision_type=2 2 2 2 2 2 2 2 2 2 2 2 2 2 2 2 2 2 2 2 2 2 2 2 2 2 2 2 2 2 2 2 2 2 2 2 2 2 2 2 2 2 2 2 2 2 2 2 2 2 2 2 2 2 2 2 2 2 2 2 2 2 2 2 2 2 2 2 2 2 2 2 2 2 2 2 2 2 2 2 2 2 2 2 2 2 2 2 2
left_child=4 9 3 15 6 7 23 -5 11 12 41 26 24 14 21 36 17 -17 35 20 -4 25 -13 -1 -2 29 -7 84 52 -12 33 32 39 45 46 43 -3 44 -6 60 57 65 53 73 -31 74 -19 70 -44 -20 54 -38 83 -43 -22 -49 -57 -28 -21 -32 -14 62 -35 72 -64 -8 75 68 -68 78 -23 -53 -56 -15 -30 -67 -77 -78 86 -46 -25 82 -61 -29 -16 -59 87 -33 -60
right_child=1 2 19 5 38 8 10 -9 -10 -11 13 22 31 18 27 16 -18 34 49 58 50 47 -24 80 -26 -27 40 28 30 37 59 69 -34 61 -36 -37 51 -39 -40 -41 -42 42 48 -45 79 -47 -48 55 -50 -51 -52 71 -54 -55 63 56 -58 85 88 81 -62 -63 64 -65 -66 66 67 -69 -70 -71 -72 -73 -74 -75 -76 76 77 -79 -80 -81 -82 -83 -84 -85 -86 -87 -88 -89 -90
leaf_value=0.0010549940468962417 -0.048710928749478896 0.0013281259252217726 -0.041243757542965651 -0.057063618225728627 0.0084961589956867936 -0.022447309061188723 0.040965874996868941 0.037714334124534982 0.031241286530032969 0.04276911501267637 0.014811117198517602 -0.03339145341111377 -0.02983396908516707 -0.046478791695545078 0.039635687189704144 -0.053266753087890785 0.038644557191311289 -0.029807744075164788 -0.0045869174978880045 0.013729240123461732 0.029925565001370141 0.010952523794335353 0.029418413870794011 -0.056050178828409881 0.0065272429237325973 0.019554976631776095 -0.031821953930127746 0.027485555713956732 -0.029400413378687477 -0.014054754629059986 0.0092398820325712578 0.03433649200180066 0.035384843558984962 0.024878562377641012 0.028277274278931071 -0.0021346682425581655 0.042195343534308552 0.0021286655183331469 0.042650726678236592 0.020367415834663467 -0.024663466318904974 0.014310012494708729 -0.019567589034466315 -0.0089540769995466816 -0.050032236316172068 0.0091282891701416329 0.0060632798808104883 0.021370535843304297 0.014379665615606108 0.02908045207106497 0.035278536544066728 0.0073195814788833405 0.013188072321314914 0.038763852461489993 0.0026177021297616163 -0.021237283878296837 0.011650274452772088 -0.057646236265897294 0.030520796464262305 0.033735863625632814 -0.0021946609137352734 0.025157908104689403 0.0069704761387942666 -0.0069799401210999092 -0.019722724400754496 0.024995907952950338 -0.011767804410210273 0.031507443513053637 0.019471017516501401 0.011305085572493946 0.034673594368972778 0.027877720033831651 0.020747741147961136 -0.026825605537431896 -0.011758667053848978 0.040406372807869573 0.013894877787847239 0.03576775920573199 0.019335837464486527 -0.032857367039435974 -0.037045708727412432 0.038508090615498494 0.014622723619439235 0.040569758281930067 0.026710695086801909 -0.041682552911315826 0.038089650522533484 0.019342572775346116 0.04233153801085477
leaf_weight=12.626865640282629 21.588216438889503 21.634521648287773 11.844704359769819 20.091212540864944 11.797351926565169 20.327996462583542 48.778891369700432 36.433219775557518 14.470999881625174 153.58369126915932 13.320647254586218 11.642780825495722 12.074548557400702 22.390659764409065 46.456816583871841 21.465892255306244 13.819659575819967 12.77441042661667 12.190424889326097 11.530351325869558 12.555896982550619 11.315231591463091 13.060816884040831 25.854080244898793 12.03360380232334 18.445089340209961 13.245833590626715 13.690119534730909 12.125615134835245 20.50854954123497 18.691243201494217 14.408663064241408 11.751654535531996 15.005165427923201 11.331435441970823 22.903385549783707 25.270877704024315 13.269245833158491 265.83301866054535 14.083394676446913 14.007079422473906 19.19707179069519 11.741893455386164 14.820678815245627 15.854214727878569 16.80834949016571 13.978665083646773 11.472562640905378 15.722865313291548 16.10919563472271 16.404973641037941 13.40362222492695 15.846765220165251 27.201047673821449 12.188367038965223 12.512642011046411 11.416502654552458 557.00537522137165 14.395332768559454 11.640151575207708 15.559921205043795 22.288229152560234 11.432000726461412 16.966521710157398 11.772329330444334 22.163592383265495 13.873366355895998 19.962419733405113 11.964933052659033 13.164569705724714 19.491238981485367 12.021295815706251 15.541108489036558 14.809884339570997 18.109816297888756 65.487552314996719 11.541892334818842 18.658729314804077 11.502843633294104 18.674808621406555 12.56404632329941 13.504349887371061 11.500907972455026 35.293936386704445 11.450475782155989 12.892587810754774 20.709246724843982 11.957406640052794 41.152297765016556
leaf_count=54 87 95 49 81 51 86 224 171 63 728 58 48 50 91 210 88 65 52 51 51 55 50 60 104 51 81 55 62 51 87 82 65 52 66 50 99 114 56 1258 61 59 85 51 63 65 73 61 50 68 70 72 60 70 124 53 53 50 2233 67 51 67 98 50 72 51 100 60 90 53 58 87 52 66 62 77 298 51 86 50 78 51 60 50 162 52 53 92 53 194
internal_value=0 -0.0160377 -0.0288256 -0.0376253 0.0190893 -0.0467183 0.0121616 0.00361982 -0.0510503 0.0253231 0.0152647 -0.0529503 0.00829165 0.00821009 0.0128787 0.00689809 -0.00800121 -0.0192856 -0.0121558 0.0206311 0.00858059 -0.00119362 -0.000331234 -0.0382994 -0.0293231 -0.0115688 -0.0550515 0.021047 0.0166975 -0.0187533 0.0104985 0.0185442 0.00609545 0.00341598 0.000740322 -0.0224429 0.0219146 -0.025418 0.0412351 -0.00279039 -0.056122 0.0288673 0.0183448 -0.031175 -0.0319788 -0.00932576 -0.0115218 0.0144271 -0.000311224 0.0149162 0.0170379 0.0305042 0.0318753 0.0291615 0.0112954 0.00341273 -0.00570883 -0.0568342 0.0356397 0.0239578 -0.0148915 0.0133146 0.00594084 0.00552146 -0.00682722 0.0324229 0.0296432 0.0157665 0.00288444 0.0276109 0.0265791 0.0177269 0.0131473 -0.0395617 -0.0195485 0.034858 0.0368601 0.0281218 0.0310241 -0.0419296 -0.0509326 0.0310199 0.025236 0.037536 0.0375767 -0.0573587 0.0334185 0.0284918 0.0398646
internal_weight=0 1323.88 1011.46 858.878 1170.09 713.178 892.46 56.5244 656.653 312.418 841.415 642.182 158.834 555.121 451.897 145.7 73.3701 59.5504 103.224 152.58 85.5016 166.281 24.7036 51.045 33.6218 100.073 617.479 285.616 227.709 81.6275 162.878 125.212 53.4695 107.542 38.0845 74.9246 72.3303 68.3068 277.63 41.7179 597.151 286.294 73.8629 52.0212 55.0376 47.0438 26.7531 66.2082 27.4648 28.2996 73.6569 50.6958 64.8308 46.3981 57.2519 35.4017 23.9291 583.144 67.078 55.3367 27.6345 60.4977 38.2095 44.696 23.2043 212.431 163.652 45.8007 25.8383 71.7427 30.8065 25.4249 27.7295 37.2005 30.2354 117.852 95.6882 30.2006 58.5782 34.529 38.4181 36.6454 23.1411 48.9841 57.9073 569.898 47.0753 26.3661 55.5476
internal_count=10863 5639 4225 3546 5224 2909 3915 252 2657 1414 3706 2594 686 2416 1980 637 316 251 436 679 367 715 108 209 138 425 2486 1265 1003 344 709 548 230 466 163 315 321 286 1309 178 2400 1290 328 216 230 201 113 290 119 121 318 226 294 209 246 153 103 2341 312 243 117 265 167 191 101 962 738 203 113 318 137 112 119 153 128 535 435 137 260 143 155 161 101 224 262 2286 210 118 261
is_linear=0
shrinkage=0.03


Tree=9
num_leaves=83
num_cat=0
split_feature=20 4 3 11 19 7 19 5 0 4 5 9 3 19 9 20 19 15 15 2 19 5 16 20 7 9 5 7 15 11 19 13 5 11 9 13 2 20 5 15 20 13 9 20 11 15 14 3 19 2 3 9 5 11 17 2 17 3 6 11 9 13 17 2 8 19 6 11 15 7 16 20 4 17 13 19 15 15 0 4 17 5
split_gain=1619.82 572.571 424.031 315.224 208.356 189.834 92.0673 89.179 76.8736 58.1439 51.2424 39.8536 34.1426 40.4749 29.1826 28.9396 29.2805 24.916 19.3856 18.4759 20.196 17.8056 16.8132 15.8832 15.6888 15.1801 14.4827 14.0359 12.9512 15.8601 11.5056 17.2042 17.4424 11.4553 10.7923 14.8292 9.74992 9.67463 8.97044 8.91989 8.89888 7.92307 7.59968 7.14656 6.9945 6.77397 6.53843 6.48729 8.41961 5.5343 5.52211 9.03507 15.6102 6.02671 5.19151 16.7509 5.00164 4.10785 4.02654 3.51586 3.44715 4.78703 3.35883 3.30933 3.23121 2.89148 2.52682 2.35663 1.7196 1.62583 1.60702 1.12612 2.86256 0.850728 0.840148 0.280214 1.25622 1.04462 0.188083 0.535059 0.17115 0.168284
threshold=10.360692977905275 -1.0000000180025095e-35 0.50068590044975292 0.92115464806556713 -0.18579441308975217 0.76254475116729747 1.200550973415375 -0.53406909108161915 -0.31466899812221522 1.0000000180025095e-35 0.41359321773052221 -0.98248249292373646 1.8339857459068301 0.85221204161643993 -0.91247367858886708 14.424175739288332 1.5562896132469179 0.84077489376068126 1.6179561018943789 1.0741701722145083 0.78617846965789806 -0.57931140065193165 -1.0000000180025095e-35 24.201423645019535 1.6624641418457033 -0.81561619043350209 -0.99135220050811756 1.1008806824684145 1.8492782115936282 1.1193706989288332 2.2587535381317143 -0.35881695151329035 -0.96484726667404164 0.9809185564517976 -0.15087682753801343 -0.82862958312034596 1.2649082541465761 13.426944732666017 -0.90167582035064686 -0.30797398090362543 22.939499855041507 -0.82862958312034596 -0.59345686435699452 19.601392745971683 1.6669904589653017 0.66384133696556102 1.0513128638267519 -0.6423472762107848 1.1610323786735537 1.0444638133049013 0.96501156687736522 -1.2735588550567625 -1.0813531875610349 1.5227589011192324 -1.2045810818672178 1.0180232524871828 -0.8302117884159087 -0.95992356538772572 1.043823301792145 0.30756813287734991 -0.71727406978607167 -0.70898479223251332 -0.9692292809486388 1.0525664091110232 -0.85018226504325856 0.37369032204151159 1.0842192173004153 -0.97569802403450001 0.34789213538169866 0.26744554936885839 -0.23210348188877103 20.354435920715336 -0.97332647442817677 -0.81587669253349293 -0.95645925402641285 1.8371292948722842 0.81459417939186107 2.1550662517547612 -0.95492148399353016 -0.97589832544326771 -0.34393541514873499 -0.66088652610778797
decision_type=2 2 2 2 2 2 2 2 2 2 2 2 2 2 2 2 2 2 2 2 2 2 2 2 2 2 2 2 2 2 2 2 2 2 2 2 2 2 2 2 2 2 2 2 2 2 2 2 2 2 2 2 2 2 2 2 2 2 2 2 2 2 2 2 2 2 2 2 2 2 2 2 2 2 2 2 2 2 2 2 2 2
left_child=4 2 3 5 34 6 17 18 14 -3 39 37 13 27 -8 16 -5 36 26 49 44 42 47 43 25 63 -6 33 29 30 31 32 -15 40 35 -1 60 -4 -27 -9 45 -26 -16 -19 -21 -13 -29 67 -49 54 51 78 -53 -54 -17 56 57 -56 -31 -34 61 -2 -22 -7 -43 -14 -23 -11 -69 -58 -10 72 -52 -30 -74 76 -67 -78 79 -39 -71 -60
right_child=1 9 11 15 7 24 8 10 70 22 -12 12 65 28 21 19 -18 23 -20 20 62 66 -24 -25 41 38 -28 46 73 58 -32 -33 59 -35 -36 -37 -38 50 -40 -41 -42 64 -44 -45 -46 -47 -48 48 -50 -51 71 52 53 -55 55 -57 69 -59 81 -61 -62 -63 -64 -65 -66 75 -68 68 -70 80 -72 -73 74 -75 -76 -77 77 -79 -80 -81 -82 -83
leaf_value=0.033168659592236999 -0.02328817239886494 0.042188755073938551 0.0057544422688078625 -0.032054786084835842 0.0030890847892997703 0.022324394965518864 0.01485453916025109 -0.027977692653413717 0.020731894422843424 0.037871395295720908 -0.0052230399509562552 -0.026831597013766573 0.017959229697945642 0.030353785539639768 -0.030834779602565025 0.035391304228317634 0.023053049401933475 -0.024130800149248229 0.016035824843474215 -0.029844353222501573 0.031848784603533783 -0.055586280745806217 -0.014378276739233205 -0.046959908190690389 0.031915853062217482 -0.028470716768549106 -0.036496957697202917 0.02659001853142998 0.038271541112532975 0.014410850647076456 0.024036396620272286 -0.027515957020888111 -0.014501316818344252 0.0064544664134386044 0.037912984125977003 -0.0095400448011845693 -0.022758729223120576 0.034413133378165393 -0.00035469282930896621 -0.05596068205494812 -0.040238136578734651 0.017745730191376003 0.0020918467048137088 0.0065933606752217738 0.0013581004173802047 0.0023011618808330011 -0.0036748213608596789 -0.00015214616881604378 0.026016532326671345 0.039930176190667167 0.015309011693531232 0.038550165372665479 -0.0043288108908781748 0.019301233705191441 0.024766313118224071 -0.0140068269418196 0.02025959978308043 0.0011323668512958755 0.027615857074900763 0.0042147305612624678 -0.054401071397384031 -0.048239687223780643 0.011606804613426532 0.0016896953966975216 -0.0025802992063915673 0.020899491700091317 -0.032650975087898174 0.013362220580642126 0.029462389739397084 0.037536344593051316 0.039800504140959661 0.038801851495364942 0.040880652275872918 0.023072704468652245 0.026730305735211353 0.041700320737656379 0.039289844719767687 0.023595018505656942 0.038779275846456671 0.020099706282127858 0.025922591913650844 0.04161561801579905
leaf_weight=10.897998481988905 12.798272237181662 491.34049375355244 14.359442934393881 20.166765064001083 12.318635180592532 15.732873633503916 11.51398818194866 13.596239164471625 11.513026937842371 19.6757443100214 19.470347419381142 13.34574253857136 16.393767431378365 18.52617284655571 12.161538556218149 24.544590771198273 13.792456507682799 12.651122748851778 15.453512728214262 12.110960230231287 13.754919171333311 24.615129590034485 12.528333708643911 15.769566029310225 22.344290748238564 19.91645847260952 23.704633638262752 11.07862624526024 21.726650550961494 15.099219083786009 22.046594068408012 15.262622967362402 16.717469215393066 14.781103447079657 15.20063556730747 18.18151813745499 13.086522832512854 11.885248184204103 20.007520481944084 445.48132972419262 16.851457118988037 13.014327436685564 11.88794796168804 12.932411849498747 12.592913404107092 14.096668154001234 13.27429088950157 22.288524627685547 20.953045353293419 22.494528502225876 11.674744635820387 19.298236086964607 22.167956843972206 15.90129768848419 11.70205217599869 11.264089763164518 19.889255046844482 14.031173929572104 14.03696635365486 17.723586186766624 170.89302751421928 31.030160158872604 18.580144986510277 12.321755886077879 13.697967305779455 14.970435976982115 12.333714127540587 14.221610203385355 15.1619616150856 20.285157218575478 13.498204588890074 84.1395263671875 17.477659136056896 11.632500946521757 18.781162664294246 14.88408303260803 22.752542078495026 12.334246024489401 29.867414548993111 10.960825428366659 15.193830028176306 11.778074175119402
leaf_count=50 52 2375 64 84 52 69 50 55 51 90 81 55 72 84 50 113 61 52 66 51 62 99 53 64 100 84 98 50 100 68 99 65 71 64 70 78 53 54 85 1788 70 57 50 54 55 60 57 97 93 103 53 90 97 72 53 50 89 62 64 76 686 125 82 53 59 66 50 63 68 91 61 390 79 52 84 68 103 56 138 51 68 53
internal_value=0 0.01354 0.00236757 -0.0131435 -0.0439271 -0.0268817 -0.0374751 -0.0491453 -0.0123396 0.0378567 -0.0531765 0.0212658 0.0142892 0.00868962 -0.0279163 0.0156906 -0.00965367 -0.0465029 -0.0113699 0.0200986 0.00558869 -0.0360991 0.0173456 -0.0242024 0.00634493 -0.00299943 -0.0232422 -0.0082664 0.0172844 0.0128616 0.00570965 -0.000473786 0.00768395 -0.0160904 0.018239 0.00703629 -0.0504275 0.030132 -0.0147336 -0.0551945 -0.0235901 0.0190948 -0.015125 -0.00893602 -0.0145047 -0.0123119 0.010599 0.0217595 0.0128295 0.0259534 0.031548 0.0260105 0.0172772 0.00578271 0.0229483 0.0192982 0.0240381 0.0124042 0.0281296 -0.00502276 -0.0520005 -0.0416357 0.0209146 0.0136316 0.00760562 0.0310485 -0.0489925 0.029217 0.0223662 0.0291292 0.0321574 0.0359332 0.0302078 0.0337974 0.0344653 0.0340303 0.0309776 0.0345793 0.0350163 0.0286769 0.0334097 0.035317
internal_weight=0 1896.12 1299.95 714.123 574.305 483.72 366.685 530.025 97.5235 596.17 478.548 585.826 329.313 247.978 72.5123 230.403 33.9592 269.161 51.4768 196.444 57.0389 60.9983 104.829 41.3531 117.035 67.9786 36.0233 83.4279 164.55 131.191 90.2764 68.2299 52.9672 59.075 44.2802 29.0795 227.808 256.514 39.924 459.078 44.2939 49.0566 24.0495 25.5835 24.7039 27.4424 24.3529 92.3009 43.2416 139.405 242.154 110.081 57.3675 38.0693 116.91 92.3656 81.1015 25.7332 40.9143 34.4411 214.721 43.8284 32.3351 28.0546 26.7123 81.3351 36.9488 49.0593 29.3836 55.3682 25.0112 132.073 47.9336 33.3592 36.2588 64.9413 50.0572 35.0868 52.7135 22.8461 35.479 25.815
internal_count=10830 8492 5653 3028 2338 2004 1497 2140 411 2839 1924 2625 1453 1088 299 1024 145 1086 216 879 250 249 464 170 507 291 150 356 732 580 395 296 231 249 198 128 916 1172 169 1843 185 216 100 106 106 115 107 411 190 629 1108 502 259 169 526 413 363 115 185 147 863 177 144 122 116 365 149 221 131 248 112 606 216 152 163 293 225 159 243 105 159 117
is_linear=0
shrinkage=0.03


Tree=10
num_leaves=85
num_cat=0
split_feature=20 0 3 11 19 1 5 18 0 18 0 5 11 5 3 5 20 1 5 19 5 13 14 19 2 19 3 5 9 13 11 18 5 14 14 2 19 9 3 9 1 11 19 13 20 6 3 5 3 20 9 5 1 13 5 2 19 18 1 17 6 17 17 17 12 1 8 11 3 17 14 13 13 2 20 11 9 5 5 17 17 1 16 5
split_gain=1575.06 526.565 423.311 245.895 195.354 148.87 92.0079 88.8478 88.0059 70.6633 68.0786 56.2783 46.4222 45.2628 40.2757 34.2274 33.7718 33.4339 27.2557 23.9078 20.1004 18.6057 17.7765 14.2009 15.4317 13.0164 12.9029 12.779 14.4763 12.6639 11.5514 11.4823 11.4064 11.1673 13.9755 11.0115 9.43283 10.976 10.8344 8.86337 8.02647 7.6352 10.9874 11.0268 10.5019 7.37317 7.062 6.44191 6.74649 6.01684 5.97274 5.77956 5.6524 5.56666 8.12618 4.91863 4.02235 3.83621 3.72274 4.74676 3.70758 3.67544 3.40004 3.30182 4.10973 4.1278 3.26274 3.18974 3.02621 2.92989 2.66101 2.28732 1.96996 1.9199 1.26552 1.20741 1.01804 0.391124 3.47255 0.306762 1.09318 0.283626 0.218507 0.0472419
threshold=10.360692977905275 -1.0000000180025095e-35 0.41846047341823583 0.77579557895660411 -0.18579441308975217 -0.57747235894203175 -0.53406909108161915 3.2197148799896245 -0.16829870641231534 0.99414998292922985 1.0000000180025095e-35 -1.2109295725822447 1.1414753198623659 0.50218862295150768 1.0465162396430971 -0.66792577505111683 14.424175739288332 0.51110336184501659 -0.80871573090553273 0.85221204161643993 -0.71527561545371998 -1.0633157491683958 1.0525664091110232 1.2131874561309817 1.0571863055229189 1.9281144142150881 -0.48274998366832728 1.6066935062408449 -0.99784940481185902 -1.3002702593803404 -0.62676718831062306 1.0488067269325259 -0.64977484941482533 1.0382344126701357 1.0246931910514834 1.0346947908401491 1.6688470244407656 -0.92864093184471119 2.7818678617477421 -0.66447767615318287 -0.41040652990341181 1.8957218527793886 0.8997042477130891 -1.0070687532424925 19.601392745971683 1.0230014324188235 0.85540834069252025 -0.87922409176826466 0.13267698138952258 20.463960647583011 0.46423864364624029 -1.1162015199661253 -0.6268973946571349 -0.7395399510860442 -0.7099492847919463 -0.55222278833389271 0.77190616726875316 1.2001640796661379 -0.69403433799743641 -0.88210678100585926 1.125460743904114 -0.47152709960937494 -0.88210678100585926 -0.97683969140052784 -1.0000000180025095e-35 1.2604528665542605 -0.79965084791183461 0.50439792871475231 -0.98019993305206288 -0.84950324892997731 0.97797462344169628 -0.84710389375686634 -0.74391353130340565 1.0513128638267519 14.245427608489992 0.23731756210327151 -0.76036313176155079 -0.56691989302635182 -0.70038041472434986 -1.1969698667526243 -1.0648441910743711 -0.49771982431411738 -0.94560715556144703 -1.0101910233497617
decision_type=2 2 2 2 2 2 2 2 2 2 2 2 2 2 2 2 2 2 2 2 2 2 2 2 2 2 2 2 2 2 2 2 2 2 2 2 2 2 2 2 2 2 2 2 2 2 2 2 2 2 2 2 2 2 2 2 2 2 2 2 2 2 2 2 2 2 2 2 2 2 2 2 2 2 2 2 2 2 2 2 2 2 2 2
left_child=4 2 3 5 8 9 21 11 -1 -2 -3 -7 14 40 15 22 18 26 -5 71 35 -6 33 24 31 27 50 28 -11 62 -23 32 -18 34 51 -13 37 69 53 -37 -8 42 43 -14 -45 -30 52 -26 -49 -21 -12 -4 -24 54 -39 68 -47 76 79 -60 72 -59 -16 -19 65 -65 -32 -53 -33 -31 -27 -17 82 -38 -43 -75 -22 78 83 -44 -81 -80 -25 -76
right_child=1 10 12 16 6 7 13 -9 -10 25 17 20 41 -15 29 19 23 63 -20 49 57 30 46 60 47 70 -28 -29 45 36 66 55 -34 -35 -36 39 73 38 -40 -41 -42 74 58 44 -46 56 -48 48 -50 -51 -52 67 -54 -55 -56 -57 -58 61 59 -61 -62 -63 -64 64 -66 -67 -68 -69 -70 -71 -72 -73 -74 75 77 -77 -78 -79 81 80 -82 -83 -84 -85
leaf_value=-0.053506059091373716 -0.046191278852750414 0.041733883536941678 0.033301626993382807 0.013520476020749381 0.019565769112041456 0.016318764667530322 -0.028050340416056915 0.03710175937658064 0.04090266089169952 0.024155162337292403 -0.0073954633643178412 -0.048769404959173111 0.030840530003229037 0.00019264781231606123 0.041651151860072351 -0.047298614853252048 0.020122932672271297 0.036849806612147581 -0.038325704524616769 -0.013374833024757235 -0.041126795835758241 0.001877190221311007 8.2727583670359178e-05 0.027528089485927262 0.011501793632890287 0.013856324881231404 -0.030757398373377015 0.027602494111610133 0.0018182207799573463 0.014234739836180938 -0.043234607368996494 0.02661852390649946 -0.016875905040298483 0.036996176157338204 -0.015443300630161243 0.0035020506868045733 0.038434630700847711 0.009598248324580741 0.030342645077854495 -0.028979126338188631 -0.054578858586801726 0.022049203696157062 0.040285497130174173 -0.020058064779749599 0.014261229981292756 -0.0329798544406084 0.015141215359569025 -0.03051375348122207 -0.00063538326712617328 0.01359367027130649 0.020163671280116344 0.019429032990188444 -0.024702750475866796 0.012755926211937597 -0.016978638092261411 0.038830514670552423 -0.0089469980280702955 -0.047406782632199586 0.0075516162864675213 0.032074722395806853 0.013996434370035116 -0.024533008728403728 0.020112643716014501 0.015243175451366407 0.0063165994700803878 0.034531828759232809 -0.019143037208141391 -0.0010381629517591151 0.0053347727654698513 0.032559039285260473 0.034539075210413807 -0.025492115523887748 0.019258902098586782 0.02976820949522184 0.030409635561522319 0.014084252822890228 -0.054584382732668357 0.040542791863170884 0.014879648401604472 0.019835999311208972 0.03477211912005481 0.025542418201920151 0.03890106855534714 0.041028134792931943
leaf_weight=11.019356295466421 24.646677747368813 479.76958368718624 16.895899370312687 15.550356417894362 13.324157074093817 12.79053011536598 13.847520992159842 11.988345637917517 33.559750646352768 12.806488856673239 14.58526422083378 14.592031374573706 17.981037467718124 14.368519797921179 31.972960665822029 12.250950694084169 14.265327781438829 24.476341053843498 19.795154675841331 11.954141333699228 22.651202782988548 13.568431571125982 18.404375061392781 20.018561378121376 11.549686342477797 11.509859383106233 12.178629428148268 14.123519048094748 23.158696576952934 15.171660184860228 12.25863568484783 12.700121298432352 13.751554459333418 22.978576004505157 12.139974340796469 11.80818524956703 17.514255523681641 17.42431046068668 12.985648885369299 19.091161951422695 452.29332937300205 12.434314414858816 24.332984432578087 11.485103249549864 21.490129172801971 12.407211005687715 11.83854568004608 11.742007538676264 14.682293713092802 16.545199334621429 12.089040473103521 14.888729691505437 14.044936493039133 22.529849037528038 22.860907942056659 17.499181851744652 13.714370861649511 21.365030974149704 14.615599006414415 14.483691006898878 21.170188918709755 14.520953342318533 12.103654682636259 20.331281647086143 12.196794301271437 25.573351085186005 12.837545037269594 11.880348786711691 11.824581533670424 23.973910883069038 15.992300942540167 14.271021604537962 17.053646564483643 11.72281824052334 20.194504350423809 12.01796108484268 155.71573866903782 42.547737643122673 10.809829339385034 12.050887346267698 22.647605538368225 11.353206872940062 18.693428367376328 29.814728096127514
leaf_count=45 99 2361 78 68 57 56 56 54 156 56 63 59 83 60 152 50 65 112 81 50 91 58 80 93 51 51 51 62 98 69 50 57 60 107 53 50 81 77 57 78 1822 56 115 49 96 51 52 50 63 71 53 65 59 97 97 80 58 86 66 66 94 59 56 91 54 115 53 52 52 108 71 59 77 53 94 54 626 199 50 56 104 53 86 140
internal_value=0 0.0135257 0.00262394 -0.0147868 -0.0430977 -0.0284191 -0.0481431 -0.0404829 0.0169042 -0.00157206 0.0366533 -0.0440189 0.0197223 -0.0522394 0.0129139 0.00250726 0.0107761 0.0164033 -0.0157714 -0.0169721 -0.0470413 -0.0100118 0.0112825 0.0159071 0.00876245 0.00937131 -0.00644062 0.002863 -0.00311307 0.0221094 -0.0204408 0.0170277 0.00200702 0.019747 0.0121181 -0.0279145 0.0178957 0.0132781 0.00646116 -0.0168458 -0.0538525 0.0293135 0.0240705 0.0126201 0.00206945 -0.0105388 -0.00387863 -0.00652812 -0.0145408 0.00221172 0.00537187 0.0199551 -0.0110629 0.00112607 -0.00552945 0.0267625 -0.0211572 -0.0509538 0.0304751 0.0204177 0.0256967 -0.0390671 0.036314 0.0270998 0.0224384 0.026496 -0.0321168 0.0106352 0.0169676 0.0259886 0.026673 -0.0369175 0.0298136 0.0301425 0.0348159 0.0227189 -0.0531142 0.0359972 0.0327999 0.0350101 0.0302857 0.0212087 0.0338612 0.0374204
internal_weight=0 1878.99 1277.79 633.178 577.077 412.882 532.498 284.523 44.5791 128.359 601.2 272.535 644.612 480.509 378.371 178.093 220.296 121.431 35.3455 55.0213 259.744 51.9888 123.071 184.951 108.015 103.712 38.8529 76.2103 62.0868 200.278 38.6646 70.0408 28.0169 78.7835 55.805 45.4914 156.201 114.946 75.8007 30.8993 466.141 266.241 139.087 50.9563 32.9752 49.2803 44.2879 37.974 26.4243 28.4993 26.6743 43.665 32.4493 62.8151 40.2852 42.0239 26.1216 214.253 88.1308 29.0993 76.9358 35.886 44.0766 82.5778 58.1014 45.9046 25.0962 26.7691 24.5247 39.1456 27.5022 26.522 55.7656 41.255 127.154 23.7408 178.367 114.72 72.1723 59.0315 34.6985 22.163 38.712 50.0092
internal_count=10843 8486 5586 2682 2357 1705 2156 1159 201 546 2900 1105 2904 1938 1677 776 977 539 149 230 1049 218 546 828 478 447 167 325 263 901 161 314 125 355 248 187 693 505 328 128 1878 1227 635 228 145 207 191 164 113 121 116 195 139 271 174 189 109 862 407 132 350 145 208 372 260 206 103 117 109 177 122 109 256 188 592 107 717 536 337 275 160 103 179 234
is_linear=0
shrinkage=0.03


Tree=11
num_leaves=81
num_cat=0
