tree
version=v4
num_class=1
num_tree_per_iteration=1
label_index=0
max_feature_idx=20
objective=binary sigmoid:1
feature_names=Column_0 Column_1 Column_2 Column_3 Column_4 Column_5 Column_6 Column_7 Column_8 Column_9 Column_10 Column_11 Column_12 Column_13 Column_14 Column_15 Column_16 Column_17 Column_18 Column_19 Column_20
feature_infos=[-1.2247425317764282:6.8556075096130371] [-2.9302265644073486:5.4797635078430176] [-1.0954428911209106:7.1413755416870117] [-2.987781286239624:5.9986510276794434] [-1.2247425317764282:7.6810860633850098] [-3.0327608585357666:7.4298439025878906] [-1.0954428911209106:5.8878045082092285] [-3.3079450130462646:5.1277890205383301] [-1.2247425317764282:6.7822833061218262] [-3.3079450130462646:6.3479404449462891] [-1.0488067865371704:7.8101882934570312] [-2.5315766334533691:6.9062719345092773] [-1.2247425317764282:6.8556075096130371] [-3.6351120471954346:7.1454381942749023] [-1.0444637537002563:11.78968620300293] [-2.6099183559417725:6.4407272338867188] [-1.2247425317764282:7.1413760185241699] [-3.7268402576446533:7.4593319892883301] [-0.99999797344207764:15.264103889465332] [-2.6101796627044678:7.4900412559509277] [0.42607989907264709:63.372547149658203]
tree_sizes=8741 8469 8682 8134 8251 8654 8450 8888 9764 7968 9322 8803 9167 9215 8891 8794 8757 8801 8554 8811 9126 8890 8772 8478 9321 8374 9005 9091 9143 9423 8793 8669 10281 9224 9222 9542 9029 9219 9140 9426 9036 8932 9025 9450 9776 9327 9120 9445 9657 10178 9763 9214 9784 9672 9564 9355 10014 9433 9973 9977 10404 10425 9656 9757 9998 10441 9777 9588 9543 10246 10099 10293 11067 10330 9672 9789 10971 10125 9998 10231 9575 9805 9807 10761 11181 10223 9804 9993 10107 10761 10757 10306 11440 10671 10645 10654 10998 11182 10430 10225 11529 10682 11102 10876 11763 10769 10546 11330 10334 11080 10759 10785 10328 11981 12941 11842 12222 10874 11324 10879 11317 10982 12099 12284 10901 13505 10374 11529 10780 11239 12190 12532 12543 12315 11788 10965 11305 13069 12513 13727 11755 13509 12026 12856 11978 12741 12760 12194 13611 13809 13080 12859 12440 13627 12202 12990 14392 12206 12434 12094 14271 14824 13735 13535 11313 13037 14076 13010 13196 14708 14604 12559 13600 14614 14713 13950 13827 14068 13617 14165 14623 14755 12355 13083 14403 13961 14030 12122 15471 12467 14751 12340 13438 14426 14437 13991 14738 12471 14630 14719 15475 15287 14428 15083 12998 13123 12789 14180 12223 14523 13791 12548 13913 13456 13122 15096 13750 14534 15706 14003 14642 14652 15566 13080 12603 15801 12935 14922 15114 15063 12119 14778 14977 14730 15889 14324 15406 15339 14566 14633 14988 12917 14538 14585 13221 14894 13032 15179 13898 15106 13124 15886 14912 15317 12572 14995 14997 13990 15666 13710 15236 14392 14674 15746 14953 14582 15887 12701 16103 13164 14903 17110 14253

Tree=0
num_leaves=84
num_cat=0
split_feature=20 4 11 5 19 7 5 19 15 5 2 12 9 11 7 15 13 20 10 13 9 17 16 5 20 10 19 9 11 20 5 19 17 9 19 7 14 15 7 2 13 11 13 15 4 12 12 19 15 15 20 19 14 19 19 2 9 15 19 17 14 19 5 13 17 20 5 10 7 13 19 20 13 7 17 7 5 20 9 17 19 6 15
split_gain=2829.23 835.691 614.513 561.77 387.55 231.644 182.934 113.668 97.8654 75.8238 75.2154 54.8997 53.0865 52.6674 60.0044 45.2169 39.8882 37.5461 35.9967 29.9057 26.1677 26.0697 25.6347 24.9567 24.7172 24.0436 22.4616 22.1598 20.0662 19.3809 40.5937 19.2305 16.7631 14.0128 13.1691 12.2978 11.2715 10.9342 10.4831 10.4435 10.0216 9.98349 12.3338 10.1618 9.85881 9.51711 9.48271 8.24743 7.6819 6.89722 6.91435 6.53975 9.17714 6.52254 5.71179 5.44712 5.36863 5.27883 5.24335 5.18006 4.94465 4.84843 4.78814 4.69513 6.32293 8.35304 4.01943 3.47224 3.27289 3.01197 2.95519 2.3096 2.25355 2.89493 1.8182 1.29483 1.04173 0.632189 0.437014 0.369405 0.35579 0.298314 0.116486
threshold=10.115549564361574 -1.0000000180025095e-35 0.65442362427711498 -0.65691551566123951 -0.18478735536336896 0.63025459647178661 -0.53869813680648793 1.6803007125854494 0.36290560662746435 0.4423236101865769 -0.34240566194057459 -0.36143739521503443 -0.71380972862243641 1.3924829959869387 0.94280272722244274 0.71608659625053417 -0.83978188037872303 14.424175739288332 -0.23904469609260556 -1.3002702593803404 -0.8603212535381316 -1.0706920027732847 -0.3673949241638183 -0.83898538351058949 9.3713846206665057 1.0033200383186343 1.6157373785972597 -1.0323025584220884 -0.24175904691219327 14.245427608489992 -0.75223076343536366 1.3666994571685793 -0.58546307682991017 -0.53175941109657276 1.1630240082740786 1.6505017280578616 1.0128234624862673 -0.2779467105865478 0.16185059398412707 -0.60260677337646473 -0.71515941619873036 2.4313367605209355 -1.0142409205436704 1.082079350948334 -0.81649503111839283 1.0668108463287356 -0.28190813958644861 0.89542677998542797 1.6341403722763064 1.4241653680801394 23.031609535217289 0.33521483838558203 1.0382344126701357 0.31524537503719335 1.2704431414604189 1.0857405662536623 -0.9327566623687743 0.99793422222137462 1.8977334499359133 -1.3445663452148435 1.0690427422523501 0.15140711516141894 0.55719080567359935 -0.30317643284797663 -1.2426903843879697 20.336014747619632 -0.71914860606193531 -0.50125829875469197 1.2945014834403994 -0.83978188037872303 0.1391035541892052 9.5418453216552752 -0.79983535408973683 0.99201253056526195 -0.87803590297698964 0.75480279326438915 -0.90642130374908436 23.031609535217289 -1.0000000180025095e-35 -0.86772078275680531 0.95929139852523815 1.1002693176269533 1.2165059447288515
decision_type=2 2 2 2 2 2 2 2 2 2 2 2 2 2 2 2 2 2 2 2 2 2 2 2 2 2 2 2 2 2 2 2 2 2 2 2 2 2 2 2 2 2 2 2 2 2 2 2 2 2 2 2 2 2 2 2 2 2 2 2 2 2 2 2 2 2 2 2 2 2 2 2 2 2 2 2 2 2 2 2 2 2 2
left_child=4 2 3 8 24 7 25 15 12 37 22 33 18 14 17 40 -14 23 -2 74 -17 49 45 -4 -1 -6 27 68 80 30 59 -27 34 -9 38 36 -29 -8 -23 -30 61 42 66 51 -22 60 75 56 55 50 -19 -44 77 -16 -54 -38 -34 -36 -20 -15 78 -5 -62 64 -55 76 81 -42 -21 -45 -43 -26 73 -28 -10 -18 -66 -53 -3 -67 -7 -31 -64
right_child=1 10 13 5 6 28 9 11 19 -11 -12 -13 16 29 53 20 46 21 58 26 44 32 -24 -25 71 31 72 35 39 41 -32 -33 47 -35 57 -37 48 -39 -40 -41 67 70 43 69 -46 -47 -48 -49 -50 -51 -52 52 54 63 -56 -57 -58 -59 -60 -61 62 -63 82 -65 65 79 -68 -69 -70 -71 -72 -73 -74 -75 -76 -77 -78 -79 -80 -81 -82 -83 -84
leaf_value=0.47025892834365435 0.45280669752839442 0.50932066310123636 0.4848186588767639 0.41830711325251979 0.48795335456018724 0.50355820032667287 0.43586294448231228 0.47055585438748965 0.52579362073835512 0.4712395565761352 0.52808061885548385 0.51748975724649526 0.49653087228295706 0.52317085213731118 0.48781437162307589 0.47943097592898143 0.42130613862057587 0.48243557211006161 0.49361516469578609 0.498680979754547 0.42003243129776369 0.47545782771899947 0.46030789011114898 0.42908000403659252 0.52284162774729226 0.4294667514454234 0.49217746373198218 0.4951409657626174 0.49710843311065711 0.52510028365882799 0.44650683095718935 0.47690664135081018 0.49655641414181628 0.42588968935605775 0.47134234508669831 0.50269908826735765 0.4427114968816358 0.40236156992437183 0.44062273043024536 0.46269941970011857 0.4298543191716146 0.50654209314071885 0.48130485886026181 0.50121347610912015 0.45403076202923065 0.48520714495045325 0.46139432360796734 0.5137406410461034 0.48274297899301999 0.52232145002876473 0.5129279722366622 0.50400848830854594 0.47923695065304295 0.52441963555074433 0.50274114813030801 0.46886747763486464 0.47055588521918884 0.49705320004058845 0.51795213206390101 0.49480839930725362 0.4848186588767639 0.44601332116330128 0.50121575764543425 0.49184598692047982 0.48895939725363718 0.50711233512672804 0.5026990844957796 0.40536354571456723 0.52067084107137207 0.51812790887802851 0.52398206866064045 0.5030803589982199 0.51923461844895236 0.51240287853588062 0.50780253729485814 0.44208694897469358 0.50121574945624214 0.51894424015428164 0.52251915002214888 0.51947446362615146 0.51780873734128841 0.51090863593107805 0.51262566655501507
leaf_weight=15.821549654006956 15.113143920898436 17.23842978477478 11.807143688201906 19.599902391433716 22.433573007583618 11.807143688201906 13.460143804550169 12.279429435729979 40.144288539886475 15.585429668426512 563.67337417602539 14.404732942581175 11.807143688201903 13.932429552078245 12.751715183258055 13.460143804550169 21.016716241836548 14.404706239700319 16.766144037246704 16.766144037246708 25.739573955535885 14.640858650207521 12.043285131454466 17.002236127853394 18.419158935546875 18.89142990112305 12.751715183258058 14.87699770927429 12.043286561965944 49.590003490447998 12.043117284774778 12.751715183258055 14.64085817337036 13.224000930786135 12.987858057022097 14.877001762390135 12.515574455261232 419.62540078163147 16.29385781288147 19.363744497299194 14.404724836349486 16.29385781288147 19.127735137939453 18.419144153594971 14.168610572814943 17.474575757980347 11.807190895080565 12.515572309494017 15.821572780609129 16.766144037246704 11.807152748107908 12.043280124664308 18.89142918586731 33.532288074493408 17.238430738449097 17.946858644485474 12.279499530792238 13.932429552078245 17.946858406066895 12.043286561965944 11.807143688201903 14.877001047134398 11.807143688201906 11.807143688201903 17.71071553230286 15.34928679466247 14.877004384994505 147.11695575714111 12.987858057022093 41.561148166656494 84.066863059997559 13.932437658309935 23.850430250167847 17.002286911010742 12.987858295440672 13.460143804550169 11.807122468948362 16.766152381896973 22.433570861816406 27.864880323410038 12.043286561965941 12.043286561965941 13.460143804550169
leaf_count=67 64 73 50 83 95 50 57 52 170 66 2387 61 50 59 54 57 89 61 71 71 109 62 51 72 78 80 54 63 51 210 51 54 62 56 55 63 53 1777 69 82 61 69 81 78 60 74 50 53 67 71 50 51 80 142 73 76 52 59 76 51 50 63 50 50 75 65 63 623 55 176 356 59 101 72 55 57 50 71 95 118 51 51 57
internal_value=0.479866 0.496434 0.482608 0.462276 0.419687 0.435739 0.411909 0.425018 0.490857 0.405635 0.52371 0.472244 0.467665 0.503125 0.493775 0.417521 0.448411 0.481933 0.490291 0.502634 0.443115 0.488377 0.500291 0.451324 0.500601 0.464366 0.495959 0.487806 0.49184 0.510878 0.490282 0.447908 0.479714 0.446233 0.469498 0.479125 0.473115 0.403299 0.456455 0.476019 0.410774 0.513278 0.509392 0.503898 0.431176 0.505553 0.436042 0.494587 0.465862 0.507545 0.496881 0.496827 0.501308 0.508947 0.490765 0.457282 0.484788 0.484788 0.506912 0.511062 0.510058 0.428971 0.501155 0.511144 0.513156 0.50743 0.519291 0.407227 0.509294 0.513369 0.521442 0.515283 0.51161 0.504417 0.521993 0.428126 0.494401 0.51372 0.517649 0.515799 0.511991 0.522867 0.50831
internal_weight=0 1993.75 1323.82 664.978 550.921 344.533 502.748 289.275 320.446 448.671 669.938 39.9082 107.917 658.839 299.901 249.367 58.0912 169.078 49.8261 212.529 53.3683 140.269 106.264 28.8094 48.1731 54.0767 159.396 105.792 55.2575 358.937 38.0188 31.6431 97.2909 25.5034 57.855 76.038 61.161 433.086 30.9347 31.407 195.999 320.918 220.558 144.047 39.9082 94.221 46.2841 39.4359 46.284 42.978 26.2119 84.067 64.9393 130.823 36.1299 30.4624 26.9204 26.9203 34.713 25.9757 76.7464 34.4769 37.0744 118.071 106.264 72.732 76.5103 161.522 29.754 59.9803 100.361 32.3516 53.6044 29.754 53.1321 34.4769 29.5178 28.8094 39.672 43.2142 23.8504 61.6333 25.2673
internal_count=10776 8443 5606 2816 2333 1459 2129 1225 1357 1900 2837 169 457 2790 1270 1056 246 716 211 900 226 594 450 122 204 229 675 448 234 1520 161 134 412 108 245 322 259 1834 131 133 830 1359 934 610 169 399 196 167 196 182 111 356 275 554 153 129 114 114 147 110 325 146 157 500 450 308 324 684 126 254 425 137 227 126 225 146 125 122 168 183 101 261 107
is_linear=0
shrinkage=1


Tree=1
num_leaves=79
num_cat=0
split_feature=20 4 3 11 7 11 15 4 0 20 11 5 3 9 5 17 0 14 9 11 15 9 1 7 15 2 1 11 11 17 7 3 7 5 7 14 14 3 9 1 11 11 20 1 3 5 6 5 5 13 0 11 13 1 2 7 11 2 17 11 3 20 8 8 9 20 5 13 5 2 9 15 15 11 14 11 16 20
split_gain=2531.58 984.426 794.686 566.274 332.108 159.272 153.521 89.6712 77.2854 60.2553 53.6762 63.7071 57.999 43.8397 43.4804 42.2692 40.0665 37.3346 36.5624 28.7473 27.9996 25.1914 22.8464 22.727 22.2568 21.1575 19.7463 16.9078 21.9168 16.6819 16.343 16.3128 15.6572 15.3985 15.2798 14.3637 13.4124 12.6953 11.2377 11.0429 10.0788 10.0172 8.81288 8.50948 7.57955 7.75339 7.33898 6.87209 6.74971 6.37561 5.39168 5.20197 5.28784 4.78008 12.5557 9.45081 4.34417 3.96976 3.59244 5.89011 3.46593 3.4424 3.23773 4.13303 2.89003 2.50207 2.48618 4.63682 2.40794 1.97575 1.94672 1.00987 0.959586 2.67128 0.694329 0.324758 0.179224 0.0740357
threshold=7.1736445426940927 -1.0000000180025095e-35 0.41598369181156164 0.73077642917633068 0.77055910229682933 -0.89410236477851857 1.0968559980392458 1.0000000180025095e-35 -0.22645436227321622 14.245427608489992 1.578510105609894 -0.67430236935615528 0.69016441702842724 -0.76699286699295033 -0.80938640236854542 0.38888323307037359 -0.37674820423126215 1.0488068461418154 -0.8603212535381316 -0.64157646894454945 1.4241653680801394 -0.85440659523010243 0.58662343025207531 -0.62426486611366261 1.269903361797333 1.0741701722145083 -0.62206000089645375 0.88398352265357982 -0.12898113578557965 -1.0328435897827146 -0.11687437817454337 -1.0000000180025095e-35 1.2031099796295168 -0.53869813680648793 2.0604426860809331 1.0382344126701357 1.0310966372489931 1.8357757925987246 -0.40572658181190485 -0.82052204012870777 1.3468319773674013 1.027752220630646 13.426944732666017 -0.69321870803832997 1.6208574771881106 -0.97803181409835804 1.0236713290214541 -0.51393085718154896 -1.0304161906242368 -0.64742654561996449 1.0694811344146731 2.6081588268280034 -1.0570350289344785 -0.99920961260795582 -0.43891219794750208 0.78601485490798961 0.22213487327098849 1.0180232524871828 -1.0706920027732847 1.846330523490906 0.97189536690711986 20.463960647583011 -0.99669736623764027 -0.88948234915733326 -1.0268180966377256 22.858906745910648 1.0791788697242739 -0.27828451991081232 -0.44609312713146204 1.0274001955986025 -0.62902924418449391 -0.25741323828697199 0.95018601417541515 2.4313367605209355 1.1093980669975283 1.1155840158462527 -0.8234838843345641 20.687569618225101
decision_type=2 2 2 2 2 2 2 2 2 2 2 2 2 2 2 2 2 2 2 2 2 2 2 2 2 2 2 2 2 2 2 2 2 2 2 2 2 2 2 2 2 2 2 2 2 2 2 2 2 2 2 2 2 2 2 2 2 2 2 2 2 2 2 2 2 2 2 2 2 2 2 2 2 2 2 2 2 2
left_child=5 2 3 4 6 -1 8 -3 15 14 11 17 21 -7 -5 26 18 35 -8 -10 32 -13 23 50 34 41 30 28 -14 -27 -2 -16 44 -20 39 36 43 38 -30 -6 -31 -11 -12 48 45 -19 -45 -15 -4 -41 -9 52 -43 -54 55 -55 -34 -56 -44 65 -22 -29 -50 -64 -42 -60 67 -24 -21 -26 74 -49 73 -61 -28 -37 -68 -62
right_child=1 7 10 9 24 13 16 22 19 25 42 12 27 47 31 -17 -18 20 33 68 60 -23 66 -25 69 29 70 61 37 40 -32 -33 56 -35 -36 75 -38 -39 -40 49 64 51 58 46 -46 -47 -48 71 62 -51 -52 -53 53 54 57 -57 -58 -59 59 72 77 -63 63 -65 -66 -67 76 -69 -70 -71 -72 -73 -74 -75 -76 -77 -78 -79
leaf_value=0.021384506784709625 -0.058481521568072944 0.047385504112538154 0.044635096324543752 0.016662437858001131 0.011706102195281839 -0.028481014618394765 0.019866249489806358 0.026125564568094384 0.010448272254084821 0.0080208081624918316 0.010438542166728683 -0.0028236768426857998 0.027158001149736731 -0.043397659555024934 -0.015346527120951282 -0.010955475571114648 0.033033195744743359 0.00073637409020375249 -0.013753898361082617 -0.024666468462837727 0.016565230691480966 -0.052356129894923435 0.031854013719744827 -0.024539429808661684 0.039141327194979224 0.032770901174513485 -0.063894116246834276 0.014552700336339762 -0.0026722833987033066 -0.020662502248404727 -0.014260120153965014 -0.064774408955398627 0.02934924812942425 -0.060402142096731934 0.020215992328843687 0.046518738425418905 0.0027026958997611521 0.01341750512774271 -0.037974597003345573 -0.005959086869652159 0.018303271173234267 0.037935664940850621 0.045066984436325723 0.026647301816276232 0.0096582103837607684 -0.028163703138043384 -0.0025845429167949069 -0.053322130947507956 0.036663426246442601 -0.03355219097550749 0.0031484690705595375 0.042599182665327147 0.036476978072194091 -0.015539622465111062 0.038136636903102351 0.019593479900306524 0.0068718781737636143 0.016915596998210498 0.0097219988916558715 0.023026066631384987 0.02941274892461258 0.035781526880821847 0.0066954019809762587 0.029064366213359522 -0.001192930391869691 0.028388315748404044 0.042173982277102867 0.0077407127153754371 -0.046120810108277031 0.020966009701071028 -0.072686094543118626 -0.074434561525247689 0.042872349373622783 0.04010510324132658 -0.043099470755770912 0.032708454922125624 0.027933441009615718 0.041948943711348934
leaf_weight=17.262413755059242 23.108153626322746 579.66550613939762 39.622325673699379 18.574988499283791 13.419258162379263 22.822121769189835 12.254663228988642 21.606798931956291 15.14223602414131 23.290722534060478 12.051487952470778 16.289189130067825 22.397147253155708 11.86747334897518 11.873480826616289 12.818920105695723 15.985035777091978 13.208192139863963 11.808269143104551 11.871988862752916 16.672328159213066 20.725965708494186 20.418469443917274 16.50789687037468 14.325686022639276 13.851353108882902 31.472561091184616 12.755335703492163 18.002210065722462 17.923735722899437 12.103121653199194 13.104572042822836 12.690015912055967 15.022886008024221 20.959128245711327 52.246962189674377 18.546653404831886 15.630848512053488 14.026888310909273 15.32502470910549 11.720747366547583 27.64853273332119 58.273994535207748 20.688481286168098 11.807510763406752 21.50564052164555 11.754705831408499 13.809309124946592 19.20275641977787 14.903631135821344 16.00571297109127 25.258203461766243 15.969142436981199 13.399552404880525 18.993865460157394 12.220075160264967 19.747987940907478 17.841729909181595 11.971547394990923 21.15501756966114 20.688322931528091 22.306792885065079 13.874184876680376 17.16278612613678 14.562854677438738 18.278738334774971 17.356976762413982 12.008814439177511 19.581921026110649 16.206916555762291 211.62898235023022 359.44951857626438 44.45744115114212 24.554660797119141 12.169982731342314 13.840415313839911 11.746901854872702 11.730665162205694
leaf_count=73 97 2483 169 79 57 96 52 92 64 99 51 69 95 50 50 54 68 56 50 50 71 87 87 70 61 59 132 54 76 76 51 55 54 63 89 223 79 66 59 65 50 118 249 88 50 91 50 58 82 63 68 108 68 57 81 52 84 76 51 90 88 95 59 73 62 78 74 51 82 69 883 1497 190 105 51 59 50 50
internal_value=0 0.0133378 -0.000953975 -0.0219984 -0.040552 -0.0667884 -0.052377 0.0425709 -0.0596864 0.0142307 0.0228756 0.0174346 0.000593626 -0.0705626 -0.0176197 -0.0652173 -0.00569975 0.0245571 -0.0219694 -0.0230713 0.0116961 -0.0312061 0.0182401 0.00389191 0.00980306 0.020805 -0.067566 0.0119797 0.00333739 0.00524811 -0.0440949 -0.0427737 0.000558875 -0.0411043 -0.000276876 0.0324208 0.0266416 -0.00818486 -0.0188143 -0.0103497 -0.00390967 0.0265752 0.0363238 0.0302204 -0.0105149 -0.0174549 0.0162955 -0.0729761 0.0350131 -0.0202021 0.0166826 0.0297802 0.0263584 0.0218505 0.0175948 0.00132472 0.01628 0.0285767 0.0380017 0.0342396 0.0292405 0.0286763 0.0267016 0.0195861 0.00785328 0.0215486 0.0305962 0.0234228 -0.0390326 0.0304646 -0.0706188 -0.073798 0.0382142 0.0328629 -0.0591907 0.0441572 0.0375451 0.0350684
internal_weight=0 2119.53 1424.21 756.342 500.108 425.211 404.969 695.317 349.898 256.234 667.867 477.124 142.134 407.948 43.553 303.302 55.0709 334.99 39.0858 46.5961 128.051 37.0152 115.652 54.1204 95.1396 212.681 290.483 105.119 70.0571 58.0587 35.2113 24.9781 78.9593 26.8312 64.607 206.939 140.852 47.6599 32.0291 43.6479 44.2073 154.622 190.743 122.305 46.5213 34.7138 32.4432 385.126 89.8621 30.2287 37.6125 131.331 106.073 78.4244 62.4552 25.6196 32.438 36.8356 178.691 120.417 49.0913 35.0621 50.2397 31.037 26.2836 30.2503 61.5312 32.4273 31.4539 30.5326 255.272 373.259 90.1671 45.7097 43.6425 66.0874 29.1039 32.419
internal_count=10781 9007 6032 3191 2101 1774 1697 2975 1464 1090 2841 2027 601 1701 184 1268 233 1426 165 196 544 156 492 230 404 906 1214 445 296 247 148 105 335 113 274 882 600 201 135 185 188 659 814 521 197 147 138 1605 383 128 160 560 452 334 266 109 138 157 763 514 209 149 214 132 112 129 262 138 132 130 1066 1555 385 195 183 282 124 138
is_linear=0
shrinkage=0.03


Tree=2
num_leaves=81
num_cat=0
split_feature=9 0 5 18 19 19 8 18 5 15 8 19 11 11 9 0 11 7 13 6 11 9 7 9 5 0 19 9 9 15 5 15 14 6 0 5 5 19 5 13 15 5 14 9 11 19 14 5 10 7 11 12 6 13 11 13 13 10 6 9 19 6 2 6 5 13 14 19 15 13 9 5 13 5 5 7 13 5 16 9
split_gain=1129.97 1330.23 814.304 388.556 376.864 625.875 213.55 173.488 168.305 105.83 80.6487 71.3344 85.374 65.7567 65.0634 54.7542 44.3178 38.5166 36.8482 24.8375 22.7151 20.3147 19.3735 19.3716 19.487 18.5275 17.4945 15.4924 15.4707 14.59 13.9025 14.3019 13.0286 12.9088 12.4132 11.4208 10.5221 9.52932 9.38447 8.79506 8.18387 8.01141 20.8555 10.3116 7.84445 8.92439 8.75557 8.62627 6.6821 7.34084 6.66482 13.7719 12.7824 6.13851 5.11596 9.91075 5.03333 4.9677 4.95733 4.66315 4.61919 4.57793 3.56253 3.53837 3.42518 3.34967 3.18992 2.67708 2.26021 1.89306 2.95293 4.66072 5.5619 1.87204 1.77502 1.70819 1.69854 1.6449 0.778671 0.212005
threshold=-0.6600937247276305 -0.11601482331752776 -0.5599665343761443 1.3416379094123843 -1.0000000180025095e-35 1.0000000180025095e-35 -1.0000000180025095e-35 1.0000000180025095e-35 0.68038561940193187 0.70167854428291332 -0.37674820423126215 1.2384189963340761 1.4756330847740176 0.46224887669086462 0.46670007705688482 1.0000000180025095e-35 -0.99045640230178822 0.66794830560684215 -0.82130119204521168 1.0444638133049013 0.88398352265357982 0.42006699740886694 0.92548543214797985 -1.0435982942581175 -1.1840516328811643 -0.51298788189887989 0.60288867354393016 -0.97659441828727711 -0.76699286699295033 0.49972265958786016 -0.11193259432911871 1.5760869383811953 1.1406821608543398 1.0382344126701357 -0.2428152337670326 -0.65088266134262074 -0.65691551566123951 1.5990033745765688 -0.28170502185821528 -0.29779563844203943 0.64496728777885448 -0.38625992834568018 1.043823301792145 -1.2185433506965635 0.97832596302032482 1.9162533283233645 1.0614129900932314 -0.7444116175174712 1.0266881585121157 1.5649523735046389 1.0618425607681277 -0.97182330489158619 -0.76123008131980885 -1.0570350289344785 2.3696225881576543 -1.0142409205436704 -0.082343529909849153 1.084649980068207 1.206043064594269 0.18339072912931445 0.89542677998542797 1.0444638133049013 -0.51887330412864674 1.1180317997932436 -0.76135438680648793 -0.79261353611946095 1.0355168581008913 1.1351994872093203 0.15993726253509524 -1.1960773468017576 -1.4258497357368467 -0.96364501118659962 -0.87340474128723133 -0.77643495798110951 -0.34088931977748865 0.54907247424125682 -0.93344047665595997 -0.43884535133838648 -0.82915461063384999 -0.80952700972557057
decision_type=2 2 2 2 2 2 2 2 2 2 2 2 2 2 2 2 2 2 2 2 2 2 2 2 2 2 2 2 2 2 2 2 2 2 2 2 2 2 2 2 2 2 2 2 2 2 2 2 2 2 2 2 2 2 2 2 2 2 2 2 2 2 2 2 2 2 2 2 2 2 2 2 2 2 2 2 2 2 2 2
left_child=6 2 9 8 -3 -6 7 34 59 14 13 12 16 68 18 -7 78 20 -2 33 25 29 -21 58 28 35 -20 53 39 -17 31 44 40 50 -1 61 54 56 63 79 -22 42 -38 -44 45 46 -26 -46 -29 73 51 -11 -53 -19 55 -14 -23 -28 69 75 -16 -18 -43 -37 -33 -57 -55 -52 -5 -13 -71 -72 -73 -50 77 -4 -32 -74 -9 -25
right_child=1 4 3 10 5 15 -8 11 -10 19 -12 23 36 -15 60 21 17 27 26 22 32 37 -24 24 30 -27 57 48 -30 -31 76 64 -34 -35 -36 38 41 -39 -40 -41 -42 62 43 -45 47 -47 -48 -49 49 -51 67 52 -54 66 -56 65 -58 -59 -60 -61 -62 -63 -64 -65 -66 -67 -68 -69 -70 70 71 72 74 -75 -76 -77 -78 -79 -80 -81
leaf_value=-0.057506887930218763 0.0002215088453044696 0.04474640954980097 -0.07101443139721926 -0.05948025705357423 -0.07095755018012441 0.046399441408445673 0.046737661648369143 0.037871588936595812 0.023158239728426136 0.034109431832111403 0.041684506711292604 0.043273101693552071 0.040006878676538377 0.021169164297710222 0.0031707356438986293 -0.0309903548598012 0.00085699880816903374 0.031938610396469697 -0.062259486045626491 -0.020423164183165265 -0.007255516367730204 0.019007806728860061 0.021364772868175039 0.045655768010794878 0.00066135041461987533 0.0081167697753758566 -0.012518697614950459 0.012632589323754977 0.0028051751996317283 0.012770581458505062 0.040798628004024916 0.033431367163846627 -0.025008965372506659 0.045643546628256718 -0.018850551562526862 -0.056244480711490595 -0.018813934896177269 0.035838006810653515 -0.016518352746487414 0.014442283368299046 0.02123235624056781 0.016776282203347689 0.042118577272075228 0.0094916586923215508 -0.00020260246079963957 0.0088775293794861789 -0.034557328364325055 0.026200732995342334 -0.024538926256120926 0.0075273245633221833 0.044310299636795267 0.02232441683096751 -0.013551519859148538 0.020396561308009264 0.043322694800143835 0.0041984293351189535 -0.0043206925470697238 -0.038619152784053506 0.016822168942594567 -0.04545508486122099 0.02414145101559485 -0.02483409078248134 0.039646237408951353 -0.032596781832310982 0.013067738555287034 0.02519388445645479 -0.0010124657648360417 0.022087732909055174 -0.034502564067549993 0.04360799726509805 0.038856623243392563 0.0092748552569273494 0.022592240115468332 -0.0079771173499111874 0.019566522947063007 -0.052870238956369706 0.023219592223174004 0.041490759391864536 0.022792608850833344 0.032215550641108377
leaf_weight=26.454997003078461 22.385349467396736 271.45302450656891 507.85704766213894 14.716423705220224 86.595060676336288 78.232779413461685 248.32506759464741 18.717690050601963 17.63197535276413 20.4686459004879 30.86476719379425 39.273184582591057 25.983959659934044 19.523115336894989 17.234090358018875 13.500544086098673 12.007483035326006 23.064904987812042 27.42417699098587 19.183047935366631 14.387596622109411 22.283810988068581 18.761692896485329 45.02117446064949 12.51405841112137 12.920109912753103 13.349700123071672 19.73543456196785 13.346421629190443 12.209310352802275 14.476026490330698 21.432272642850876 11.843386352062224 28.725408062338829 12.096945181488989 19.208538830280304 14.52203558385372 22.917744532227516 14.76761971414089 13.064387843012808 21.857377752661705 13.091197133064272 13.915803313255305 22.911304861307148 22.981437489390373 21.444167241454124 11.827344402670859 20.579149007797241 14.415363624691965 16.432457223534584 12.839425429701807 15.788033857941626 18.152980506420135 11.683629974722864 34.057097673416138 15.899131387472154 12.463048577308653 15.242400750517843 15.930723696947096 13.938044637441633 20.907811164855957 11.85751289129257 16.723077788949013 16.734933361411095 14.067655131220816 11.692351043224333 12.196964025497435 13.758315369486807 11.998616352677343 26.081573098897934 39.091010615229607 17.316364765167236 11.661258414387701 12.537054002285002 15.628422915935518 19.509675949811935 16.641477271914482 16.972379252314568 11.68693734705448 13.75300385057926
leaf_count=110 95 1176 2090 61 356 339 1077 80 75 88 132 169 112 83 73 57 51 99 114 81 61 95 80 194 53 55 56 84 57 52 62 92 50 124 51 80 62 98 62 56 93 56 60 98 98 91 50 88 61 70 55 67 77 50 147 68 53 64 68 58 89 50 72 70 60 50 52 59 50 112 168 74 50 53 67 81 71 73 50 59
internal_value=0 -0.0178102 -0.0398551 -0.0582203 0.0203839 -0.00633338 0.0221344 0.0153506 -0.0669148 0.00440688 0.00485797 0.0181327 0.00971202 -0.0200864 -0.0168848 0.028518 -0.000581571 -0.00485317 -0.0323848 0.0212103 -0.015506 0.0113883 0.000256835 0.0269425 0.0211981 -0.0245247 -0.0451903 0.00829094 0.0327177 -0.0105087 0.0147379 0.0101098 0.00106891 0.0283881 -0.0461605 -0.0302124 0.0264508 0.0211638 -0.0381964 0.0381601 0.0100328 0.0182832 0.0107578 0.0226079 0.00360213 -0.00502489 -0.0171396 0.0125791 -0.00145198 -0.0079992 0.0217873 0.0152954 0.00329787 0.0211478 0.0337239 0.02694 0.0107535 -0.0272677 0.0343981 -0.0698861 0.0149891 -0.0123932 0.0304746 -0.0464147 0.0259409 0.0136656 0.00986074 0.034032 -0.0499116 0.0359738 0.0333911 0.0303412 0.024401 -0.0173961 0.029983 -0.0704445 0.0324131 0.0348163 0.0329859 0.0431024
internal_weight=0 1419.92 900.261 636.04 519.655 248.202 1154.83 906.506 558.937 264.221 77.1029 867.954 444.851 46.2382 116.544 161.607 276.055 245.65 78.4016 147.678 135.585 83.3745 37.9447 423.103 241.149 87.4962 56.0163 110.066 85.185 25.7099 155.964 124.846 48.0884 109.733 38.5519 74.5761 168.796 57.6646 50.7111 71.8386 36.245 81.1634 51.3491 36.8271 89.3462 45.7856 24.3414 43.5606 63.1203 43.3849 81.0074 54.4097 33.941 46.9455 87.6325 53.5754 34.7469 28.5921 181.955 541.305 38.1419 23.865 29.8143 35.9435 35.4999 27.5915 23.8806 26.5977 26.715 166.024 126.751 100.669 61.5784 26.9524 44.2621 527.367 31.1175 28.6336 30.4046 58.7742
internal_count=10924 5978 3752 2630 2226 1050 4946 3869 2304 1122 326 3708 1896 194 491 694 1171 1041 329 631 572 355 161 1812 1031 368 234 469 366 109 665 532 204 470 161 313 725 246 212 309 154 348 220 158 380 194 103 186 268 184 346 232 144 201 377 230 148 120 781 2229 162 101 128 150 152 118 102 114 111 713 544 432 264 114 190 2171 133 123 130 253
is_linear=0
shrinkage=0.03


Tree=3
num_leaves=76
num_cat=0
split_feature=20 8 11 5 19 5 5 18 16 18 3 6 3 13 2 9 20 9 19 20 11 1 1 5 10 5 1 5 9 13 3 14 20 10 19 7 1 11 7 1 5 15 19 9 6 3 6 6 9 11 2 7 15 14 6 13 7 1 2 11 11 11 7 13 2 13 9 6 1 19 2 11 18 5 5
split_gain=2356.35 685.149 561.962 471.8 306.334 194.107 137.437 130.325 114.741 108.424 105.85 71.7155 62.2203 56.9101 55.3966 47.5452 36.4128 35.9717 27.8963 68.0506 29.4265 26.9866 23.303 22.3689 25.983 20.4502 18.6543 17.7338 17.4446 15.6484 15.3946 15.1225 14.2505 13.5869 12.5479 10.6673 10.5757 9.32839 12.2131 13.6292 9.09137 9.00245 8.37293 8.2068 8.14557 8.11645 8.23216 8.0083 7.86343 6.94305 6.37652 6.04289 6.02578 5.03293 4.96316 4.70983 4.62795 4.37299 4.3039 3.82637 3.20493 3.10235 2.86039 2.70454 2.56502 6.00324 1.97958 1.95894 3.80319 6.49865 1.22522 1.0506 0.951017 0.802305 1.86565
threshold=10.364992141723635 -1.0000000180025095e-35 0.7939090132713319 -0.65088266134262074 -0.18478735536336896 0.68038561940193187 -0.53869813680648793 2.5865837335586552 -0.16553179919719693 1.0000000180025095e-35 0.69016441702842724 -0.64888426661491383 -0.44417203962802881 -1.1025151014328001 -0.64793977141380299 -0.71380972862243641 14.05134963989258 -1.1375074386596677 0.85583630204200756 14.245427608489992 1.8115272521972658 -0.82052204012870777 0.58662343025207531 -0.93170571327209462 1.0128234624862673 0.61716231703758251 -0.72672581672668446 -0.91742670536041249 -0.45471224188804621 -1.0336830615997312 0.53692853450775158 1.3983339071273806 20.336014747619632 1.0444638133049013 1.4058918356895449 1.2229723334312441 -0.91648045182228077 1.3687987327575686 0.94280272722244274 -0.69321870803832997 -0.75223076343536366 0.49972265958786016 1.4058918356895449 -0.91103169322013844 1.1019442677497866 0.23799436539411548 1.0614129900932314 1.0180232524871828 -1.0066103339195249 0.26861551403999334 -0.70710554718971241 0.33604894578456884 1.3095943927764895 1.125460743904114 1.0294221639633181 -1.2562230229377744 0.43846663832664495 0.19052359461784366 -0.36018294095993036 -0.25717468559741968 -0.7797642946243285 0.40235714614391332 0.27147161960601812 -0.77488663792610157 -0.43891219794750208 -0.95902967453002919 -1.0066103339195249 1.1099755764007571 -0.60182213783264149 1.6157373785972597 1.0488068461418154 2.6081588268280034 1.0488067269325259 -1.1840516328811643 -1.0231482386589048
decision_type=2 2 2 2 2 2 2 2 2 2 2 2 2 2 2 2 2 2 2 2 2 2 2 2 2 2 2 2 2 2 2 2 2 2 2 2 2 2 2 2 2 2 2 2 2 2 2 2 2 2 2 2 2 2 2 2 2 2 2 2 2 2 2 2 2 2 2 2 2 2 2 2 2 2 2
left_child=4 2 3 9 8 7 26 10 -1 -2 14 22 -8 40 -5 23 34 -16 19 -18 29 54 25 43 32 -3 33 35 -12 48 59 57 -25 -6 -4 -23 -31 38 39 53 55 51 50 73 62 46 71 -41 -21 -45 -7 -38 -28 66 -17 -11 -29 60 -13 -14 -19 -57 -43 -24 65 -39 -20 -66 69 -69 -40 -22 -47 -15 -75
right_child=1 11 16 5 6 42 12 -9 -10 13 28 58 30 15 17 21 18 31 37 20 45 27 63 24 -26 -27 52 56 -30 36 -32 -33 -34 -35 -36 -37 41 64 70 47 -42 44 -44 49 -46 72 -48 -49 -50 -51 -52 -53 -54 -55 -56 61 -58 -59 -60 -61 -62 -63 -64 -65 67 -67 -68 68 -70 -71 -72 -73 -74 74 -76
leaf_value=-0.06062734574405472 -0.048775789285174127 -0.025686646694301533 -0.021398708685670571 0.0024281409572245649 -0.0082683709798403449 0.01846560012867075 -0.0063565144302456895 0.029366682926729577 0.043916170164978445 0.042201182129653105 0.012134216344801153 0.024773561707359983 -0.0440162814332117 0.044552823268937398 -0.0085694993219368343 0.024341675293356842 -0.044776523452421793 -0.043910082305135531 0.039308341185820599 0.040329461627526854 0.021310993434818799 -0.047755884480123349 0.040379040695073212 -0.0064321078025394596 -0.027805735027759466 0.018260742646964936 -0.01055112535003924 -0.013109720891464109 -0.026675112043663102 0.022933352917441238 -0.029600530188427121 -0.029117011706636043 0.031701191172189801 -0.052826765506308812 0.01239337682387181 -0.011227695992672671 -0.030128418513014597 0.041923733156989475 0.038556881426330944 0.018970816733207382 0.01015227039178496 0.026486918420998821 0.03292006368047188 -0.0010909926102703974 -0.011915980657596649 0.030142416182284464 0.00049761480607445486 -0.011540950204720568 0.0086633389397021924 0.028567367040617613 -0.007986204970052006 -0.0003069434597716569 0.015999342897937432 0.010144453542894023 0.00041902548674977136 0.014685630095639165 0.010523467540900585 -0.040222499815966879 0.04572401940277461 -0.068258784530701597 -0.066435021010359516 0.035287190705825248 0.0064654424531318255 0.020873548522816053 0.039972542492238215 0.016149470294591319 0.02039319972417181 0.004716281211396646 0.04131936117686693 0.034494700241839475 0.026343272116014421 0.038260958618856721 0.042437373434278496 0.020142782447258513 0.039584794305092243
leaf_weight=11.585073351860045 24.172234356403351 18.196640223264694 18.008678689599037 13.519454285502432 12.014026671648027 18.948331445455551 16.123854398727417 19.204069659113884 37.410143420100212 62.048507645726204 23.362340748310089 12.831668570637701 13.069389715790747 19.115952908992767 12.177662581205366 16.179126501083378 13.553870186209677 14.043691858649252 20.55983135104179 19.817355766892437 12.309917271137239 21.036781191825867 14.806320354342459 13.611574113368986 15.340193897485731 17.954785495996475 14.44946274161339 16.492902353405956 17.261567994952202 20.122036129236221 12.003067433834074 14.252924501895903 22.618811845779419 12.660150766372679 19.671746820211411 11.818059295415877 11.807654574513437 14.085497573018072 43.61932897567749 12.135199129581453 13.791135206818579 12.4063837826252 18.622699558734894 12.184981465339662 12.721127122640608 21.43786433339119 12.112052544951437 17.861577212810516 11.687923014163969 15.800769969820974 13.168194219470022 11.743675649166105 14.366266846656798 12.901767775416372 14.369381725788115 15.102190583944322 12.050060868263243 12.635752469301222 543.75163258612156 435.47306080162525 206.68075619637966 15.318240508437155 13.990912839770315 18.660490736365318 129.64864464104176 22.548117756843567 11.679473653435709 12.06880719959736 17.776060536503792 14.577163085341452 22.548999801278114 11.502015471458433 51.701365083456039 12.788361877202989 12.76874105632305
leaf_count=48 100 77 76 57 51 81 68 82 163 270 99 55 54 83 51 69 57 58 89 86 53 88 64 58 65 77 61 69 72 86 50 59 97 53 84 50 50 61 189 52 59 53 80 52 54 93 52 76 50 68 56 50 61 55 61 65 51 52 2391 1772 845 66 60 80 564 97 50 52 77 63 97 50 225 55 55
internal_value=0 0.0157663 0.00377919 -0.0140925 -0.0529664 -0.0369601 -0.0595914 -0.0452695 0.0184783 0.0112675 -0.049914 0.0416972 -0.064702 0.0159057 -0.0566078 0.00700484 0.0246029 -0.0596775 0.0264296 0.0183355 0.0223478 -0.00929235 0.0127681 0.0190448 0.00381221 -0.00395594 -0.0136977 -0.0206465 -0.004601 0.011558 -0.0667265 -0.0621465 0.0175867 -0.0322981 -0.00389263 -0.0353363 0.00457239 0.0318098 0.0254334 0.0167931 0.0337794 -0.00159055 0.0174179 0.0296578 0.00719161 0.0334476 0.0208133 0.00101639 0.0292098 0.016062 0.00770636 -0.0158764 0.00277843 0.0270276 0.0134589 0.0371569 -0.00311395 -0.064031 0.0452863 -0.0676519 -0.0652064 0.0258525 0.0164986 0.0304243 0.0359457 0.0269103 0.0332756 0.0376827 0.0302668 0.0216656 0.0348489 0.0307105 0.0392888 0.0376369 0.0309811
internal_weight=0 1983.29 1357.09 730.485 579.154 383.877 530.159 333.138 48.9952 346.608 313.934 626.202 476.669 322.436 273.31 216.176 626.605 259.791 588.925 236.914 223.36 91.9463 69.6182 124.229 51.5706 36.1514 53.4899 61.3978 40.6239 114.297 460.546 247.613 36.2304 24.6742 37.6804 32.8548 82.7918 352.01 141.306 75.1378 106.26 62.6698 50.7392 72.6588 39.1184 109.063 35.924 29.9968 31.5053 27.9858 32.1165 23.5513 28.8157 45.1411 30.5485 92.4689 28.543 233.36 556.583 448.542 220.724 30.4204 26.3973 33.4668 210.704 36.6336 32.2393 174.071 44.422 26.646 66.1683 23.8119 73.1392 44.6731 25.5571
internal_count=10899 8518 5774 3073 2381 1592 2170 1375 211 1481 1293 2744 1944 1381 1122 921 2701 1065 2541 1019 962 388 298 533 220 154 226 258 171 489 1876 1014 155 104 160 138 353 1522 608 322 460 267 217 313 167 473 155 128 136 120 137 100 122 194 130 401 120 955 2446 1826 903 131 113 144 914 158 139 756 192 115 286 103 318 193 110
is_linear=0
shrinkage=0.03


Tree=4
num_leaves=77
num_cat=0
split_feature=20 8 11 5 19 5 11 3 3 19 11 6 19 4 15 20 1 1 16 1 5 5 14 15 1 0 20 19 10 10 14 10 5 0 15 20 15 15 1 0 20 20 20 11 13 14 14 15 13 20 13 19 3 20 13 6 5 5 5 0 20 15 6 3 19 11 20 11 8 19 19 6 12 1 11 5
split_gain=2201.6 667.239 512.69 443.043 296.839 181.186 127.088 101.724 92.2355 88.3782 75.9876 68.9188 61.9475 51.8343 39.9192 36.0936 69.4304 32.5032 27.5967 25.8382 22.2426 19.557 19.258 23.2028 18.8844 17.5018 16.5044 16.1734 15.5256 14.7834 14.3119 13.7021 12.9317 16.8493 10.8053 10.2159 9.94324 9.5635 9.34914 12.7354 9.07131 22.8007 8.75059 8.58528 8.75027 8.13828 16.9207 7.78187 7.73246 11.2214 7.74175 7.14103 6.18041 6.21622 6.16028 5.06649 4.84806 10.4486 3.79505 3.78435 3.76908 5.07122 3.48046 3.19885 2.36162 8.70949 2.22301 2.20917 2.15287 1.39149 2.62093 1.24135 1.13035 0.870845 0.117855 0.0203289
threshold=10.364992141723635 -1.0000000180025095e-35 0.81107529997825634 -0.65088266134262074 -0.18478735536336896 0.61716231703758251 -0.92082461714744557 0.8803563416004182 0.56981906294822704 1.6803007125854494 0.93643417954444896 -0.36514718830585474 1.2384189963340761 -0.38348130881786341 0.49972265958786016 14.424175739288332 -0.57832986116409291 0.3397155106067658 -0.39493751525878901 -0.056708712130784981 -0.52935001254081715 -1.1504971981048582 1.0762470960617068 1.0141214132308962 -0.39772555232048029 -0.80321767926216114 9.3713846206665057 0.90860947966575634 1.0488067269325259 1.0412564873695376 1.0488068461418154 1.2148638367652895 -1.2545884847640989 -0.30808340013027186 0.68724998831748974 14.371915340423586 1.4872136116027834 -0.33060757815837855 0.58662343025207531 1.0048763155937197 20.410324096679691 19.081599235534672 20.336014747619632 1.3468319773674013 -0.73889610171318043 1.0382344126701357 1.0033200383186343 0.36290560662746435 -0.8100990056991576 24.145854949951175 -0.97503459453582753 0.85583630204200756 0.48539012670516973 23.118302345275882 -0.78399890661239613 1.0350960493087771 -0.6806843876838683 -0.31513445079326624 1.6009075641632082 -0.21082179993391034 23.031609535217289 0.72898608446121227 1.0641670823097231 1.1603115797042849 0.56080621480941784 2.016144990921021 9.5418453216552752 1.4144631028175356 -0.84016627073287953 0.15140711516141894 0.49080294370651251 1.0954428315162661 -0.59160673618316639 -0.67328655719757069 2.7805906534194951 0.87649500370025646
decision_type=2 2 2 2 2 2 2 2 2 2 2 2 2 2 2 2 2 2 2 2 2 2 2 2 2 2 2 2 2 2 2 2 2 2 2 2 2 2 2 2 2 2 2 2 2 2 2 2 2 2 2 2 2 2 2 2 2 2 2 2 2 2 2 2 2 2 2 2 2 2 2 2 2 2 2 2
left_child=4 2 3 8 26 7 -6 9 12 17 20 18 14 35 42 16 21 24 38 -18 -8 73 43 40 27 -12 -1 69 -9 55 45 58 -14 34 -34 -11 51 -22 39 -3 41 -24 72 44 56 46 68 -42 49 50 -25 -32 53 -49 -23 -16 60 -58 -7 -26 61 -17 -36 -38 65 -45 -28 -50 -10 -5 -71 -53 -2 -4 -67 -40
right_child=1 11 15 5 6 31 10 28 30 13 25 -13 32 -15 29 22 19 -19 -20 -21 37 54 23 48 59 -27 66 -29 -30 -31 36 -33 33 -35 62 -37 63 -39 75 -41 47 -43 -44 64 -46 -47 -48 52 67 -51 -52 71 -54 -55 -56 -57 57 -59 -60 -61 -62 -63 -64 -65 -66 74 -68 -69 -70 70 -72 -73 -74 -75 -76 -77
leaf_value=-0.0039348223766064658 -0.039096586519641173 0.03004812646337103 0.042282184121802839 -0.057387983926817702 0.018278823227407811 0.014020981096625406 -0.031430571669343835 0.025276917274914844 0.036912840797613693 -0.051196623915807683 -0.033903320381658913 0.044938086840547613 0.032454284633247399 0.035030454500935101 0.0010809972216189701 0.0084934457686483295 -0.051062471801760871 -0.010061879978623506 -0.019327049562448715 0.0047364528636898613 -0.034505718053811356 -0.0088692020937613594 0.019849983855393095 0.034815933125917346 -0.065022503118654013 0.0080601272632884989 0.042985296308702257 -0.018581864322056916 -0.013722113436741144 -0.020941837301760507 -0.0085890673588076005 -0.0092424119304728176 -0.017953811903220689 0.034323057366831118 -0.00103643488397044 -0.01219173891516446 0.014784195109922635 -0.065702601635943242 0.028388762076274207 -0.0071403831764430721 -0.0033777690000435295 -0.029856725097645583 -0.02129653626456186 0.013056223603783002 -0.00013808028366728284 0.043982481227726369 -0.003521392853781721 0.02481048034711715 0.023620295985675551 -0.0018107244877349617 0.0067784115292864383 0.007049681328304391 0.033326186013731537 -0.0049752375787314937 0.016885933687261965 0.02770283965438726 -0.0049785475262393115 0.032847291615400044 0.033709745506430216 -0.041123828210267284 0.042304065982680432 0.033009459342023116 0.021330480013699665 0.037301861990595313 0.038269817523415323 0.029598976113613899 0.022966120638118689 0.0392317864474616 0.021906558887532727 -0.027439990475145417 -0.051840297506880614 0.020552724688931906 -0.059277300199838685 0.026274484533892119 0.041069186310555457 0.039854205911903591
leaf_weight=13.979466840624807 18.575328722596172 15.362370803952219 25.519388541579247 36.615377530455589 18.745724692940712 19.103337347507477 21.462414175271988 16.687443435192108 41.199002847075462 12.75111246109009 22.200739338994026 525.81148928403854 23.210269808769226 15.261491954326628 12.844036996364595 12.541468337178229 18.730706319212917 14.181685373187063 16.039563179016113 11.764108404517172 12.562520727515219 13.565943926572798 15.83419953286648 33.081357911229134 158.43557807803154 14.031604632735251 16.640750885009769 18.783744871616364 18.189631938934326 16.837945371866226 17.685248076915741 13.885779485106466 21.146338880062103 13.549802139401434 11.659185513854029 12.239180132746695 11.56700173020363 449.80011181533337 19.17330613732338 16.169213682413101 15.167576000094412 15.429208338260649 18.4991265386343 21.49721448123455 11.896831393241881 37.377789258956909 14.111934497952459 11.804855763912203 17.233757972717285 15.781847402453421 12.743024468421934 11.91507448256016 19.85702346265316 11.876834630966185 18.923501759767532 12.064039021730421 11.87628608942032 13.104765415191649 20.350807279348373 13.118690997362135 22.55022419989109 22.42593814432621 12.306167185306547 16.152214676141739 133.16700141131878 17.816177383065224 13.507529631257055 47.485357999801636 18.381804019212723 12.150518551468851 12.855397313833235 16.116763010621071 13.186738252639769 11.668117061257361 25.910033226013184 14.889785185456274
leaf_count=59 77 66 112 149 80 82 90 71 180 52 92 2345 101 66 55 54 78 59 68 50 52 58 68 144 642 59 74 78 76 71 75 59 89 58 50 51 50 1817 83 69 65 66 77 93 51 165 61 51 74 68 55 51 86 51 81 52 51 57 88 54 98 98 53 70 585 78 59 208 79 50 53 69 54 51 114 65
internal_value=0 0.0148362 0.00316738 -0.0133803 -0.0514867 -0.0352713 -0.0576085 -0.0432924 0.0107543 -0.0488022 -0.0603737 0.0409562 -0.00491775 -0.00716991 -0.0216997 0.0236077 0.00706069 -0.0550484 0.015075 -0.0300698 -0.0635131 0.0235067 0.0268434 0.0198805 -0.0575307 -0.0178722 0.0228802 -0.0442897 0.00512198 7.75977e-05 0.0254706 0.0159002 0.013976 0.00624337 -0.00275212 -0.0332978 0.0148846 -0.0649313 0.023651 0.0113448 0.00810974 -0.00484647 -0.0394361 0.031902 0.0239212 0.0322744 0.0258266 0.014975 0.0281342 0.0199556 0.0273304 0.00604392 0.0213009 0.010276 0.00618818 0.0145467 0.0273508 0.015365 0.0247589 -0.0634439 0.032205 0.0246971 0.0108433 0.0287474 0.0355603 0.029534 0.0350412 0.0354973 0.0327212 -0.0517043 -0.0414951 0.0152537 -0.0490287 0.0380791 0.0371619 0.0343943
internal_weight=0 1969.69 1362.25 752.996 582.931 394.61 538.803 341.27 358.386 306.393 520.057 607.446 173.879 40.2518 92.0072 609.253 100.172 266.141 81.6342 30.4948 483.825 69.677 509.081 216.295 251.959 36.2323 44.1277 80.405 34.8771 41.746 184.507 53.3399 81.8718 58.6615 45.1117 24.9903 73.4363 462.363 65.5947 31.5316 89.9697 31.2634 50.2612 292.786 94.3955 111.071 73.6927 58.7063 126.325 61.6062 45.8244 45.7171 43.5387 23.6817 32.4894 24.9081 82.4987 24.9811 39.4541 171.554 57.5176 34.9674 23.9654 27.7192 198.39 65.2234 30.1483 64.7191 59.5808 61.6213 25.0059 28.0318 31.7621 37.1875 43.7262 34.0631
internal_count=10890 8508 5812 3167 2382 1630 2190 1401 1537 1254 2110 2696 737 169 386 2645 430 1085 351 128 1959 302 2215 936 1026 151 192 330 147 178 800 229 351 250 192 103 315 1869 283 135 387 134 208 1279 409 485 320 253 549 267 199 195 188 102 139 107 358 108 170 696 250 152 103 120 870 285 133 282 259 252 103 120 131 163 192 148
is_linear=0
shrinkage=0.03


Tree=5
num_leaves=81
num_cat=0
split_feature=20 4 11 5 19 7 18 11 18 3 2 11 20 10 9 0 14 19 17 20 11 10 10 9 2 3 17 20 12 19 18 11 2 20 2 3 3 5 6 19 19 9 19 5 19 9 7 20 2 19 9 5 3 2 11 14 20 5 9 0 5 20 14 18 0 9 7 7 10 3 18 0 3 5 9 19 17 6 11 11
split_gain=2039.64 653.931 512.779 433.994 271.225 172.656 119.06 118.936 98.1235 69.4394 67.091 63.2027 46.3955 46.3374 35.2181 25.8622 23.7127 25.1001 23.6481 64.6047 27.3173 23.0698 31.7529 62.28 26.022 21.9917 19.3902 21.5628 16.8356 20.9607 16.7198 15.9873 15.0899 14.7963 14.6339 13.9068 17.0422 13.0133 11.2181 11.0491 10.9959 10.6462 10.5217 9.9802 9.57017 8.8628 7.5541 6.72092 6.53915 5.88255 5.32124 6.00771 5.08357 7.14898 4.10055 3.9304 3.24654 4.86957 2.89029 2.75235 2.46356 2.43178 2.20905 2.17308 2.98974 2.02708 1.96802 5.65455 1.91544 1.66131 1.09486 1.42503 0.860346 1.74144 0.704152 0.686759 0.671472 0.0928887 0.086973 0.0114582
threshold=10.364992141723635 -1.0000000180025095e-35 0.7939090132713319 -0.62667763233184803 -0.18478735536336896 0.65471088886260997 2.9348268508911137 -0.4532728493213653 -0.14433653652667996 0.93588656187057506 -0.42119930684566492 0.7457714080810548 14.05134963989258 1.0488068461418154 -1.0892782211303709 -0.68639701604843129 1.0488068461418154 1.7183637022972109 -1.1238197088241575 14.245427608489992 1.772206783294678 1.0382344126701357 1.0128234624862673 -0.75280022621154774 -0.30808340013027186 0.7067987620830537 -0.54351434111595143 20.272291183471683 -0.45253784954547877 0.81500050425529491 1.0954428315162661 1.2374572753906252 1.3719860911369326 8.3389692306518572 1.2664563655853274 0.69016441702842724 -0.82604143023490895 1.6009075641632082 1.1192198395729067 0.99369612336158764 0.73268508911132824 -0.44732585549354548 1.2268347144126894 -0.57937312126159657 1.6157373785972597 -0.6939118206501006 0.32721970975399023 20.272291183471683 -0.60260677337646473 0.88371440768241893 -0.93720275163650502 -0.72430467605590809 0.23799436539411548 1.0614129900932314 -0.97081711888313282 1.1625251173973086 23.031609535217289 -0.93170571327209462 -0.6939118206501006 -0.69630894064903248 0.9403207302093507 20.272291183471683 1.1539047956466677 1.0412564873695376 -0.98399287462234486 -0.048471206799149506 1.3670313358306887 1.0326730608940127 1.0488067269325259 0.4045266062021256 1.0488067269325259 -0.97751179337501515 1.5620616078376772 -0.75685167312622059 -0.80952700972557057 1.1231824159622195 -0.44490286707878107 1.0515024065971377 2.4313367605209355 2.016144990921021
decision_type=2 2 2 2 2 2 2 2 2 2 2 2 2 2 2 2 2 2 2 2 2 2 2 2 2 2 2 2 2 2 2 2 2 2 2 2 2 2 2 2 2 2 2 2 2 2 2 2 2 2 2 2 2 2 2 2 2 2 2 2 2 2 2 2 2 2 2 2 2 2 2 2 2 2 2 2 2 2 2 2
left_child=4 2 3 8 33 6 9 30 -2 14 28 45 31 21 -5 43 -15 25 56 -20 26 22 24 -24 -10 41 27 42 54 -30 -6 -4 48 -1 66 36 -29 39 -27 -7 -38 58 -21 -13 -33 -9 -42 -19 -16 50 51 -28 53 68 -3 77 57 61 -18 -36 -31 63 75 64 -14 -35 67 72 -22 -50 71 -54 73 -26 -51 -56 78 -37 79 -72
right_child=1 10 12 5 7 37 -8 11 13 -11 -12 15 18 16 32 -17 17 47 19 20 52 -23 23 -25 34 38 49 35 29 60 -32 44 -34 65 59 55 40 -39 -40 -41 46 -43 -44 -45 -46 -47 -48 -49 69 74 -52 -53 70 -55 62 -57 -58 -59 -60 -61 -62 -63 -64 -65 -66 -67 -68 -69 -70 -71 76 -73 -74 -75 -76 -77 -78 -79 -80 -81
leaf_value=-0.0058528691169418452 -0.045457851452188489 0.037457451790550218 -0.034704120800029971 -0.012382112926649411 0.025869230084398152 -0.015728633509936838 0.036260607923697646 -0.032931769303538902 -0.0063590990268398402 0.0013443883335555464 0.044369707327701603 -0.020137343498624546 0.03948247345842134 0.026117980006226831 -0.03354084506888478 0.012830108370178289 -0.026358256924904434 0.031576029897389779 -0.041186976174871076 -0.03104796134777902 0.020190952415544233 0.041131330140386529 0.025850750237531646 -0.052218105399276342 0.033758310568068398 0.014911281725739209 0.039279608703733211 0.032091533723604661 -0.02960267763667665 0.00676481415238998 -0.017081307604804107 -0.012767434366861613 -0.022237967355184688 0.023299666353712081 -0.0035198108894505214 0.027683396355927332 -0.027845594083958425 0.03121540217555541 -0.018689217822103806 0.01707908305543325 0.019735742753312434 -0.0082264399114630078 0.0056757948967978457 -0.054573083689913322 0.023598492075368238 -0.06315368645046196 -0.010083836325034044 0.0013006675917722136 -0.060941966255697984 0.028219243426787825 0.0086657905488882383 0.013769313621107745 0.034566100594887857 0.0042704267696509687 0.017365812026205612 0.014683874953219966 0.043018130440152062 0.017318653791852961 -0.050291393027511212 0.016288386693245595 0.026606243495334126 0.020159564149811213 0.0093122371100847218 0.04335767629139084 0.019584877948324215 0.04181057391054336 0.040966193699902224 0.0092037342047409133 0.036504088974034184 -0.04406883136947342 0.032788246494375006 0.017600834688387176 0.042827507362964687 0.017745898369245991 0.042708998791812412 0.029785770293068788 0.042476548654464936 0.040942004853640072 0.038870094650452006 0.022068367886860955
leaf_weight=12.849180057644842 26.678875431418419 21.190337851643562 12.672441601753233 17.823154270648956 13.144917875528337 17.156985834240913 14.511239886283873 12.381398156285284 22.820150583982468 22.033624574542046 527.26775558292866 17.252268359065052 16.198452815413475 22.111900612711906 13.330583438277243 11.879739806056021 12.342103406786917 13.433725386857988 13.247044146060942 14.345110490918161 15.874935254454611 42.678154513239861 19.946327954530716 15.433892950415609 29.894000098109242 21.281255275011063 18.654743731021881 14.652752220630644 12.274121612310408 11.884437277913095 18.273151248693466 12.021274596452715 12.491062283515928 19.259806647896767 11.642060831189157 14.358196288347246 11.794395685195921 19.3100825548172 13.943535521626471 17.813680082559586 14.83106589317322 13.8402162194252 12.4576169103384 15.767103955149652 12.125365570187567 439.43568813800812 13.909018233418463 12.322759851813315 210.65486957132816 16.431416109204292 22.423936888575554 17.235340312123299 16.288452401757244 12.704706609249113 13.648401603102686 15.243941843509672 50.445132523775101 19.960077166557312 15.472076356410982 12.073497742414473 11.546053439378737 12.431540191173552 13.670179218053816 38.107687368988991 17.848867073655128 12.691688865423204 30.492879867553711 11.448949456214903 22.876886412501335 18.377113923430443 11.562188491225244 11.278756216168402 12.941349819302557 12.588581115007402 19.211828544735909 16.039710849523544 52.59710681438446 12.798595890402792 14.830187559127806 13.398083388805388
leaf_count=54 109 93 53 74 56 72 63 51 97 93 2387 72 72 95 55 50 52 58 55 61 70 190 87 65 130 91 82 64 52 51 77 51 51 85 50 63 50 84 59 76 64 58 54 64 52 1766 60 53 850 72 96 74 72 55 59 66 224 87 64 52 50 55 59 168 79 57 134 50 101 75 51 50 57 54 84 70 234 56 66 59
internal_value=0 0.014867 0.00296073 -0.0137571 -0.0494359 -0.0370456 -0.0456864 -0.0554423 0.00895335 -0.0498304 0.0400891 -0.0590159 0.0236599 0.0132589 -0.0539554 -0.0243433 -0.00137161 -0.00748886 0.0258104 0.0218742 0.0241174 0.021451 0.0165639 -0.00870441 0.0227937 -0.0160402 0.0169501 0.00906553 0.0173599 0.000763246 0.00113232 -0.00875218 -0.056803 0.0210356 0.0282952 0.0155879 0.00548436 0.0121149 0.00146196 0.000993471 -0.00467491 -0.0305282 -0.0143889 -0.0377016 0.00570615 -0.0624001 0.00545048 0.0176813 -0.0584858 0.0271831 0.0206714 0.0277342 0.0330961 0.0242267 0.0263885 0.028309 0.0358394 0.0320009 -0.0409548 0.00681549 0.0172311 0.0352226 0.0202563 0.0375068 0.0299079 0.0316982 0.0334046 0.0294038 0.0304973 -0.0597856 0.036669 0.0284841 0.0333395 0.0295307 0.0369817 0.0248279 0.0387801 0.0351641 0.0329723 0.0281058
internal_weight=0 1959.23 1331.71 736.889 572.935 363.502 309.222 528.134 373.386 294.71 627.521 496.716 594.817 346.707 272.677 44.8991 124.748 102.636 557.998 403.006 389.759 221.96 179.282 35.3802 143.901 76.8792 218.348 124.391 100.253 35.7046 31.4181 36.8191 254.854 44.8007 121.081 97.588 55.1872 54.2807 35.2248 34.9707 40.5345 41.6544 26.8027 33.0194 24.1466 451.817 28.7401 25.7565 242.363 93.9573 58.314 35.8901 171.411 51.4565 64.5486 42.4007 154.992 104.547 27.8142 23.7156 23.4305 84.5865 43.3583 72.155 34.0473 31.9515 97.3658 66.8729 38.7518 229.032 119.955 27.5672 55.4239 42.4826 35.6432 29.6881 92.3876 27.1568 39.7905 24.9603
internal_count=10851 8519 5698 3098 2332 1493 1261 2136 1605 1198 2821 2003 2600 1496 1105 186 530 435 2444 1759 1704 966 776 152 624 324 946 538 434 153 133 156 1031 196 527 423 238 232 150 148 174 174 115 136 103 1817 124 111 980 408 252 156 758 226 281 185 685 461 116 102 101 374 188 319 151 142 425 291 171 925 532 122 241 184 156 129 410 119 176 110
is_linear=0
shrinkage=0.03


Tree=6
num_leaves=79
num_cat=0
split_feature=20 4 3 11 19 19 7 5 6 4 7 20 3 1 11 10 13 15 17 17 11 3 19 10 13 1 15 20 7 3 1 11 13 5 7 20 20 13 19 3 0 13 17 15 6 11 1 19 6 1 10 1 8 1 1 19 5 1 13 20 11 5 6 6 15 3 8 5 11 4 20 11 7 19 15 12 1 10
split_gain=1917.14 620.88 483.364 359.697 269.01 234.199 124.393 112.021 75.5335 56.761 62.2093 51.7094 48.0973 39.8792 35.3645 34.5083 32.5887 31.7233 28.437 19.2407 18.9965 18.9385 18.557 18.5452 18.3265 18.2186 19.512 16.9761 15.4379 16.6688 15.0343 14.6118 13.9103 13.8482 11.0104 10.8354 10.4168 9.63827 9.55226 9.38869 9.09259 8.40618 8.9276 16.6772 8.25381 8.18701 8.0842 7.9356 7.01798 7.01568 7.00181 6.46484 6.25891 7.33746 5.59734 5.52405 4.45973 4.05664 3.99914 3.95256 3.72884 3.72485 3.17024 2.98266 2.93654 2.9302 2.76188 2.43249 2.06443 1.76083 1.62031 1.17077 1.15646 1.05723 0.83613 0.61811 0.598556 0.201153
threshold=10.115549564361574 -1.0000000180025095e-35 0.49741910398006445 0.73077642917633068 -0.18478735536336896 1.1630240082740786 0.78601485490798961 -0.53869813680648793 -0.35240049660205836 -0.32324950397014612 1.0326730608940127 14.245427608489992 -0.46863999962806696 -0.54084789752960194 0.95855611562728893 1.0488068461418154 -1.1139843463897703 0.84496363997459423 0.38888323307037359 -1.2195093631744383 1.2982901930809023 0.8803563416004182 0.1391035541892052 1.0000000180025095e-35 -1.0392991900444029 -0.61376550793647755 0.30467414855957037 8.68780565261841 1.2945014834403994 1.077440679073334 -0.35914927721023554 0.17621847987174991 -0.69707551598548878 -0.6806843876838683 1.5649523735046389 19.601392745971683 20.463960647583011 -1.0025730729103086 1.7625445127487185 0.52438789606094371 -0.86846935749053944 -0.49045675992965693 -0.32002061605453486 1.7582764625549319 1.0762470960617068 -0.98176091909408558 -0.59470677375793446 2.0646593570709233 1.0540904998779299 0.49293355643749243 -0.73953878879547108 -0.47972144186496729 -0.95346072316169728 -0.51049757003784169 0.21474768966436389 0.85583630204200756 -0.44609312713146204 -0.87774232029914845 -0.87340474128723133 9.5418453216552752 -0.65892454981803883 -0.77643495798110951 1.1122318506240847 -0.42762152850627894 0.27390667796134954 1.077440679073334 -0.9636220633983611 -0.55295732617378224 0.58804577589035045 1.0954428315162661 25.879243850708011 1.4756330847740176 0.64294725656509411 1.1914840936660769 1.184619188308716 -0.81530666351318348 -0.65619263052940358 1.1099755764007571
decision_type=2 2 2 2 2 2 2 2 2 2 2 2 2 2 2 2 2 2 2 2 2 2 2 2 2 2 2 2 2 2 2 2 2 2 2 2 2 2 2 2 2 2 2 2 2 2 2 2 2 2 2 2 2 2 2 2 2 2 2 2 2 2 2 2 2 2 2 2 2 2 2 2 2 2 2 2 2 2
left_child=4 2 3 5 27 6 18 23 22 10 17 13 -9 -5 15 28 61 46 25 -13 30 40 -3 -6 -25 26 -2 -1 29 33 32 -23 62 37 -8 -31 38 -4 41 -14 -18 42 43 57 -33 75 -7 58 52 50 -47 -19 53 -22 -27 67 -48 -16 -12 -29 -51 -17 -21 73 65 -38 -37 -50 -46 -62 77 -40 -57 -54 -68 -24 -30 -66
right_child=1 8 14 11 7 9 34 12 -10 -11 47 19 39 -15 36 16 21 51 -20 20 48 31 45 24 -26 54 -28 59 76 35 -32 44 -34 -35 -36 66 64 -39 71 -41 -42 -43 -44 -45 68 49 56 -49 55 60 -52 -53 63 -55 -56 72 -58 -59 -60 -61 69 -63 -64 -65 70 -67 74 -69 -70 -71 -72 -73 -74 -75 -76 -77 -78 -79
leaf_value=-0.0057634526387427441 -0.051248551330271487 -0.018439618918121181 0.032761283393807905 0.01182173208380646 0.010133465518567298 -0.015879910209613057 -0.01119223831958736 -0.0066241421115341131 0.043579365150654921 0.039550308791220665 0.020474733658212587 0.038464188195969723 -0.06109026000298786 -0.044811226113797988 -0.00069945915477206435 0.037469018003880875 -0.043918512125563164 0.011846142089053067 -0.011327289663459942 0.026016317056066929 0.02745606923724761 -0.016851366351890752 0.040332746374294265 0.0033258445605572036 -0.042192182590993582 -0.059253207094292645 -0.0090564680652393988 0.042087228950707684 0.039438898258112497 0.0049455634976116047 -0.026990249750306873 -0.0052685982462495904 -0.016237803705498512 -0.016559168107525651 0.018799523869401511 0.021624169571204544 0.010827236570096974 -0.0010125315053792895 0.025627756974338334 -0.030695549124710338 -0.0096747414549303336 0.031941727452661106 0.026532195421682229 0.030079099368603129 0.031058635470401788 -0.01476876526862933 -0.028878971152730276 0.03594956618270935 0.012046156812798515 0.0080659044854438609 0.014896748539319713 -0.015432901292345909 0.03060882974512269 -0.0032419617450704171 -0.033963965688207913 0.013304514110532184 -0.055163538258295709 -0.023977568549355198 -0.0026260260429607826 0.018600118121691978 0.037696911765134906 0.015367764272203975 0.0064846254294709379 0.042108839592280213 0.039448166264545594 0.032495257205737267 0.027091832555730378 -0.0060599305925845091 0.012675853442939283 0.018503574359180947 0.024506952537066189 0.039148244571787921 0.028341410017433927 0.015719477161798504 0.04238660944857818 0.024675111947232622 0.026287572535850512 0.030768342861640898
leaf_weight=14.497925922274588 24.285405889153481 12.245577976107596 14.342915669083597 22.208609759807587 19.945211410522461 12.114897057414053 21.720227971673012 15.778678625822065 521.74963249266148 27.393546372652054 13.311602368950846 39.292244672775269 448.80196078121662 20.904591098427773 13.940294742584227 17.776706337928772 12.916066080331804 17.741407513618473 15.326451763510702 21.195265889167786 16.407272934913639 20.633251443505287 13.273050621151926 12.239241421222685 21.063437402248383 200.92101918160915 17.008328050374985 18.187492787837986 42.430393889546394 17.090359002351761 12.279914051294325 13.35874283313751 13.16498878598213 18.137300789356232 20.434661090373993 20.40278448164463 11.338927388191225 14.962892547249792 20.53043258190155 12.47022834420204 15.481682971119879 20.915833473205566 17.806451365351677 11.315438956022261 13.872528016567232 11.703056678175928 13.511735185980791 17.590011969208717 11.509572491049768 12.622375532984732 15.43562777340412 12.416770830750464 15.27246178686619 11.407854199409483 12.998713016510008 11.360303640365602 21.342168331146244 12.153867810964586 12.373488172888754 13.770255386829374 11.585142612457277 14.395223915576933 12.549576461315153 23.828125208616257 106.50474324822426 13.927877113223074 13.536820217967032 13.406187310814856 12.342012897133825 12.378782913088797 16.350924611091614 25.507387489080429 13.738262087106703 11.361562937498091 23.494681417942047 12.111242890357969 13.392222091555594 25.762219041585922
leaf_count=61 98 52 64 96 85 51 92 66 2398 120 58 175 1798 86 61 78 54 76 64 92 73 87 59 51 87 808 71 83 190 74 52 57 56 76 88 90 50 65 91 51 65 92 78 50 59 50 56 77 50 55 67 52 67 50 53 50 86 52 53 61 51 62 54 107 478 62 59 58 53 54 72 114 61 50 105 53 59 114
internal_value=0 0.0143049 0.00268219 -0.0136594 -0.047918 -0.0297532 -0.0444225 -0.0539767 0.0389761 0.00137314 -0.00756706 0.0138087 -0.0585777 -0.0160316 0.0227439 0.0153738 0.0029591 -0.0236137 -0.0518664 0.0195273 0.0153755 -0.00647053 0.0150851 -0.012436 -0.0258543 -0.0542472 -0.0344952 0.0209238 0.0237437 0.0175164 0.00127707 0.00311799 0.00908571 0.00350087 0.00344506 0.0262743 0.0300998 0.0160527 0.0230015 -0.0603367 -0.0262139 0.016123 0.00966923 0.00116089 0.0136886 0.0198456 -0.0387715 0.0209194 0.0218199 0.0137363 0.00203382 0.000479928 0.0274428 0.0151903 -0.0578817 0.0126541 -0.0460635 -0.0120265 0.00966484 0.0328383 0.0221318 0.0283413 0.0191483 0.0337701 0.034927 0.0235537 0.0324278 0.00244607 0.0231877 0.0289208 0.0366902 0.0337918 0.0223059 0.025056 0.037655 0.0340806 0.036802 0.0380011
internal_weight=0 1948.1 1325 730.377 576.754 460.49 312.695 530.299 623.104 147.796 120.402 269.887 477.051 43.1132 594.621 298.567 120.776 77.127 270.54 226.774 187.481 88.6043 101.355 53.2479 33.3027 255.213 41.2937 46.4557 177.79 121.968 59.1897 60.2065 46.9098 47.4431 42.1549 74.5246 296.054 29.3058 122.17 461.272 28.3977 76.1319 55.2161 37.4096 39.5733 89.1093 46.9688 43.2751 128.292 63.725 27.1387 30.1582 78.2773 27.8151 213.92 50.0143 34.8539 26.0942 25.6851 31.9577 36.5863 32.1719 33.7448 50.4621 173.885 25.2668 57.4343 24.9158 26.2145 23.9639 148.618 46.0378 25.0986 26.634 37.0315 25.3843 55.8226 132.267
internal_count=10873 8530 5691 3080 2343 1903 1274 2138 2839 629 509 1177 1915 182 2611 1297 515 321 1094 995 820 375 441 223 138 1030 169 205 782 533 254 256 202 205 180 328 1314 129 538 1849 119 333 241 163 169 389 193 188 566 277 117 128 347 123 861 219 142 113 111 144 160 140 146 224 776 112 254 108 112 105 664 205 111 117 164 112 249 592
is_linear=0
shrinkage=0.03


Tree=7
num_leaves=83
num_cat=0
split_feature=20 4 11 5 19 18 7 11 13 11 4 13 19 13 9 11 7 14 7 1 19 15 0 5 5 19 20 20 7 18 13 1 5 1 11 14 1 15 14 11 9 15 16 20 19 18 1 6 13 18 9 15 5 6 10 14 18 7 20 5 5 19 11 7 20 15 15 19 13 1 16 11 9 11 20 6 10 14 18 14 1 15
split_gain=1826.63 607.191 430.962 397.705 229.045 132.705 125.563 102.122 75.4152 65.2333 57.4834 55.1933 54.8228 43.4164 35.9726 28.4709 27.9392 27.4525 22.5264 23.5725 23.0603 19.0962 18.8953 18.7346 18.0455 17.6334 17.1091 17.0865 29.4367 16.3855 15.0603 14.8674 12.9747 12.6058 11.9247 11.0672 10.6615 10.435 17.1863 9.99813 9.45489 8.87662 7.66041 7.45665 7.38084 7.04825 6.4603 6.44733 6.39473 6.19024 5.41802 4.98271 4.16376 8.94277 4.10226 4.11727 3.94751 3.91745 7.72685 3.9098 3.86072 3.5165 3.42258 3.2873 3.19489 3.02452 2.85165 2.75141 2.73339 2.65123 2.45772 1.47711 1.46699 1.17092 1.13366 0.715228 1.10788 0.65616 0.833997 3.25808 0.156864 0.142471
threshold=10.364992141723635 -1.0000000180025095e-35 0.77591133117675792 -0.65088266134262074 -0.18478735536336896 2.8284181356430058 0.61611476540565502 -0.4532728493213653 -1.0621823072433469 0.93643417954444896 1.0000000180025095e-35 0.67748966813087474 1.6622238755226137 1.5147559046745303 -1.1084345579147337 1.3468319773674013 1.6505017280578616 -0.63564822077751149 0.94280272722244274 -0.69321870803832997 0.63917928934097301 0.36290560662746435 -0.80321767926216114 -0.52229684591293324 -0.55295732617378224 0.21080958843231204 8.68780565261841 14.424175739288332 0.95672842860221874 1.2024564743041994 -0.72977253794670094 -0.51049757003784169 -0.75223076343536366 -0.89329990744590748 -0.24175904691219327 1.0488068461418154 -0.61376550793647755 0.45111811161041265 1.0515024065971377 -1.0412750244140623 -0.37828300893306727 0.35354611277580267 -0.88388130068778981 15.737676143646242 0.36022742092609411 1.167745888233185 0.49293355643749243 -0.79360705614089955 -0.79261353611946095 1.2649081349372866 -0.70177283883094776 1.5913583040237429 -0.89124220609664906 1.0488068461418154 1.1099755764007571 2.1622688770294194 1.0488067269325259 0.79993960261344921 23.031609535217289 -1.1504971981048582 -1.0015615224838255 1.8977334499359133 1.0453745126724245 1.0520668029785158 9.5418453216552752 -0.25741323828697199 1.1341732144355776 1.4221750497817995 -1.2562230229377744 -0.59470677375793446 -0.75592723488807667 0.44961693882942205 -0.84836810827255238 1.846330523490906 20.272291183471683 1.0382344126701357 1.0033200383186343 1.0444638133049013 1.0033200383186343 1.025005638599396 -0.65619263052940358 1.3553203940391543
decision_type=2 2 2 2 2 2 2 2 2 2 2 2 2 2 2 2 2 2 2 2 2 2 2 2 2 2 2 2 2 2 2 2 2 2 2 2 2 2 2 2 2 2 2 2 2 2 2 2 2 2 2 2 2 2 2 2 2 2 2 2 2 2 2 2 2 2 2 2 2 2 2 2 2 2 2 2 2 2 2 2 2 2
left_child=4 2 3 8 26 6 11 29 32 23 -3 14 13 16 -5 18 17 -10 19 20 -4 45 -11 -9 31 -12 -1 28 -17 -6 43 -21 68 -8 -35 -23 60 38 56 -27 -34 -38 -26 -16 -20 -19 47 -41 -37 80 -45 61 53 72 77 57 -29 58 -56 -30 -14 62 -22 -15 -28 -25 67 -48 75 -18 -59 -70 -46 -58 -54 76 -2 78 -39 -80 -32 -52
right_child=1 10 15 5 7 -7 33 9 12 22 25 -13 36 63 30 27 69 21 44 24 51 35 -24 65 42 39 64 37 59 -31 49 -33 40 34 -36 48 41 54 -40 46 -42 -43 -44 50 52 -47 66 -49 -50 -51 81 -53 74 -55 55 -57 73 70 -60 -61 -62 -63 -64 -65 -66 -67 -68 -69 71 -71 -72 -73 -74 -75 -76 -77 -78 -79 79 -81 -82 -83
leaf_value=-0.0072450648566039725 0.036824056026464526 0.043218990961370961 -0.013405831472312441 -0.0068912182644657238 0.017159363116194506 0.039256506837529861 0.019170034464321875 -0.023419475653304545 0.0097030754161369255 -0.031169966005039091 -0.011807106964261467 0.015713261865207245 0.03959122382353146 0.013861585825168344 -0.018820557813933745 -0.014337020809758528 0.020151632144421304 -0.051539929313565165 0.0014565227743561361 -0.01950257220371223 0.00062419789147822777 0.0088368576268470465 0.013449353572179757 -0.038731795966969122 -0.040968868788125778 0.040807897238103796 0.038626978474822132 0.014700096191127068 0.041652338896421316 -0.025877843408131557 -0.042924974642683619 0.021770026041294882 0.026910052418062404 0.013803827284853271 -0.022583803801208169 -0.035163973939879148 -0.009444036807700373 0.037687143975511088 -0.0037537122806639892 -0.0058245149792865627 -0.008998849141165206 0.023024534040574422 -0.0086636783853463132 -0.025099640090442882 0.036707394483514524 -0.022413548761695729 0.0086845774240659184 0.021682330204193842 -0.0080758233338946075 -0.038592521289259447 -0.053938393720964456 0.042360822544297218 0.023834119262096474 0.0060907414583159496 -0.0033516184169649437 0.041390933603516575 0.023303570326219054 0.038826831544060872 0.025325781891392399 0.017658814705702144 0.018834466394491257 0.033212176507453332 0.022579697916444066 0.037545225525446167 0.016395590976911633 -0.059479346121545477 0.037408193451770627 0.0285556402073113 0.018911069055343746 0.00093164129095363421 0.017625118551655473 0.033509220277351072 0.020020488677266749 0.038218317656639328 0.040622382748216453 0.043034479629659984 0.020991459142442048 0.038689227881065907 0.01247373442011801 0.032081308191365336 -0.05962208044530503 -0.037204210512792324
leaf_weight=15.681892886757849 19.660573542118076 504.44024609029293 16.488803848624229 17.36959433555603 19.700444594025615 20.030545115470886 22.891300991177559 15.589329302310942 18.378837615251541 22.003298997879028 14.284355357289312 11.876725614070891 23.744037926197052 12.196066662669184 15.725368946790693 22.996375903487206 13.251484036445619 31.762532934546471 11.799813225865362 11.681784033775331 11.555165454745294 11.668767064809797 12.859762147068976 13.855515599250792 14.331254824995996 21.926257625222206 18.408834338188175 17.164533481001854 14.075509816408159 11.938665002584456 12.87273922562599 19.79692967236042 12.094775661826136 12.024380475282667 20.911360114812851 19.352949962019917 13.826972022652628 30.311466977000237 20.796839952468872 16.730225116014484 12.551089778542517 14.718710541725157 12.790530875325201 14.051979914307593 19.423609912395477 12.772686168551443 14.43947270512581 12.676044985651968 13.982402577996256 23.911431297659874 28.219996452331543 13.445594325661657 11.47350353002548 22.388698562979698 13.206656739115713 13.183638244867323 14.573002263903616 14.997462749481203 21.505649790167809 14.610872760415075 16.754408687353134 11.807799950242041 13.459346771240233 11.729980826377867 11.699717655777929 443.91068664193153 12.106278672814367 12.163720041513441 21.415729478001595 11.999173834919928 11.271698474884031 14.695373475551603 12.40533620119095 24.074528023600578 21.235694289207458 31.280753389000893 11.728106886148451 80.150495186448097 11.374379515647886 43.323018088936806 158.49617992341518 12.287446632981299
leaf_count=66 89 2358 71 72 84 89 99 64 79 90 61 50 107 53 64 98 58 129 51 50 50 50 54 56 60 98 85 77 64 50 52 86 53 52 87 81 59 137 91 72 54 64 54 58 88 53 63 55 59 97 114 60 50 98 58 60 65 67 95 63 73 52 59 52 52 1776 54 54 94 51 50 65 55 109 95 143 52 363 51 197 635 50
internal_value=0 0.0142849 0.00278616 -0.0127913 -0.0461947 -0.0343992 -0.0387065 -0.0516534 0.0101538 -0.0549027 0.0390203 -0.0464946 -0.000166735 -0.0099548 -0.049152 0.0217371 -0.0166557 -0.0232649 0.0132162 0.004709 0.0167832 -0.0300644 -0.0147954 -0.0578193 -0.00909654 0.0185009 0.0178896 0.0268811 0.0106214 0.000624456 -0.0518799 0.00632483 0.0289123 0.00251538 -0.00928389 -0.0157537 0.021928 0.0294991 0.0194103 0.0233859 0.00898534 0.00751005 -0.0265837 -0.0387601 0.0238626 -0.0438622 0.0172685 0.00635588 -0.0243681 -0.0563805 -0.044065 0.0267541 0.026853 0.0210174 0.0326344 0.025901 0.0279559 0.0219385 0.0146268 0.0304382 0.0316648 0.020086 0.0128515 0.0265132 0.0307929 -0.0589372 0.0251896 0.0184755 0.0337442 0.0114017 0.0307094 0.0255946 0.0310116 0.033324 0.0356153 0.0379644 0.0317391 0.0354839 0.0320471 0.0283011 -0.0586241 -0.0498809
internal_weight=0 1920.7 1311.93 720.234 585.648 370.669 350.639 539.858 349.565 508.219 608.767 294.811 226.139 157.095 282.935 591.7 133.169 107.918 224.084 125.357 66.7567 89.5393 34.8631 473.356 58.6005 104.326 45.7904 367.616 51.6828 31.6391 265.565 31.4787 123.426 55.827 32.9357 45.0041 69.0441 315.933 76.6089 90.042 24.6459 28.5457 27.1218 70.2848 98.7267 44.5352 68.1157 29.4063 33.3354 195.28 54.5594 50.2679 86.9268 54.2176 239.324 74.1651 55.8121 60.9815 34.7123 28.6864 40.4984 36.8223 25.0145 23.926 30.1086 457.766 38.7095 26.6032 98.7805 25.2507 26.2692 36.1111 31.8289 38.6475 32.7092 62.6694 31.3887 165.159 85.0089 54.6974 171.369 40.5074
internal_count=10853 8476 5661 3037 2377 1519 1430 2174 1518 2040 2815 1192 968 665 1142 2624 560 451 979 542 292 372 144 1896 250 457 203 1645 225 134 1070 136 550 238 139 190 303 1420 342 396 107 123 114 286 437 182 298 127 140 784 222 221 386 241 1078 330 251 270 153 127 180 161 109 105 137 1832 171 117 443 109 117 159 143 174 145 284 141 748 385 248 687 164
is_linear=0
shrinkage=0.03


Tree=8
num_leaves=91
num_cat=0
split_feature=1 7 7 1 4 19 19 9 6 19 9 9 7 13 11 19 6 12 4 9 4 13 17 1 3 5 17 1 5 1 1 2 5 6 3 1 17 11 19 10 19 4 1 9 6 19 3 10 6 7 1 11 19 19 14 16 13 13 14 16 6 11 14 17 12 13 13 13 7 3 2 16 17 14 17 5 1 12 14 19 12 19 13 7 11 11 16 11 13 5
split_gain=839.946 766.309 521.529 367.375 207.392 161.116 147.707 110.641 107.659 78.6912 66.4919 66.4723 51.5823 46.6523 45.6187 46.287 46.3165 42.8473 39.4108 62.1507 38.7878 36.0271 34.7632 34.2875 22.6039 20.2989 19.8751 19.0992 24.2709 19.0499 16.7213 15.782 15.5939 14.9351 13.9035 13.6974 20.4061 12.8613 12.3677 11.914 10.4809 8.4039 8.12072 18.4622 12.2287 7.9565 7.69707 7.36882 7.10037 7.40254 6.79024 6.75689 6.6757 8.14624 5.4784 5.03994 5.01121 9.49701 4.88343 4.5955 4.07354 3.77421 3.29356 3.27302 6.17947 10.8612 5.72601 9.60569 3.09057 3.01569 4.28978 4.73873 3.00174 2.87259 2.56239 2.5166 2.32378 2.3153 2.31476 2.14411 2.06658 1.72346 1.67766 1.51814 1.44103 1.63904 1.38798 1.07276 0.153426 0.083879
threshold=-0.45687161386013025 -0.43816219270229334 0.61611476540565502 0.3397155106067658 -1.0000000180025095e-35 -0.84093782305717457 0.012852884363383056 -0.79118239879608143 -1.0000000180025095e-35 0.068440001457929625 -1.0435982942581175 0.22446418553590777 1.0326730608940127 -1.3581515550613401 1.3468319773674013 2.239844918251038 -0.75091087818145741 -0.63421717286109913 -0.50917372107505787 -0.739854335784912 -1.0000000180025095e-35 -0.91854184865951527 0.16447991132736209 0.78253686428070079 1.7077823281288149 -0.57937312126159657 0.25616736710071569 0.84103989601135265 -0.62667763233184803 0.071827694773674025 0.2806719988584519 -0.25609850883483881 -0.69673439860343922 1.0860692858695986 -0.48163320124149317 -0.58759239315986622 -0.93823269009590138 1.6697081327438357 0.99369612336158764 1.0515024065971377 -0.21643456071615216 1.0000000180025095e-35 -0.69321870803832997 -1.4521790742874143 1.0877941250801089 1.2704431414604189 0.69016441702842724 1.113122880458832 1.0809413194656374 1.5649523735046389 -0.018710898235440251 -0.30312229692935938 -1.0000000180025095e-35 0.90860947966575634 1.0350960493087771 -0.81649503111839283 -0.82650804519653309 -0.96433496475219715 1.1495319008827212 -0.96150764822959889 -0.23210348188877103 0.33369836211204534 1.0762470960617068 -1.2044128179550169 -0.96394696831703175 -1.1875616908073423 -0.84515908360481251 -1.0752840638160703 -0.035856183618307107 1.2102112770080569 1.0488068461418154 -0.96150764822959889 -0.90304765105247486 1.4142106175422671 -0.80717766284942616 -0.70089885592460621 1.1776977181434634 -0.87286975979804982 -0.65827903151512135 0.780989170074463 -0.95346072316169728 0.95929139852523815 -1.0336830615997312 -0.4813558012247085 -0.7226121425628661 0.90126955509185802 -0.61756259202957142 0.079392410814762129 0.97297120094299328 -0.90642130374908436
decision_type=2 2 2 2 2 2 2 2 2 2 2 2 2 2 2 2 2 2 2 2 2 2 2 2 2 2 2 2 2 2 2 2 2 2 2 2 2 2 2 2 2 2 2 2 2 2 2 2 2 2 2 2 2 2 2 2 2 2 2 2 2 2 2 2 2 2 2 2 2 2 2 2 2 2 2 2 2 2 2 2 2 2 2 2 2 2 2 2 2 2
left_child=4 8 3 5 6 68 17 21 9 29 42 22 13 59 15 16 81 39 19 32 23 -7 25 -5 26 -9 34 28 45 -2 31 50 54 -34 -18 38 -37 55 48 -1 -27 -6 47 80 -45 -21 75 63 74 -50 -11 -42 -22 -54 -4 -23 57 -16 -49 -12 -17 -48 84 -8 65 -65 67 -66 -3 70 71 -40 -58 -53 -14 -36 -64 -73 -28 -77 -44 -15 -56 -19 88 -86 -74 -26 -32 -71
right_child=1 2 18 20 41 7 10 11 -10 30 12 -13 35 14 56 60 24 83 -20 27 52 37 -24 -25 87 40 78 -29 -30 -31 62 -33 33 -35 46 36 -38 -39 69 -41 51 -43 43 44 -46 -47 61 58 49 -51 -52 73 53 -55 82 -57 72 -59 -60 -61 -62 -63 76 64 66 -67 -68 -69 -70 89 -72 77 86 -75 -76 79 -78 -79 -80 -81 -82 -83 -84 -85 85 -87 -88 -89 -90 -91
leaf_value=0.017821946938782446 -0.052291792910989572 0.014942048991324315 0.015431443803198299 -0.045200973039195208 0.042766803500538533 0.038928061304387279 0.037730362337865635 -0.023161521292163104 0.042092217753432089 -0.024327494476733671 0.017087258731038866 0.011343578360849645 0.031077627813055782 0.013764040734739771 0.022830051278217692 0.008174785999592607 -0.0063509965687807398 -0.054265078861040476 0.038924931510283346 -0.022220744407985139 0.041889972300196164 -0.040385047881048346 -0.0049754667949887055 0.019413984010037633 0.01295842205730399 -0.033242768528785056 -0.0085695931358868542 0.014129174136525586 -0.05272202188090274 -0.0058517596532593856 0.039014841121515667 0.02881145409448466 -0.019997434923089117 0.022244888962475902 -0.051521180978882461 -0.025995516327116434 0.027141491279240391 0.0056078907976392913 0.014872342364090942 -0.017252002221865285 -0.033009527921915527 0.016936700223882488 0.023685468324494818 -0.010421686440103857 0.021319476322168122 0.010467130909849683 -0.032882286935821681 0.02587079657862407 -0.012566850445231786 0.016113786761500812 0.0039197210602353195 -0.057332971805821961 0.00082011888119568499 0.03508527605415495 0.042345879576001798 -0.014172738581622688 0.011656055536902186 -0.011450412024002658 -0.00039623803977261845 0.042710047247138491 0.030897916562710723 -0.013924726122407572 0.0068123326550488415 0.032620811528427801 0.035283786453040207 -0.0027560201267113169 0.040003818181883942 -0.00022321264116647251 0.038370135385191968 0.042346759306384811 0.013411170294723114 0.0413626217173741 0.022551652868300735 -0.036114318965082493 0.011746703131442663 -0.041556082086879907 0.023623169078161501 0.025307419829029187 0.0089681188847939002 -0.023026102668224073 0.040668935220282594 0.031792629671997134 0.02593335178258183 -0.035004044018153269 0.012846577203051809 0.030397600005477629 0.039091558553335376 0.00037010084153198586 0.025821463502444131 0.029335650190596474
leaf_weight=13.549087479710577 19.130087152123451 10.95703646540642 16.381126210093498 12.300501048564913 258.15907526016235 11.036612555384634 76.439438953995705 19.957425475120544 156.31464260816574 14.033536300063133 11.445465341210364 14.202171817421911 14.865182906389238 11.693754598498346 15.781493395566942 11.717208176851271 19.653787240386009 26.818986058235168 47.466635227203369 13.363401487469671 33.391843855381012 17.344242677092552 13.206167191267012 15.742070853710173 11.589415952563288 23.371423169970512 13.554672479629518 12.823847562074659 17.55254910886288 13.599901035428045 18.708830714225773 12.694255560636519 11.98377960920334 17.01063759624958 21.427871510386467 12.479841366410257 11.569750189781187 12.453408673405646 17.437334805727005 20.795322507619858 15.620997443795202 13.701348364353178 18.785466268658638 22.307031989097595 19.632871508598328 11.725925102829931 20.227983310818672 13.28580988943577 15.139561429619791 15.27492870390415 15.129367247223854 560.37191542983055 11.301634684205057 13.091261133551596 28.066638991236687 12.802954226732256 13.362045481801031 12.007735282182692 11.442659765481947 22.056870311498642 21.516800031065941 21.697688192129135 13.859014064073561 15.530405938625337 16.139901950955394 14.533737540245054 43.659361183643341 11.409048333764074 13.354577451944349 18.449746206402779 22.422313436865807 25.450805068016052 18.777365133166313 12.236549153923987 13.235934510827063 19.889502763748169 18.147714912891388 23.007841899991035 11.671214893460272 14.798756361007689 19.993778392672539 12.135284766554831 15.733595281839369 14.340112820267676 11.880013749003412 11.528910025954245 11.728052839636804 11.923748925328253 11.408964991569517 14.391534596681593
leaf_count=59 77 50 73 50 1221 50 349 84 740 59 52 63 67 50 71 51 83 108 217 56 158 71 58 67 50 98 58 55 71 57 83 55 52 75 89 53 50 55 79 88 65 60 84 98 86 51 85 59 65 67 65 2248 50 60 127 54 59 52 50 101 95 92 61 71 73 64 197 50 63 84 99 117 83 50 58 81 80 102 50 61 92 53 69 58 52 51 53 51 50 64
internal_value=0 -0.0162449 -0.0289489 -0.0393322 0.0186392 -0.0461687 0.0116159 -0.0487638 0.0244614 0.00709527 0.0153393 -0.0521324 0.0090636 0.00169502 -0.00215646 -0.00883661 -0.0145531 -0.0282769 0.015493 0.0075889 0.019222 -0.00718286 -0.0535459 -0.00950898 -0.0201619 -0.0545521 -0.0246226 -0.0171568 -0.0266737 -0.0337407 0.0177682 0.00214773 0.0229998 0.00470095 -0.0297622 0.0208845 -0.000369414 -0.0197477 0.0237157 -0.00330236 -0.0555369 0.0415318 0.0270652 0.018593 0.00458742 -0.00712788 -0.0343437 0.0303353 0.0120927 0.00189172 -0.0100291 -0.0563648 0.0330895 0.0198672 0.031595 -0.0300656 0.0185138 0.00813424 0.0141732 0.0347054 0.0233593 -0.0236242 0.0252991 0.0324924 0.0282086 0.0159806 0.0330784 0.0210863 0.0288188 0.0291842 0.0256384 0.0295363 0.0247613 -0.0569433 0.0226891 -0.0417987 0.016771 0.0344055 -0.00042289 -0.0345175 0.033244 0.023856 0.0371608 -0.0485439 0.0299975 0.0223817 0.0299495 0.00685028 0.0350074 0.0376804
internal_weight=0 1331.29 1014.85 822.743 1162.9 736.915 891.045 712.604 316.435 160.121 815.541 658.967 532.381 328.657 295.154 223.498 190.264 75.5035 192.108 144.642 85.8273 53.6372 644.764 28.0426 166.435 631.558 142.921 55.4657 42.6419 32.73 127.391 41.8572 89.1758 28.9944 117.696 203.725 24.0496 42.6006 179.675 34.3444 611.601 271.86 283.16 80.7191 41.9399 25.0893 98.0418 202.44 58.5156 30.4145 29.1629 588.229 57.7847 24.3929 60.1814 30.1472 71.6567 27.7892 24.7285 33.5023 33.234 41.9257 85.5334 177.712 101.272 30.0641 71.2083 27.549 24.3116 121.16 88.3183 65.896 43.8675 572.608 28.1011 56.1161 32.0067 48.4586 25.2259 34.6883 38.7792 23.829 43.8002 41.1591 53.5267 23.4089 30.5054 23.5132 30.1178 32.8413
internal_count=10862 5670 4240 3394 5192 3009 3911 2896 1430 690 3598 2666 2325 1420 1267 949 803 313 846 629 385 230 2603 117 700 2545 599 233 178 134 556 179 396 127 491 905 103 180 802 147 2461 1281 1273 360 184 107 408 913 257 132 124 2363 268 110 269 125 318 123 109 153 146 177 377 804 455 135 320 123 113 545 397 298 195 2298 125 231 141 219 108 142 176 103 196 166 236 103 136 101 133 148
is_linear=0
shrinkage=0.03


Tree=9
num_leaves=74
num_cat=0
split_feature=20 4 11 5 19 7 16 19 11 13 2 8 9 3 19 7 9 20 5 9 17 20 11 20 11 11 15 2 9 20 17 3 0 16 19 20 7 17 9 4 5 13 5 9 8 3 2 0 19 5 13 17 3 2 19 14 13 15 13 19 9 11 13 9 9 19 7 2 15 15 11 15 6
split_gain=1684.51 549.97 398.6 333.142 186.515 133.776 98.4489 78.6541 78.2586 73.3363 58.0642 55.1831 56.085 49.0695 46.8378 40.251 36.0827 26.7646 26.613 25.9891 22.2337 48.4628 29.2656 21.0263 19.8031 19.4636 18.1036 17.0501 16.7053 17.6953 24.9121 16.7412 15.763 15.2525 14.8168 14.7142 11.6252 9.1377 15.0165 8.69261 8.41964 7.69715 10.5924 9.04627 7.27323 7.20639 6.97191 6.57642 5.79143 5.27429 5.10449 4.72207 4.71552 4.55174 4.10996 3.75879 3.69972 3.62006 3.35903 2.84042 2.76353 2.51096 2.25342 5.00041 2.11772 2.93416 2.04131 1.51986 1.49022 0.828262 2.74556 0.753045 0.437602
threshold=10.364992141723635 -1.0000000180025095e-35 0.81107529997825634 -0.65691551566123951 -0.18478735536336896 1.0326730608940127 -0.16553179919719693 0.93245655298233043 -0.4532728493213653 -1.0957018136978147 -0.60260677337646473 -0.32828655838966364 -0.68637931346893299 0.8803563416004182 -0.24053491652011869 1.3670313358306887 -0.739854335784912 14.05134963989258 -0.93775823712348927 -0.45471224188804621 -1.1238197088241575 14.245427608489992 1.772206783294678 20.463960647583011 0.95855611562728893 -0.25717468559741968 0.74580836296081554 -1.0000000180025095e-35 -0.57759967446327198 20.336014747619632 -0.66431134939193714 0.69016441702842724 -0.86602380871772755 -0.67493051290512074 1.5680953264236452 20.336014747619632 1.3389877080917361 -0.80717766284942616 -0.38522036373615259 -0.76039719581603993 0.9403207302093507 -0.70289558172225941 -0.39316208660602564 -0.94997152686119068 -0.80250021815299977 -0.66398113965988148 -0.60260677337646473 -0.86602380871772755 0.58595016598701488 -0.50592830777168263 -0.29148793220520014 -0.95461145043373097 0.25558660924434667 1.0614129900932314 0.89542677998542797 1.0924152731895449 -1.0000000180025095e-35 1.1995359659194949 -1.2272782325744627 1.5522700548171999 -0.89338684082031239 3.095250248908997 -0.71515941619873036 -0.76699286699295033 -0.98711976408958424 2.1500353813171391 -0.85500565171241749 -0.63095903396606434 0.6070324480533601 0.87252986431121837 2.2797229290008549 -0.25741323828697199 -0.28907658159732813
decision_type=2 2 2 2 2 2 2 2 2 2 2 2 2 2 2 2 2 2 2 2 2 2 2 2 2 2 2 2 2 2 2 2 2 2 2 2 2 2 2 2 2 2 2 2 2 2 2 2 2 2 2 2 2 2 2 2 2 2 2 2 2 2 2 2 2 2 2 2 2 2 2 2 2
left_child=4 2 3 9 6 7 -1 13 27 37 33 12 23 46 -11 24 18 34 44 26 50 -22 28 -9 49 35 36 -6 29 30 -23 41 -26 40 -4 -20 51 58 -39 54 45 42 43 -31 64 -3 -5 -14 -30 -10 55 -18 53 61 -21 -19 62 -7 -2 -57 68 67 63 -48 -16 -66 -42 -24 -33 70 -54 -51 -12
right_child=1 10 17 5 8 57 -8 11 15 14 72 -13 47 -15 16 -17 19 20 25 39 21 22 52 -25 32 -27 -28 -29 48 31 -32 60 -34 -35 -36 -37 -38 38 -40 -41 66 -43 -44 -45 -46 -47 56 -49 -50 71 -52 -53 69 -55 -56 59 -58 -59 -60 -61 -62 -63 -64 -65 65 -67 -68 -69 -70 -71 -72 -73 -74
leaf_value=-0.059331762633542978 0.038093169915912072 0.025806054730528973 -0.021103554758262734 -0.025424970420082325 -0.024897713945669905 0.014459136555891915 0.040962696341413439 -0.022441107223225776 -0.031986696474541401 -0.041958814042403814 0.028220957865482781 0.032846311984023685 -0.052896917372432788 0.0021689530880764619 0.039633754160559344 0.0014623721924180134 -0.055219529506976638 0.037414323970252898 -0.0099856181078841703 0.0048393866796528984 -0.036853945254902973 -0.02779006511309844 0.029866176735854393 0.025943692714919142 -0.048064505279753658 -0.023434895791862261 0.0035965926878987467 0.016894808853884051 0.012262161101606332 0.013688002349319632 0.01582039669977418 0.020006945450985029 -0.0019744163808127456 -0.0089542437429441894 0.015868951779570678 0.030163144091990206 -0.0086131959076628777 0.029874717344535777 -0.011419376264178955 -0.0068385447133302952 0.037878666608321079 -0.013348745752110041 0.031456296194745298 -0.01614230236535542 0.0082889569147047825 0.00014427771318021359 -0.024829650618516177 -0.028853245620703093 0.036226185826792316 -0.039872336219161524 0.013342115303877852 -0.027054399593485986 0.018307636712408808 0.006178501579782867 0.028528453961657013 0.011438098564302489 -0.031246967559318641 0.034841377158694557 0.018907218623551533 0.031677962522711274 0.013751217865735106 0.040410832032042453 -0.055484404559967164 -0.050301388182664504 0.013482646479083704 0.035712892485349888 0.021653035455100549 0.014182635598326488 0.036557266242374084 0.038551817306707863 0.035632740185512601 -0.056398003639359026 0.04217401759794269
leaf_weight=10.999375030398367 63.769217953085899 16.552198633551598 18.594552382826805 12.464090481400488 17.221766740083694 22.504394173622131 32.426923543214798 12.576319828629495 12.974709764122961 20.80204576253891 10.295531079173086 17.141213238239288 30.636353269219398 17.113818749785423 27.301653280854222 12.058759465813635 14.264816254377363 113.92932738363743 13.391498580574988 11.745935663580896 12.38041879236698 23.024018853902817 11.95612448453903 19.089909136295319 13.605305239558222 19.690531253814697 18.204909399151802 16.014505997300148 14.219623088836668 21.974883049726479 22.231410339474678 11.399964734911917 12.469006195664404 17.104165300726891 18.448807597160339 18.764195665717125 13.925549015402792 21.55373540520668 11.550690427422522 19.625656843185425 22.359774217009544 14.459666803479193 14.637247279286383 14.214884445071226 14.211427211761473 22.4666768014431 12.8294360935688 22.388756528496742 33.484781339764595 13.399373576045035 12.514944925904272 14.03621616959572 16.553935468196869 12.081782430410383 15.571702986955641 12.578227981925012 12.590155556797979 13.781886279582976 13.015359655022619 15.944599047303198 11.551437005400656 11.066746354103087 148.61197866499424 33.119914993643761 13.15515354275704 11.118057608604429 18.406097248196602 16.252052068710331 27.172968193888664 59.583625793457031 29.615030288696289 431.30386509001255 489.37775300443172
leaf_count=45 296 74 78 51 72 98 150 53 53 84 46 77 123 72 125 50 58 529 58 50 51 99 54 81 55 84 78 69 62 98 98 51 52 73 80 83 59 97 50 83 101 62 65 61 62 98 52 91 150 54 56 58 75 53 67 56 51 61 58 72 51 51 596 133 58 51 82 74 124 277 137 1731 2362
internal_value=0 0.0139959 0.00304649 -0.011617 -0.0446762 -0.0313145 0.0147956 -0.0371784 -0.0495766 0.00917051 0.0378191 -0.0149359 -0.0248773 -0.0466433 3.39662e-05 -0.0525586 0.0040847 0.0218318 0.0155014 -0.00845029 0.0235432 0.0195207 0.0215257 0.00662883 -0.0539055 -0.000613822 -0.0213115 -0.00485519 0.0140458 0.00930874 -0.00648786 0.0155055 -0.0269108 0.0163376 -0.00275692 0.013646 -0.0318847 0.0294233 0.0155542 0.00820549 0.0218033 0.00534647 0.01082 0.00185204 0.0280208 0.0114031 -0.0504396 -0.043467 0.0294815 -0.0553814 0.0331634 -0.0426508 0.0312946 0.0229213 0.0188733 0.0347996 -0.0518153 0.0229273 0.0351259 0.0234422 0.0283741 0.0277904 -0.0529798 -0.0438698 0.0331969 0.0246751 0.0312465 0.0216251 0.0322951 0.0351081 0.0299406 -0.0559906 0.0419435
internal_weight=0 1896.98 1300.42 730.547 572.474 374.848 43.4263 338.562 529.047 355.698 596.562 101.833 84.6913 236.729 245.809 495.811 225.007 569.871 117.633 107.375 532.828 377.861 365.48 31.6662 483.752 51.8462 60.4315 33.2363 208.371 160.666 45.2554 115.411 26.0743 96.8889 37.0434 32.1557 42.2266 109.889 33.1044 46.9433 79.7847 65.2867 50.827 36.1898 65.7863 39.0189 219.616 53.0251 47.7044 457.678 154.967 28.301 157.109 51.3567 27.3176 142.452 207.151 36.2863 76.7846 28.5228 50.1244 39.2749 194.561 45.9494 51.5749 24.2732 40.7659 28.2082 38.5729 105.753 46.169 444.703 499.673
internal_count=10829 8498 5662 3098 2331 1539 195 1380 2136 1559 2836 425 348 955 1058 1995 974 2564 521 453 2406 1693 1642 134 1945 225 253 141 921 709 197 512 107 428 158 141 175 501 147 200 355 286 224 159 296 172 883 214 212 1838 713 116 721 232 117 657 832 159 354 128 226 179 781 185 234 109 183 128 175 489 212 1785 2408
is_linear=0
shrinkage=0.03


Tree=10
num_leaves=87
num_cat=0
split_feature=20 0 11 1 19 19 1 0 11 5 11 12 1 19 9 20 3 17 20 11 20 20 20 17 3 1 3 17 8 3 18 9 2 12 20 9 13 2 17 18 17 5 5 2 11 9 19 19 17 1 17 11 19 17 1 3 13 9 3 11 13 1 14 20 2 17 11 13 5 5 20 2 14 11 5 1 1 17 9 3 14 5 18 1 1 1
split_gain=1576.07 519.462 391.315 299.913 201.084 123.51 85.9173 73.3293 70.0419 55.9147 46.1509 44.3484 43.3755 40.7743 38.9758 34.1793 27.8794 25.565 49.2525 37.7088 23.3521 19.1651 17.1354 23.7198 18.1948 21.3272 16.8335 16.6982 17.7171 21.8682 16.0754 15.2877 14.846 14.3926 13.7613 13.0248 12.6452 11.831 11.6886 11.6823 9.95861 8.4326 8.22824 8.14662 7.82356 7.11025 6.28523 5.96389 5.82475 5.77774 5.70511 5.49626 4.47626 4.21017 4.20368 3.68127 3.38113 10.0343 3.30971 3.19445 6.79168 3.03232 2.93354 2.77251 2.68212 2.87995 2.62438 2.62231 2.57604 2.45792 2.03503 2.03447 1.50539 1.31834 1.25453 1.2416 3.11965 0.887097 0.727704 1.41082 0.644217 0.471972 0.321685 0.290002 0.36741 0.109021
threshold=10.115549564361574 -1.0000000180025095e-35 0.65442362427711498 -0.61376550793647755 -0.20146038383245465 1.2384189963340761 0.7122803032398225 1.0000000180025095e-35 -0.4157357513904571 -0.75685167312622059 0.91705057024955761 -0.31497669219970698 0.42423367500305181 0.36022742092609411 -0.739854335784912 14.05134963989258 0.69016441702842724 -1.1238197088241575 14.245427608489992 1.772206783294678 14.05134963989258 7.1736445426940927 19.581436157226566 -0.53667098283767689 0.69016441702842724 -0.36372452974319452 0.8957292139530183 -1.0207015275955198 -0.32409662008285517 1.885802209377289 1.2024564743041994 -0.95615234971046437 1.0954428911209109 -0.80250021815299977 8.68780565261841 -0.87092232704162587 -0.29779563844203943 1.0033200383186343 -0.89013382792472828 1.1180317997932436 -0.91375273466110218 -0.81439626216888417 -0.49852009117603296 -0.61470857262611378 1.1557797789573672 -0.6939118206501006 0.88371440768241893 0.73268508911132824 -0.72674426436424244 -0.35347250103950495 -0.46918165683746332 0.20284480601549151 1.2033492326736452 -0.89013382792472828 0.96206367015838634 0.3433308899402619 -1.3155683875083921 -0.82782170176506031 -0.98244354128837574 0.95855611562728893 -1.0752840638160703 -0.95577546954154957 1.1093980669975283 9.5418453216552752 1.0641670823097231 -0.68651345372200001 -0.25717468559741968 0.071394290775060668 -0.76135438680648793 -0.77193310856819142 19.487177848815922 -0.46247482299804682 1.1308771967887881 1.9151070117950442 -1.2134595513343809 -0.65619263052940358 -0.43804903328418726 -0.86207306385040272 -0.95615234971046437 -0.83707207441329945 1.043823301792145 -0.8633386194705962 1.0488067269325259 -0.90248814225196827 -1.216504633426666 -0.86376336216926564
decision_type=2 2 2 2 2 2 2 2 2 2 2 2 2 2 2 2 2 2 2 2 2 2 2 2 2 2 2 2 2 2 2 2 2 2 2 2 2 2 2 2 2 2 2 2 2 2 2 2 2 2 2 2 2 2 2 2 2 2 2 2 2 2 2 2 2 2 2 2 2 2 2 2 2 2 2 2 2 2 2 2 2 2 2 2 2 2
left_child=4 2 3 9 34 6 16 -3 30 20 45 14 38 39 51 26 35 36 -19 22 -2 53 23 40 25 37 44 -15 29 31 -6 -29 49 56 -1 42 62 58 -9 -11 -20 -25 -5 -33 -4 -10 50 -45 -35 -16 -39 -7 -49 -12 66 64 81 74 -24 60 -26 -59 75 -36 65 -21 -14 -47 77 -48 -64 -60 85 -57 -58 83 -77 -37 -56 -80 -67 -22 -75 84 -17 -61
right_child=1 7 15 5 8 11 -8 12 10 13 21 -13 54 27 32 17 -18 18 19 55 33 -23 24 41 59 -27 -28 28 -30 -31 -32 43 -34 48 63 68 -38 46 -40 -41 -42 -43 -44 47 -46 67 69 52 -50 -51 -52 -53 -54 -55 78 73 57 61 71 72 -62 -63 70 -65 -66 80 -68 -69 -70 -71 -72 -73 -74 82 -76 76 -78 -79 79 -81 -82 -83 -84 -85 -86 -87
leaf_value=-0.0062050414603647529 -0.020913664480990822 0.041712294392156846 -0.035205370317091193 -0.010708874556322776 0.011259319377701988 0.0019997308660907247 0.019437463652645134 0.010360804239084516 -0.029606357071560695 -0.042348896750900679 -0.045633854803164883 0.039472761388117991 0.025223902907258105 0.032905030116349133 -0.020090405157714947 0.037424725480275589 -0.0016519152116582097 -0.031995622844372011 -0.0045722538914044651 0.013059390400318879 0.041274124929852538 0.010125257741895636 0.039204504827622146 0.0012944994364336689 0.031943046195472988 -0.022750527700434502 0.018010550919865143 0.014830837451689362 0.027457101513267031 0.024549570442437638 -0.029844388642740055 0.00058770355669904371 -0.0067938124449210642 -0.0097528076093154129 0.038205693956169261 -0.046077380585454693 0.0045884042428407743 -0.020319416229340206 -0.025771335831964188 -0.0066553579250138032 -0.037562277514018728 0.034170546748965566 -0.04277952610582849 -0.04504085733583077 -0.0029600005512753946 -0.054960601207698696 0.0037597356887154095 -0.0045629085043549763 0.016492483602504299 -0.048494061670180534 0.007499574982113023 0.028925335160376021 -0.029814354625740024 -0.018705473105393774 0.039874563350897195 0.021408507232770602 0.041311945858650168 0.018719778345331967 0.0083445875328851601 0.027979835257397324 0.00028521279181901164 -0.0023945282343723418 0.031447367203415844 0.017631546430731417 0.012665202715194728 0.025217746864714209 0.0073959562745125849 -0.034693300933616167 -0.053748590530175992 0.022822321069007789 0.012376167964507193 0.026071858959987343 0.021333150871393113 0.027862541500467523 0.027248471028800365 0.013668114627559092 0.035502366335488582 -0.028688213849583689 0.020387328938156968 0.033985724667138902 0.039061384845872994 0.027308713948706046 0.037970695351607277 0.041360953287677422 0.025965738803797593 0.039653363319770159
leaf_weight=13.706775799393652 10.010037034749983 472.95670506358147 14.055632740259172 13.619454681873323 19.587496697902679 12.608123213052751 18.344631671905518 11.722836539149283 14.519044563174246 24.910936191678047 12.810389339923857 17.135025456547737 15.40568293631077 15.483196735382078 12.227942347526549 22.044642865657806 11.728525221347807 16.570462316274643 19.96644851565361 10.940018758177755 26.99608039855957 13.103807181119917 12.342139005661009 13.500666424632074 12.021638706326486 15.925511091947554 15.143999129533766 12.422296226024626 16.497239381074905 15.809655264019964 13.723689705133436 11.546432524919501 21.503812432289124 11.635972663760187 15.940730363130571 17.106606364250187 14.728977665305136 12.127391278743746 21.978917792439461 12.734715834259985 13.41485585272312 13.818919286131857 16.675288066267967 12.138330847024923 12.670864611864088 437.80247893929482 11.321533337235449 11.928030744194986 18.501315385103226 21.089335501194 12.623996555805205 14.290468886494635 13.529528751969336 12.156553894281389 14.096640914678572 11.508278548717497 16.938670426607128 11.674716576933863 11.315561339259146 16.203181222081181 11.506498813629149 11.450623378157614 11.276417493820192 13.778247833251951 16.669549375772476 17.025804176926616 15.737270697951315 12.350232422351835 176.58991026878357 13.45664492249489 12.221303939819334 14.871187329292299 15.852305084466932 18.880559697747231 28.671494752168659 11.130692675709726 18.543584525585175 12.519437849521635 20.990937218070027 20.802476093173031 14.815312922000883 12.791480362415312 68.665976867079735 55.660850211977959 18.576815217733383 21.347765401005748
leaf_count=58 43 2324 58 57 84 55 79 51 59 101 52 77 68 68 51 104 50 68 86 50 129 55 56 60 55 67 66 54 74 69 57 50 89 50 77 70 66 51 93 54 57 62 67 50 54 1764 50 50 80 86 56 64 57 50 64 53 79 52 50 74 50 50 51 63 74 78 70 50 710 59 55 66 71 88 130 51 86 51 94 93 69 60 323 263 87 98
internal_value=0 0.0132064 0.00246762 -0.0135975 -0.0433505 -0.0317368 -0.0423235 0.0363858 -0.0483762 0.00885349 -0.051163 -0.00304952 0.015349 -0.00426173 -0.012335 0.0195168 -0.0469472 0.021402 0.0173752 0.0194945 0.0217632 -0.018774 0.0119556 -0.00181808 0.0165615 0.00825136 -0.00652529 0.00505616 0.00016434 -0.00593093 -0.00605104 -0.0140255 -0.0266896 0.0249718 0.0183799 -0.049177 0.0314549 0.0140506 -0.0132667 -0.0307592 -0.0185368 0.0185434 -0.0291646 -0.0214702 -0.0205762 -0.0537707 0.00418949 -0.0280843 0.00637143 -0.0389587 -0.0063906 0.0168286 -0.0186025 -0.0337476 0.0264547 0.0308392 0.0300318 0.0251958 0.0263006 0.0275439 0.0171035 0.00859903 0.0340545 0.0295516 0.0240205 0.0280547 0.0167254 -0.0544827 -0.051962 0.0145961 0.0224384 0.0190004 0.0317448 0.0346507 0.0332456 0.0360277 0.028025 -0.0399057 0.0314867 0.0277919 0.0326523 0.0375639 0.03613 0.0381808 0.0329341 0.0354727
internal_weight=0 1877.55 1283.86 661.109 579.479 365.439 266.584 593.691 536.054 295.671 502.743 98.8547 120.735 147 81.7197 622.746 248.239 580.875 416.692 400.122 148.67 38.0708 241.616 60.7009 180.915 103.984 41.8705 109.355 93.8715 77.3743 33.3112 61.5646 54.8211 138.66 43.4258 236.511 164.183 88.0585 33.7018 37.6457 33.3813 27.3196 30.2947 49.1423 26.7265 464.672 49.5296 37.5959 30.1373 33.3173 24.7514 26.8986 25.4576 24.9669 87.033 158.506 108.523 68.7355 38.5289 76.9314 23.5281 23.1253 149.454 29.719 59.4507 42.7811 31.143 450.153 206.216 24.7782 23.4977 26.1867 53.4033 99.0548 45.6102 125.957 29.6743 29.626 55.8901 41.7934 31.8411 39.7876 87.5465 96.2823 40.6215 37.5509
internal_count=10844 8475 5618 2806 2369 1506 1084 2857 2171 1300 2030 422 533 627 345 2812 1005 2634 1871 1803 673 157 1068 265 803 455 178 472 404 330 141 261 226 630 198 955 763 388 144 155 143 122 124 207 112 1873 216 157 130 137 107 119 107 102 389 735 500 311 172 348 105 102 697 140 271 197 138 1814 831 109 106 116 243 464 209 591 137 121 251 187 147 189 411 454 191 172
is_linear=0
shrinkage=0.03


Tree=11
num_leaves=82
num_cat=0
split_feature=20 4 7 15 19 19 5 4 9 5 18 13 8 5 9 9 20 13 6 7 5 10 5 12 5 20 17 16 20 19 15 9 15 9 15 9 4 13 2 13 5 2 9 9 15 9 8 14 15 19 8 16 10 2 18 19 5 7 20 17 5 7 7 17 8 17 5 7 6 16 20 14 10 12 9 16 15 19 7 9 9
split_gain=1459.82 528.921 350.097 264.334 176.008 120.801 88.8417 56.1099 53.9955 62.4867 60.5284 52.3331 52.0901 41.9676 35.7287 35.5518 34.5775 28.0529 26.5109 25.1993 20.8184 17.3568 16.7902 18.6458 16.3997 15.0251 19.3844 14.8157 14.0835 13.7268 13.3344 13.1111 10.0568 9.26116 14.408 9.25173 14.6913 11.4809 10.1832 8.98108 8.32879 11.0105 7.9324 7.7403 7.55128 7.47682 11.6034 6.79059 7.77431 6.58049 6.5457 6.3236 6.25426 5.63882 5.3939 4.92434 4.63731 4.60734 3.99295 5.60302 3.71776 3.52817 3.47022 3.30072 3.21552 3.08298 2.96324 2.78067 2.55542 2.72494 2.5457 2.47115 2.20137 1.39999 1.13216 0.779799 1.59037 0.857057 0.740926 0.566055 0.119475
