tree
version=v4
num_class=1
num_tree_per_iteration=1
label_index=0
max_feature_idx=20
objective=binary sigmoid:1
feature_names=Column_0 Column_1 Column_2 Column_3 Column_4 Column_5 Column_6 Column_7 Column_8 Column_9 Column_10 Column_11 Column_12 Column_13 Column_14 Column_15 Column_16 Column_17 Column_18 Column_19 Column_20
feature_infos=[-1.1435412168502808:6.8556075096130371] [-2.9302265644073486:5.4797635078430176] [-1.0954428911209106:6.7822833061218262] [-2.987781286239624:5.7599825859069824] [-1.1435412168502808:7.6810860633850098] [-3.0327608585357666:7.4298439025878906] [-1.0954428911209106:6.5489182472229004] [-3.3079450130462646:8.2551631927490234] [-1.1435412168502808:6.7822833061218262] [-3.3079450130462646:6.3479404449462891] [-1.0488067865371704:7.8101882934570312] [-2.5315766334533691:6.9062719345092773] [-1.1435412168502808:6.8556075096130371] [-3.6351120471954346:5.6516880989074707] [-1.0444637537002563:11.78968620300293] [-2.7099747657775879:6.4407272338867188] [-1.1435412168502808:7.1413760185241699] [-3.7268402576446533:7.4593319892883301] [-0.99999797344207764:15.264103889465332] [-2.6101796627044678:7.4900412559509277] [0.42607989907264709:63.372547149658203]
tree_sizes=8752 8793 8680 8560 8579 8671 8360 8446 9339 8369 8912 8795 8998 9108 8913 9739 8887 8830 8662 9433 9319 9000 9087 8673 9142 9110 9109 8902 9229 8585 9220 9437 9639 8905 9142 9655 9338 9234 9236 9245 9356 9665 9252 9245 9772 9556 9884 9757 9758 9436 9229 9648 9987 9544 9763 9886 9670 9347 10071 9458 10069 10192 9980 9665 9778 10130 10123 10407 10633 9795 9786 9398 10948 10127 10528 9699 10543 10223 10226 10125 10450 10133 10238 10249 10984 10757 10241 10551 10209 10762 10122 10537 10349 10032 10567 10330 10655 11298 11083 10842 10876 10768 10439 10402 10660 10341 11164 11548 10643 11503 11093 10036 11989 11383 10560 11608 11203 11434 10673 11531 11416 10653 10907 13996 11132 13166 11546 12081 11659 12103 11297 12967 12436 11319 14552 14050 13285 13259 11543 13372 13846 10909 12183 12424 13851 12303 14599 13629 14495 12319 13068 13058 12454 13844 11856 12860 12972 14186 12762 14257 14366 15052 12622 13101 12976 14680 13726 11852 14399 13740 11111 12109 13319 11907 15504 12956 13307 15500 11808 14718 11884 12767 12810 12479 13965 14866 12776 13233 15371 15492 13102 13430 13348 12886 15612 13658 14733 13630 14656 15067 15166 14921 13527 15062 15396 13566 12910 12763 14341 12981 14321 15306 12667 15842 13574 15220 16050 15319 16161 15538 12421 13579 13574 15530 12813 14366 14435 14351 13005 14825 14756 13878 14638 14436 13436 15200 13778 15192 15322 13677 15305 15655 16069 13011 14972 14232 12685 13415 15570 15488 13702 13685 13897 17270 14123 15868 15978 12082 13589 13653 16479 13479 11800 12414 16082 14212 13269 14127 15220 15787 14831 12419 15008 15127 12457 15374 15697 13604 15025 13936 14489 15712 16145 13604 13058 16323 14362 12542 16721 14848 15925 14284 15688 14578 14905 14943

Tree=0
num_leaves=84
num_cat=0
split_feature=20 4 11 5 19 7 11 19 16 13 11 12 9 4 9 15 20 7 20 11 19 5 10 7 9 15 19 6 5 17 4 11 2 20 6 16 13 5 15 4 19 19 16 7 9 14 20 5 6 15 9 13 6 15 19 13 20 11 19 0 19 11 13 9 10 13 7 11 19 13 15 5 14 19 15 5 2 5 6 9 13 6 7
split_gain=2891.9 781.182 577.792 615.2 374.685 251.932 150.964 118.047 113.67 100.504 88.8813 86.8377 81.0702 80.2915 78.9414 37.4646 35.5721 32.9424 63.2653 42.1512 33.12 31.0745 31.0893 29.0087 36.1314 23.1966 19.3747 18.341 18.1324 18.0876 16.3008 15.2899 18.7568 14.406 13.6182 13.4097 12.9974 12.7416 12.1983 10.9027 10.0102 9.69767 9.48079 9.05275 8.99195 8.97465 8.82508 8.44674 8.02782 7.63618 6.61924 6.58811 6.23345 6.05243 6.0084 5.99316 4.96423 4.46908 3.75049 3.61959 3.42166 6.54753 3.22023 5.50871 2.96252 2.95089 3.03979 2.25676 4.64323 2.09848 2.0601 1.6371 1.40181 1.32127 1.21277 1.05454 0.982916 0.820177 0.739577 0.547588 0.369072 0.26146 0.0961277
threshold=10.115549564361574 -1.0000000180025095e-35 0.90998005867004406 -0.65316012501716603 -0.18933521956205365 0.69494578242301952 -0.58098700642585743 0.92565125226974498 -1.0000000180025095e-35 -1.0530379414558408 0.76333919167518627 -0.35085321962833399 -0.69024997949600209 1.0000000180025095e-35 -0.73470786213874806 1.2308140993118288 7.1736445426940927 0.944391429424286 14.245427608489992 1.5275093317031863 0.69968214631080639 -0.93168389797210682 1.0140533447265627 2.1436598300933842 -0.45370829105377192 0.7475528120994569 1.030481815338135 -1.0000000180025095e-35 0.23913682252168658 -1.1795644164085386 -0.78474801778793324 -0.042972670868039124 -0.72658914327621449 20.354435920715336 -0.68718281388282765 -0.80380776524543751 -0.70804879069328297 -0.7525930106639861 1.6575760841369631 -0.93557912111282338 0.95087403059005748 1.9102806448936465 -0.72744834423065174 0.63834100961685192 -0.86539486050605763 1.0230014324188235 23.101475715637211 -0.37505501508712763 -0.62216946482658375 1.093451261520386 -0.41599752008914942 -0.82151725888252247 1.0781798958778384 0.36783254146575933 0.62898579239845287 -0.87650871276855458 23.101475715637211 0.98701399564743053 0.74280694127082836 -0.9150867462158202 0.66561627388000499 2.7697389125823979 -1.2665594816207884 -0.68417721986770619 1.037746846675873 -1.0124387145042417 2.2881038188934331 2.3696161508560185 0.96412187814712536 -0.76989635825157154 1.0143318772315981 -0.72878992557525624 1.0230014324188235 1.2829686403274538 -0.25260646641254419 0.76107618212699901 1.032793462276459 -1.0491044521331785 1.0230014324188235 -0.77851045131683339 -0.67513135075569142 1.0444638133049013 0.24946127086877826
decision_type=2 2 2 2 2 2 2 2 2 2 2 2 2 2 2 2 2 2 2 2 2 2 2 2 2 2 2 2 2 2 2 2 2 2 2 2 2 2 2 2 2 2 2 2 2 2 2 2 2 2 2 2 2 2 2 2 2 2 2 2 2 2 2 2 2 2 2 2 2 2 2 2 2 2 2 2 2 2 2 2 2 2 2
left_child=4 2 3 9 8 7 27 25 -1 37 43 12 46 -3 21 23 59 18 20 29 -4 35 33 24 53 36 -26 -6 -15 71 80 70 -33 -23 -31 44 64 62 41 -27 -34 45 54 74 77 -36 -9 58 -44 52 -39 -41 60 72 -30 -17 -54 -19 -47 -12 61 -21 -2 73 -5 78 67 68 69 -67 -7 -20 -16 -64 -8 -56 -62 -11 -59 -51 -14 -70 -38
right_child=1 13 17 5 6 31 10 11 -10 14 16 -13 30 28 15 55 -18 57 19 49 -22 22 -24 -25 26 39 -28 -29 42 34 -32 32 40 -35 38 -37 82 50 -40 51 -42 -43 48 -45 -46 47 -48 -49 -50 79 -52 -53 56 -55 75 -57 -58 65 -60 -61 76 -63 63 -65 -66 66 -68 -69 81 -71 -72 -73 -74 -75 -76 -77 -78 -79 -80 -81 -82 -83 -84
leaf_value=0.42168699980772162 0.52225842898753605 0.52824658591545826 0.42506863250487237 0.423490337652557 0.45711625483309537 0.49898961229772854 0.42592177980079249 0.46841221292717766 0.52560648849680813 0.52612478421783981 0.4167214039036149 0.51601685852718537 0.42871450932043165 0.47037449614908555 0.43805227603433222 0.48112402542616384 0.48704389743476173 0.49716940536363274 0.5018248669466191 0.48887888543181768 0.48543973332835327 0.47340242576610853 0.45011915541354225 0.49609955612617873 0.45156531910087833 0.41465948591264218 0.49621885308017977 0.50615237763964138 0.4938831603465168 0.50892910486848963 0.45139130472133698 0.50974639431789703 0.4474545389211565 0.51038267816439831 0.48961956904770276 0.48237552866410432 0.40518303502634018 0.50756479116101039 0.49997715892047384 0.43597756497591117 0.48381315416547449 0.49609955625659641 0.47572490697687736 0.43499675802365712 0.49497362329274336 0.43808452319805563 0.50236867948977648 0.47908748917441751 0.50592150584065987 0.52270852849924632 0.4774489548732449 0.46598294470046886 0.48024958742703738 0.45131405054224333 0.50538318129136883 0.51070212894115097 0.50462053261983897 0.50981652324833315 0.46385206062694812 0.44572062168118498 0.50951718588205597 0.51829675364970151 0.50412495983870342 0.49166011488415789 0.44807948734341946 0.48907535543560737 0.52270926406885987 0.51898792847078523 0.51693683357469189 0.50520583737276059 0.51912044058252127 0.52104118672165034 0.41497873746738645 0.52128249647262559 0.40235627451714062 0.52074101489482794 0.52409571776372366 0.51115004516400941 0.52346357462701165 0.51037620667432348 0.40454646822497797 0.50631242216096539 0.42333587402959205
leaf_weight=11.806812122464178 68.715639486908913 556.10103084146976 12.515252873301504 20.307715654373169 12.279084593057634 11.806811988353731 12.042948350310324 12.279081895947458 35.892708092927933 31.406142413616177 12.042947828769682 17.23794312775135 11.806811988353724 15.821131229400633 13.459762781858446 12.042948290705683 15.348857074975966 13.932052850723265 12.042948365211489 15.348847791552545 20.307716831564903 15.112721294164656 19.127035617828369 12.515220329165457 17.946356132626534 11.806811437010763 15.348855748772619 13.223629385232924 15.112719118595122 16.765673011541367 14.404309734702109 12.75135664641857 11.806812867522241 23.141352221369743 11.806818068027495 13.695916563272474 126.3328519910574 12.75135685503483 19.599307879805565 13.459765776991842 14.168174430727957 12.515220552682875 15.821127712726595 12.987493261694906 16.52952253818512 11.806812196969984 13.459768354892729 13.932038545608522 14.404304504394529 68.95178160071373 12.279109492897986 14.640447154641153 11.806802630424501 13.223629429936407 12.751361966133116 11.806812122464178 19.835449442267418 14.404303178191183 11.806811705231665 12.987492039799692 18.890889808535576 12.515220165252684 12.042948514223097 12.515223443508146 12.279084622859953 17.710218131542209 27.864073753356934 22.905213370919228 23.849762633442879 13.932032674551008 13.695902019739149 13.459765687584875 18.182490155100822 22.196806654334068 407.80709040164948 32.114523410797119 23.377497583627701 15.585005074739458 73.438374653458595 16.529536172747612 24.794307634234432 20.07157301902771 17.710218489170074
leaf_count=50 291 2355 53 86 52 50 51 52 152 133 51 73 50 67 57 51 65 59 51 65 86 64 81 53 76 50 65 56 64 71 61 54 50 98 50 58 535 54 83 57 60 53 67 55 70 50 57 59 61 292 52 62 50 56 54 50 84 61 50 55 80 53 51 53 52 75 118 97 101 59 58 57 77 94 1727 136 99 66 311 70 105 85 75
internal_value=0.479985 0.497061 0.483848 0.46679 0.419239 0.439398 0.411566 0.428239 0.499215 0.493174 0.407743 0.456656 0.443031 0.52368 0.481698 0.463468 0.451251 0.506629 0.500654 0.504835 0.461477 0.497217 0.480442 0.454718 0.447972 0.416069 0.472023 0.48257 0.499504 0.491121 0.421473 0.493311 0.481262 0.495978 0.48513 0.509518 0.411235 0.513365 0.479941 0.438624 0.466693 0.473377 0.504662 0.403759 0.515242 0.467409 0.486342 0.460356 0.490485 0.51379 0.493261 0.450592 0.507644 0.430686 0.511518 0.496414 0.495814 0.515505 0.449789 0.429874 0.512684 0.502962 0.517572 0.509942 0.43153 0.516612 0.512854 0.509663 0.506364 0.496733 0.510869 0.513133 0.423208 0.516104 0.402902 0.517025 0.518413 0.521911 0.521587 0.520703 0.410772 0.512776 0.407009
internal_weight=0 1998.42 1336.3 764.373 546.419 374.748 498.72 310.519 47.6995 389.625 473.217 93.9822 76.7443 662.126 249.124 114.526 40.3793 571.922 343.814 310.991 32.823 134.598 57.3811 90.6763 78.1611 216.537 33.2952 25.5027 106.025 123.735 51.0054 64.2291 38.7263 38.2541 98.2327 77.2166 176.63 140.501 81.467 39.907 25.975 61.8677 90.204 432.838 63.5207 49.3525 25.7389 37.5457 30.2254 187.256 25.0305 28.1002 101.775 44.8659 59.9786 23.8498 31.6423 228.108 23.6136 25.0304 70.1325 27.8641 115.471 46.755 32.5868 214.176 126.333 98.4688 75.5636 31.6423 25.5027 25.5027 31.6423 34.2398 419.85 44.8659 42.2684 46.9911 87.8427 85.4813 36.6011 43.9213 144.043
internal_count=10777 8463 5659 3237 2314 1587 2112 1315 202 1650 2004 398 325 2804 1055 485 171 2422 1456 1317 139 570 243 384 331 917 141 108 449 524 216 272 164 162 416 327 748 595 345 169 110 262 382 1833 269 209 109 159 128 793 106 119 431 190 254 101 134 966 100 106 297 118 489 198 138 907 535 417 320 134 108 108 134 145 1778 190 179 199 372 362 155 186 610
is_linear=0
shrinkage=1


Tree=1
num_leaves=82
num_cat=0
split_feature=20 0 3 11 11 7 15 15 0 8 5 0 11 3 0 5 4 20 5 1 5 1 16 5 5 1 11 17 17 15 14 1 5 2 20 13 11 17 17 13 11 1 16 17 17 13 9 3 11 9 2 0 5 16 2 5 4 5 7 13 3 14 3 14 20 11 1 17 15 2 11 9 15 20 7 9 14 17 20 5 6
split_gain=2683.23 764.122 652.547 441.362 295.505 260.378 141.763 107.138 93.573 71.1545 68.9876 58.5318 56.3041 59.1801 52.3355 48.333 47.0425 46.703 44.6286 40.3964 32.7878 23.1512 21.2331 19.7898 18.5116 18.1818 20.9398 24.1786 17.1227 16.5599 18.1232 16.477 16.1646 15.3944 14.6374 14.366 18.7685 14.308 13.7477 11.3931 10.8718 10.5148 13.2806 10.176 11.0682 10.097 10.4029 9.26582 9.11347 9.04375 8.96987 8.88623 8.82523 7.8214 7.80831 6.12722 4.98307 4.54783 4.45757 4.4368 4.22644 4.05947 3.75013 3.63236 3.56821 5.39093 3.54873 3.32026 2.99949 3.2109 2.60742 1.72086 1.66942 2.43513 1.42828 1.28977 1.77772 0.89635 0.462001 0.277849 0.176449
threshold=10.115549564361574 -1.0000000180025095e-35 0.41584900021553045 0.76333919167518627 -0.43851511180400843 0.65001416206359874 -0.29249314963817591 1.1318843364715578 1.0000000180025095e-35 -0.22941467165946958 -0.52308949828147877 -1.0000000180025095e-35 1.1544099450111391 0.97404164075851452 -1.0000000180025095e-35 -0.6708574891090392 -0.37629818916320795 14.424175739288332 -0.93660223484039296 0.423516795039177 -0.49962611496448511 -0.62397670745849598 -0.95346060395240773 -0.71926864981651295 0.26847049593925482 -0.66797673702239979 1.7628050446510317 -1.1159406900405882 -0.89759564399719227 1.5067806243896487 1.0140533447265627 -0.74480268359184254 -0.46574293076992029 -0.26569719612598414 20.410324096679691 -1.1084014773368833 -0.1498698145151138 -0.86347654461860646 -1.1570839285850523 -0.52390524744987477 0.3343606591224671 -0.65221241116523732 -0.866023689508438 -1.1570839285850523 -0.32765921950340265 -1.255407929420471 -0.85832038521766651 0.055970722809433944 -0.56833380460739125 -0.80780717730522145 -0.46247482299804682 -0.86727318167686451 -0.78218448162078846 -0.88948234915733326 1.1702094674110415 -0.72878992557525624 -0.8580128252506255 1.1675471067428591 1.8437028527259829 -0.28640034794807429 0.53506138920784008 1.1375907063484194 1.7699734568595888 1.0571863055229189 21.240520477294925 1.2946391105651858 -0.25759518146514887 -0.89759564399719227 0.44760584831237799 1.0488067269325259 2.0995503664016728 -0.81428250670433033 0.40010415017604833 24.965030670166019 0.87511003017425548 -1.0013301372528074 1.1037417054176333 -0.99393045902252186 20.687569618225101 -0.98130825161933888 1.1992731094360354
decision_type=2 2 2 2 2 2 2 2 2 2 2 2 2 2 2 2 2 2 2 2 2 2 2 2 2 2 2 2 2 2 2 2 2 2 2 2 2 2 2 2 2 2 2 2 2 2 2 2 2 2 2 2 2 2 2 2 2 2 2 2 2 2 2 2 2 2 2 2 2 2 2 2 2 2 2 2 2 2 2 2 2
left_child=4 2 3 5 11 7 14 9 -3 21 31 -1 13 15 -6 22 20 18 -5 28 -9 33 49 45 -12 64 27 -27 -10 30 58 -8 -11 -2 41 -24 -37 -17 -32 40 48 43 -43 -14 -45 -15 63 -20 -25 74 -40 -39 -23 -50 -38 -29 -57 59 -7 61 70 -21 -48 79 65 -19 -13 -42 -28 -70 -36 -67 73 -62 -4 -66 -77 -31 -34 -47 -54
right_child=1 8 12 17 6 29 10 16 19 32 24 66 34 23 -16 37 -18 25 47 57 -22 52 35 39 -26 26 68 55 -30 77 38 -33 78 -35 60 36 54 51 50 -41 67 42 -44 44 -46 46 62 -49 53 -51 -52 -53 80 -55 -56 56 -58 -59 -60 -61 72 -63 -64 -65 75 71 -68 -69 69 -71 -72 -73 -74 -75 -76 76 -78 -79 -80 -81 -82
leaf_value=-0.028909643156084831 -0.053581993619292091 0.047492436174346717 0.023547369735240666 0.02863254763796769 -0.043120686623728782 0.0055109798820960742 -0.047424151780757484 0.0055772907901256588 0.017589035994503434 0.0017907709973194789 -0.073591388042692163 0.045398641117153332 0.041411686594016665 0.043666105048848956 0.032030529286431263 0.0018175348450216542 0.035356583045513756 0.0054332882543156515 -0.018513512940423926 0.036874615073008203 -0.053047118623186375 -0.042238229057358953 0.028005304113807163 0.016982844437175522 -0.037482602078849514 0.028696043197754918 0.011289802728275622 0.002427913732216693 -0.023030269197101643 0.032762502727886646 0.012925254747907627 -0.0035358436014478745 -0.026499636078411205 -0.011229106575391192 0.014453657867378634 0.017836564786754706 -0.030125579082748218 -0.047341679328387898 -0.0025455830780818675 0.035487870239440097 0.033436105883850542 -0.014194252245094482 0.024334698329421971 0.0045864336200733147 0.037584173090391901 0.045646816873645725 0.0031986483086553948 -0.057528348901024144 0.0037412000860137799 0.0094354061764272308 -0.035662570817015793 -0.015996514280527226 -0.071740080273755294 -0.029612569674242781 -0.00015085583141946149 -0.035048934390469959 -0.0079650212755871929 0.040625183068695114 0.03067252247264474 0.012851960652729484 0.039829718711971093 0.014080919950253543 0.023501650959427786 0.022309342697381475 0.040715946226938034 0.019139671858780863 0.021206649332234088 0.011191700928918599 0.018520052406577156 0.039060556700189326 0.035351003100092572 0.037709003358686405 0.04300073922728577 0.019675598523282978 0.040892127208306893 0.017636885717555225 0.034637951991288031 0.018488357782524657 -0.042503428539128786 0.030240744039839951 -0.055251406980235632
leaf_weight=18.934385105967522 23.098099887371063 546.48197589814663 11.965365990996359 12.212991490960119 14.778691440820696 13.424415141344072 13.793533533811571 14.840951353311533 14.322055593132971 17.274950250983238 427.51360690593719 18.476455003023151 38.196590349078178 53.329468414187431 16.699990510940552 16.062233775854111 14.347238361835478 13.415050014853476 11.80044446885586 27.031400263309479 18.821152850985531 16.623603835701942 13.368164479732512 12.955913245677946 16.466517478227615 15.468548536300657 11.728225409984587 12.472787424921984 23.139307960867882 11.958895176649095 12.234394416213034 16.418545499444008 11.910072699189188 12.308398216962813 12.908233374357225 18.339837163686752 20.559774041175842 16.900842562317848 11.758648335933687 16.719969183206558 12.251262038946154 12.241175442934034 19.949338734149933 22.096896633505821 15.014593005180357 20.130339652299885 18.626391395926476 12.118937656283377 12.072461411356924 18.802360236644745 19.440159410238266 17.778478905558586 158.33643385767937 11.851835146546366 12.290263086557387 13.217238411307333 12.04967406392098 25.785673230886459 11.990527853369711 22.356519430875778 15.931742504239084 11.777749896049498 14.150232166051863 19.476674512028694 26.241341903805733 13.127430826425552 11.785548910498617 13.934079781174658 15.923899993300436 18.018149897456169 12.400300621986387 12.419799521565437 123.44669137895107 13.370923116803167 22.93692122399807 13.377166345715525 18.084713146090508 14.790568709373472 11.929364219307898 11.741127625107763 20.072743460536003
leaf_count=80 97 2342 51 52 62 57 58 63 61 73 1781 79 163 228 71 68 61 57 50 115 79 70 57 55 69 66 50 53 98 51 52 69 50 52 55 78 87 71 50 71 52 52 85 94 64 86 79 51 51 80 82 75 661 50 52 56 51 110 51 95 68 50 60 83 112 56 50 59 68 77 53 53 527 57 98 57 77 63 50 50 84
internal_value=0 0.0161051 0.00283487 -0.0186579 -0.0584441 -0.0371383 -0.0652617 -0.050098 0.0421446 -0.0573799 -0.0693462 0.0115356 0.0235259 0.0159905 -0.003493 0.00264685 -0.00857958 0.014476 -0.0165185 0.0184629 -0.0277855 -0.0638619 0.0131375 0.0263116 -0.0723394 0.020258 0.0110438 -0.00178842 -0.00744733 0.00625361 -0.00160955 -0.0244508 -0.0203951 -0.0395717 0.0336271 0.00146184 -0.00587373 -0.0215849 -0.0132867 0.0141658 0.00804723 0.0244507 0.00969696 0.0305475 0.0185726 0.0332084 0.0261438 -0.039796 -0.00249888 0.0268894 -0.0236477 -0.0321712 -0.0680473 -0.0133071 -0.0192468 -0.0147014 -0.0229277 0.0295836 0.0180937 0.0243502 0.0389996 0.0304847 0.0124001 0.0345123 0.0294735 0.0213892 0.0369568 0.0224462 0.0257121 0.0302298 0.0256471 0.0292476 0.0410307 0.0315861 0.0357674 0.0344748 0.0281753 0.0258206 -0.0358967 0.041064 -0.0702032
internal_weight=0 1989.53 1318.64 646.837 554.867 415.161 505.671 319.563 670.895 271.554 474.192 49.1964 671.8 386.244 31.4787 169.004 48.0093 231.676 36.1324 124.413 33.6621 230.439 118.263 217.24 443.98 195.544 98.8785 53.2082 37.4614 95.5976 68.8481 30.2121 41.1144 35.4065 285.556 64.558 51.1899 50.7416 43.4332 79.7855 63.0656 107.499 32.1905 75.3081 37.1115 137.454 84.1248 23.9194 36.8802 53.7046 31.1988 34.6793 195.033 23.9243 32.85 37.7397 25.2669 86.9513 25.4149 61.1657 178.058 38.8092 32.7766 51.3481 96.6655 38.9623 30.262 26.1853 45.6703 33.942 25.3085 25.5472 152.749 29.3027 34.9023 57.7032 31.4619 26.7495 23.8394 31.8715 178.409
internal_count=10781 8462 5591 2732 2319 1746 2110 1340 2871 1137 1977 209 2859 1641 133 717 203 986 153 529 142 964 503 924 1850 833 421 226 159 406 292 127 173 149 1218 274 217 214 184 338 267 458 137 321 158 586 358 101 156 229 132 146 815 101 139 160 107 370 108 260 760 165 139 219 412 166 129 111 195 145 108 109 652 125 149 246 134 114 100 136 745
is_linear=0
shrinkage=0.03


Tree=2
num_leaves=81
num_cat=0
split_feature=0 9 5 18 19 19 5 18 15 11 9 5 18 2 0 11 19 5 13 6 19 5 11 18 13 5 19 14 13 5 19 19 11 15 14 19 11 5 19 14 15 7 12 15 6 10 6 18 6 13 13 18 5 9 15 16 4 8 19 16 19 11 9 10 5 9 4 7 7 7 14 13 6 13 19 9 9 0 5 6
split_gain=1129.02 1406.82 871.685 406.612 328.055 776.19 223.967 145.993 96.7806 66.5082 64.3281 70.8532 53.4952 43.6492 42.0336 41.2531 38.8279 41.6426 38.2275 29.1257 28.6814 23.2233 20.0866 19.1686 18.6761 16.9592 14.5418 13.6977 13.6878 12.8729 12.1634 11.8734 12.4304 12.704 10.7126 9.27375 14.9336 8.84954 10.8659 11.8251 8.71604 13.6948 12.6161 8.29484 7.49871 7.36758 7.00244 6.50637 6.00119 5.78444 5.71656 5.24128 4.12103 4.0421 3.92004 4.96358 18.8485 3.86959 3.68425 3.3769 3.36716 4.12697 3.31945 3.03208 2.57188 3.22892 2.34183 2.31173 2.24708 4.87977 2.19539 1.99264 4.83133 1.60677 1.46368 1.40612 1.25032 1.22226 0.356726 0.227593
threshold=-1.0000000180025095e-35 -0.69024997949600209 -0.5961213707923888 1.5842915177345278 -1.0000000180025095e-35 1.0000000180025095e-35 0.67767533659935009 1.0000000180025095e-35 1.1486831307411196 0.87052536010742199 -1.044983923435211 -0.99841117858886708 1.0000000180025095e-35 -0.36514718830585474 1.0048763155937197 1.0403986573219302 0.32609201967716223 -0.65316012501716603 -0.91963693499565113 -0.67310917377471913 2.2587535381317143 1.5824156403541567 1.3474256396293642 -0.14433653652667996 -0.37857936322689051 -0.88484045863151539 1.4204997420310976 1.3048455715179446 -1.3581515550613401 -0.75731599330902089 1.8239563107490542 1.0038943290710451 1.2561514973640444 0.77170065045356762 0.98265415430068981 1.2375513911247256 0.96902626752853405 -0.77077683806419361 0.90078768134117138 1.1530342698097231 1.6575760841369631 1.8799754381179812 -0.90748342871665943 0.7848191261291505 -0.23955004662275312 1.0566510558128359 -0.71651360392570485 1.2729204297065737 1.0566510558128359 -1.042138874530792 -0.60912322998046864 2.8284181356430058 0.40620929002761846 -0.75355651974678028 1.1486831307411196 -0.96394696831703175 -0.99669736623764027 -0.6809694468975066 0.77972358465194713 -0.84132158756256092 0.67756697535514843 1.7378200292587282 -0.37880767881870264 1.0488068461418154 -0.32409326732158655 -0.93320631980895985 -0.82861560583114613 0.142124779522419 0.96058893203735363 -0.91455435752868641 1.1144042015075686 -0.69718608260154713 1.0877941250801089 -0.4323104172945022 1.1062028408050539 -1.2722941040992735 -1.6871687769889829 -0.22360574454069135 -0.78218448162078846 -0.28867407143115992
decision_type=2 2 2 2 2 2 2 2 2 2 2 2 2 2 2 2 2 2 2 2 2 2 2 2 2 2 2 2 2 2 2 2 2 2 2 2 2 2 2 2 2 2 2 2 2 2 2 2 2 2 2 2 2 2 2 2 2 2 2 2 2 2 2 2 2 2 2 2 2 2 2 2 2 2 2 2 2 2 2 2
left_child=1 7 8 6 14 -6 19 44 9 18 16 30 -7 -5 -2 20 17 76 29 -4 21 24 -19 -20 26 45 34 54 -10 -3 40 32 33 -14 -13 36 48 50 39 -39 41 42 -12 -24 -1 -25 -8 77 -30 -33 -17 -15 57 63 55 56 74 -51 -26 -54 61 -57 -27 -32 65 -40 -56 -49 69 -11 75 72 -36 -43 -18 -62 -9 -21 -77 -37
right_child=4 2 3 13 5 12 46 10 28 68 11 15 31 51 -16 37 27 22 23 47 -22 -23 43 25 58 62 -28 -29 35 -31 53 49 -34 -35 71 79 -38 38 64 -41 -42 73 -44 -45 -46 -47 -48 67 -50 52 -52 -53 59 -55 66 60 -58 -59 -60 -61 70 -63 -64 -65 -66 -67 -68 -69 -70 -71 -72 -73 -74 -75 -76 78 -78 -79 -80 -81
leaf_value=-0.061771161492686084 0.046756738381236375 0.018307374899636984 -0.023010520836684166 -0.019472618136473163 -0.07072327851859421 0.046621307341195892 0.036046042366139987 0.019765945190353598 0.042183872460792013 0.025726207874965379 -0.020122187345664431 -0.014509193564774052 -0.018820148432074222 0.018248286943946587 -0.0046125388196445157 -0.0088806198075098396 0.022678638086280071 -0.039590094688653606 -0.063723065098906267 -0.070923751836082224 0.023222331676677633 0.020281535815140462 -0.012336188794301498 -0.021185211506809996 0.011113955730559642 -0.016508862099549628 -0.0054377110161307144 0.0013230974456300416 0.0094316809151305959 -0.018208222704625299 0.041096052734738923 0.039834142721777765 0.031100092929608067 0.016665636598415058 -0.047074913039800173 0.024452488529631305 0.035559807279452509 0.020738935212497134 0.032067857078819213 -0.016127525556451042 0.033840351038933104 0.033244394483624269 0.016000228468357698 0.020690406761160841 -0.027360145129262988 -0.051065001063813627 0.0047545543083204536 -0.059794125434676881 -0.017211779238928995 0.023489141706568212 0.016384991768268218 0.042734741651740474 0.03753825584309655 0.017040690442095639 0.038411149140136734 0.0075476509216645836 -0.010564646723139514 0.0011261801065803453 -0.0093173579674037874 0.015352344654384809 0.044186061925948365 0.032646549133135756 0.0042287111676826798 0.022141140270290537 0.038279748725692918 0.011285541514810584 0.021340990810691213 -0.034880956972222051 0.028930456453652068 0.0024177116914572217 0.022124503039908594 -0.053005991627754871 -0.019538321245655303 0.01598195465805069 0.040310220244095522 0.026141479657692895 0.035001875008327778 -0.052426671228687799 0.037388439960211718 0.035739687042960253
leaf_weight=17.3490623831749 471.23162961006165 21.793221712112427 13.654246941208838 18.975659042596817 85.819113582372665 129.44566680490971 13.107605054974558 12.403697550296782 38.217170506715775 16.115835085511211 16.413800373673439 18.705340042710304 18.867167621850967 14.397304013371466 14.6083607673645 20.391138106584549 14.019754379987718 14.910352930426596 14.437183216214178 511.93680740892887 18.826881751418114 13.620813906192778 13.639465108513834 15.46172223985195 13.92002220451832 13.370926514267923 21.000337228178978 12.883455693721769 16.45844063162804 13.079873800277708 49.464879781007767 20.507490158081055 12.62152750790119 15.740851640701292 13.815401777625082 16.382672101259232 12.828083664178846 17.312945201992992 13.532495334744455 12.736214533448218 19.813844248652458 14.899560332298281 16.407227650284767 11.886192962527273 12.148244395852087 19.135569915175438 12.478462249040602 15.978765249252321 12.507557913661001 11.954760342836382 11.933957770466803 26.167025536298752 15.81635130941868 13.1249992698431 126.49795795977116 11.977627620100977 12.633110985159872 15.288795456290243 15.987547785043715 13.346331208944319 31.400486186146736 12.32083050906658 12.81586419045925 13.76713754236698 16.796396031975746 15.733202233910559 12.146689444780348 11.974829182028769 17.503540337085724 15.752237811684607 14.760525256395338 16.340791612863544 13.284017056226729 11.88297365605831 14.166974216699598 21.956766784191128 24.221752360463142 17.312468901276588 18.188556760549549 17.772638157010078
leaf_count=72 2044 93 57 80 353 561 56 53 165 69 70 79 80 61 62 87 60 62 60 2108 80 58 58 65 59 56 89 55 70 55 213 88 54 67 58 70 55 74 58 54 85 64 70 51 51 80 53 66 53 51 51 112 68 56 544 51 54 65 68 57 135 53 54 59 72 67 52 50 75 67 63 68 56 51 61 94 104 72 78 76
internal_value=0 -0.0131288 -0.0383694 -0.0571078 0.029421 0.00675959 -0.0645616 0.0155248 0.00659706 -0.00849052 0.0179923 0.00971021 0.033156 0.017393 0.0452059 -8.00123e-05 0.0268727 0.00773593 -0.0214105 -0.0684515 -0.0104895 -0.0156426 -0.0131255 -0.0333174 -0.0201106 -0.0251811 -0.027348 0.031699 0.0275619 0.00448566 0.0255686 0.0188552 0.00681584 -0.0026653 -0.0345487 0.0197516 0.00990551 0.0138558 0.0193794 0.00509707 0.0169979 0.0109331 -0.00212543 0.0032431 -0.0489611 -0.0386818 0.0215379 -0.0695218 -0.00226345 0.0260657 0.00065885 0.034692 0.0204533 0.0341478 0.0330389 0.0291207 0.0193206 0.0114235 0.000243999 0.0282305 0.032532 0.0210617 -0.00657762 0.0373781 0.0283904 0.0216373 0.0370792 -0.0506951 0.0201729 0.014629 0.0354831 -0.042657 -0.0347523 0.0264363 0.032618 0.0378961 0.0305045 -0.0704187 0.032022 0.0311753
internal_weight=0 1748.84 929.616 655.983 825.248 339.408 596.443 819.223 273.633 159.466 789.726 409.712 253.589 59.54 485.84 253.938 380.014 77.0615 110.094 570.857 145.501 126.674 40.436 75.2213 113.053 60.7841 83.1459 302.953 114.167 34.8731 155.774 124.143 47.2295 34.608 62.1456 75.9494 41.7941 108.436 76.1113 30.0492 79.4174 59.6036 32.821 25.5257 29.4973 34.5973 25.5861 557.203 28.966 76.9137 32.3251 40.5643 56.4062 76.357 290.069 151.425 40.8198 27.2436 29.9076 29.1627 110.605 24.2985 26.1868 63.232 46.0621 29.2657 138.645 27.9536 49.3716 31.8681 86.3063 43.4402 27.0994 26.7825 28.1867 71.5458 36.6254 529.249 40.1453 34.1553
internal_count=10925 7375 3878 2715 3550 1444 2462 3497 1163 674 3374 1746 1091 253 2106 1078 1628 328 463 2353 615 535 171 315 477 255 350 1300 489 148 668 530 201 147 261 324 178 463 325 128 340 255 140 109 123 145 109 2296 123 329 138 173 241 328 1245 649 175 116 127 125 474 104 110 272 197 125 596 116 211 136 370 182 114 115 121 307 157 2180 172 146
is_linear=0
shrinkage=0.03


Tree=3
num_leaves=80
num_cat=0
split_feature=20 8 11 7 19 15 18 5 3 6 6 5 11 19 1 5 5 10 20 13 5 13 1 10 11 13 7 3 1 14 15 20 1 1 15 14 10 3 13 15 11 19 10 20 7 1 7 3 1 7 9 10 8 16 15 5 9 20 6 9 10 3 11 9 1 5 19 19 13 15 20 20 7 11 11 20 3 7 20
split_gain=2341.1 674.431 553.648 410.919 335.038 253.34 129.964 110.624 106.817 88.8244 64.3878 53.8945 46.1989 52.515 38.2545 35.5722 34.7987 37.3695 29.3514 38.4084 25.9799 20.9077 20.3395 18.5455 18.327 18.1753 18.1196 18.2026 18.0837 17.2508 15.8626 15.7526 14.2643 13.9245 13.5262 13.5216 13.2374 11.9495 9.31505 10.5776 10.3452 13.5295 9.2853 9.17045 10.9 11.8746 9.25155 7.82189 7.52149 6.9236 6.87319 6.08486 6.0968 13.3199 5.95964 5.72592 5.35404 13.1921 5.26402 5.17535 4.75592 4.6827 3.9397 3.73133 3.33139 3.09462 2.45553 1.98504 1.54918 1.51521 1.49093 1.30271 1.2335 0.889616 0.760073 0.70459 0.678269 0.497676 0.290165
threshold=10.115549564361574 -1.0000000180025095e-35 0.65994855761528026 0.63834100961685192 -0.18933521956205365 0.99828985333442699 3.3216301202774052 -0.5388391613960265 0.63895303010940563 -0.51887330412864674 -0.65465220808982838 0.6154867708683015 1.3913213014602663 0.91395953297615062 -0.62397670745849598 -0.6708574891090392 -0.67739894986152638 0.98265415430068981 14.424175739288332 -0.58807033300399769 0.6154867708683015 -1.0369959473609922 -0.63656988739967335 1.0488068461418154 0.3454184234142304 -1.0062285661697385 1.2094904184341433 0.62338122725486766 0.38897383213043218 1.0140533447265627 -0.27163332700729365 8.68780565261841 -0.66797673702239979 0.22680359333753589 0.35032422840595251 1.0444638133049013 0.98265415430068981 0.53506138920784008 -0.91535529494285572 1.093451261520386 3.0563621520996098 0.71062988042831432 1.0566510558128359 25.424019813537601 0.65001416206359874 -0.45453752577304835 0.15989191085100177 0.39445926249027258 -0.67695552110671986 1.3418594598770144 -0.66534671187400807 1.0382344126701357 -0.97687327861785878 -0.92581817507743824 1.9579770565032961 -0.80007657408714283 -0.75355651974678028 20.463960647583011 1.0725981593132021 0.69427973031997692 1.0488067269325259 0.62338122725486766 -0.24287897348403928 -0.69024997949600209 -0.90960094332694996 -0.8633386194705962 2.1308596134185795 0.35768313705921179 -0.35599301755428309 0.43647810816764837 9.5418453216552752 20.463960647583011 0.60918390750885021 -0.98251456022262562 1.7628050446510317 24.965030670166019 0.34360192716121679 0.34077671170234686 19.487177848815922
decision_type=2 2 2 2 2 2 2 2 2 2 2 2 2 2 2 2 2 2 2 2 2 2 2 2 2 2 2 2 2 2 2 2 2 2 2 2 2 2 2 2 2 2 2 2 2 2 2 2 2 2 2 2 2 2 2 2 2 2 2 2 2 2 2 2 2 2 2 2 2 2 2 2 2 2 2 2 2 2 2
left_child=4 2 3 5 31 6 8 21 10 20 -2 30 13 15 23 25 55 54 19 -14 28 -6 -17 51 49 65 27 63 -3 -10 -9 -1 35 48 -28 77 -23 38 75 40 41 -40 -27 44 46 -46 -34 -19 67 -25 -44 52 -5 -54 -18 61 57 -37 -43 -22 -24 -7 -32 -16 -55 -4 -50 -12 -21 74 -33 78 -41 -61 -39 -20 -36 -15 -71
right_child=1 9 12 14 7 16 -8 11 29 -11 33 -13 18 32 26 22 17 47 37 68 59 36 60 24 -26 42 34 -29 -30 -31 62 70 43 -35 76 56 -38 69 39 72 -42 58 50 -45 45 -47 -48 -49 66 -51 -52 -53 53 64 -56 -57 -58 -59 -60 73 -62 -63 -64 -65 -66 -67 -68 -69 -70 71 -72 -73 -74 -75 -76 -77 -78 -79 -80
leaf_value=-0.00091114953455190219 0.00081929958836662626 -0.026633743032888579 0.018568170085439473 0.040112175140186154 0.011996541195426799 0.015552315444121056 0.03769048951611751 -0.032940541792397228 0.019654547993254855 0.045258829933324342 -0.05260484326312579 -0.0048675247293348415 -0.02009659212464774 0.027293016090974329 -0.016318154809627429 0.0019544678987138803 0.00027316784779040623 -0.044643577523743309 0.040104170754069482 0.037308072540050453 0.010775757214876084 -0.0065840779711523224 -0.050897374335732014 -0.023139488122008615 0.028265321052751698 0.019455496116039171 -0.0075309473827868765 0.013124269047996413 0.014691677382844518 -0.020539552212849387 -0.043145098068517559 0.041218803031680754 0.0099973423527661819 -0.027621328455905342 0.018208781349435484 -0.013846750330009297 -0.044778681702171634 0.02144017521189116 -0.012111260340012734 0.035634235331040418 0.036728535287768697 0.027721802302685346 -0.025321168488475505 0.035367751754386827 -0.0025300478146899662 0.031203483577111581 -0.025255123579263856 -0.013539080192317358 -0.066210784358154251 0.0076705668898582229 0.0050682250263096107 0.045059302131774295 -0.0062810798588476486 0.037950531674073869 0.027141504586135873 0.0086852588459705986 0.0300227584918373 0.02457953391827004 0.002618754882781816 0.043294446616316345 -0.024187580070053109 0.039030519837947364 -0.068213525646556292 -0.041887948256361669 0.018981474028929093 0.041549302287937899 -0.044476064908483541 -0.030921428534284714 0.020416284753542513 0.035653248197465952 0.02327799414045853 0.042231318463608454 0.021224155327154156 0.025539303204386146 0.034380527388386005 0.027286916330120391 0.031663190593485782 0.040983833628796484 0.02319900245907092
leaf_weight=16.7699114382267 16.136737927794456 19.901070788502693 13.201662406325342 23.710824757814407 14.921905010938643 15.400402069091795 15.027169480919836 15.10953478515148 16.254968211054802 555.41488522291183 21.122392401099205 13.279906854033468 23.315503641963005 11.831570491194723 11.780018344521521 20.708453714847565 14.352151781320574 18.352276638150219 36.655947342514992 15.957287788391115 12.551459223031996 13.95945769548416 12.242968782782556 12.564237803220751 22.888791978359222 12.191882833838461 17.471607878804207 12.411772787570952 16.638646259903908 20.714798837900162 12.297809153795241 18.362114787101749 12.876067250967028 13.034226208925245 12.652146667242052 12.398667410016062 20.121680811047554 13.655733004212378 20.32199701666832 32.091889604926109 12.049017146229742 19.910934448242188 13.451159343123436 12.392315328121184 15.421619296073912 22.471777558326721 12.115593552589415 13.588074460625647 194.69448460638523 11.990398392081259 11.961681336164474 27.327959880232811 12.111861810088156 19.959687396883961 14.450364902615545 19.386412337422371 18.846637070178986 19.497135505080223 12.091760888695715 11.548115432262419 17.922724440693855 19.854058787226677 431.9992329031229 12.247989773750307 20.521711707115177 12.9401658475399 13.595569014549254 11.920677974820135 14.145563021302221 18.740144044160846 12.231232166290281 103.35903760790825 13.62020395696163 12.091762751340868 26.341562882065773 16.432887509465218 13.271833956241606 52.532595291733742 12.25370070338249
leaf_count=71 68 84 57 103 63 66 64 63 69 2442 87 56 99 51 50 88 61 76 159 69 54 59 51 53 98 52 74 53 71 87 51 80 55 54 54 53 84 59 87 139 52 86 57 53 66 97 51 57 796 51 51 119 52 86 62 83 81 84 52 50 75 86 1758 51 88 56 56 50 61 81 53 450 59 52 114 71 57 228 53
internal_value=0 0.0154832 0.00363393 -0.0158461 -0.0534577 -0.0328965 -0.0465096 -0.0603869 -0.0507336 0.0411809 -0.0572482 -0.0648326 0.0223498 0.0135303 0.0164897 -0.00250793 0.00522535 -0.0103319 0.0291785 0.00832809 0.00984813 -0.0170647 -0.0209989 0.0253179 0.00951623 0.0123455 -0.000322701 -0.0156907 -0.0079258 -0.0028147 -0.0665516 0.0225355 0.0231488 -0.0609207 0.0126448 0.0297857 -0.029768 0.032444 0.0262547 0.0209254 0.0127728 0.00667114 -0.00112869 0.0127429 0.0078006 0.0177628 -0.00740669 -0.0322238 -0.0625978 -0.00838305 -0.0113667 0.0323919 0.0273309 0.0209278 0.0142115 0.0223949 0.017667 0.00967546 0.0186037 0.0275238 -0.0363132 0.0294863 -0.0676181 -0.0305049 0.0290237 0.0310555 -0.0650114 -0.0459204 0.0302821 0.0380537 0.0350099 0.0400323 0.0318869 0.0356178 0.0305932 0.0367146 0.026017 0.0389232 0.0316084
internal_weight=0 1992.89 1364.74 668.796 569.053 437.885 322.501 521.69 307.474 628.146 270.504 472.686 695.948 305.005 230.911 114.621 115.384 60.7429 390.943 53.4184 72.7311 49.003 50.8741 151.075 47.4434 63.7466 79.8354 36.4398 36.5397 36.9698 459.407 47.3633 190.384 254.367 43.3956 115.107 34.0811 337.525 163.175 110.086 64.3737 52.3247 37.6047 75.2774 62.8851 37.8934 24.9917 31.9404 241.333 24.5546 25.4128 103.632 76.3041 52.5933 28.8025 54.6409 50.7424 31.8958 32.0027 36.1913 30.1657 35.2545 444.297 24.028 40.4814 26.1418 208.29 33.0431 30.1029 174.35 30.5933 134.353 45.7121 23.6399 39.9973 53.0888 25.924 64.3642 30.9938
internal_count=10899 8561 5808 2811 2338 1822 1331 2134 1267 2753 1111 1928 2997 1306 989 487 491 256 1691 229 311 206 214 650 202 273 339 154 155 156 1872 204 819 1043 185 497 143 1462 705 475 277 225 160 322 269 163 106 133 989 104 108 448 329 226 123 235 218 137 138 156 126 152 1809 101 174 113 852 137 130 757 133 584 198 102 173 230 111 279 134
is_linear=0
shrinkage=0.03


Tree=4
num_leaves=80
num_cat=0
split_feature=20 4 3 11 19 19 5 0 1 4 5 5 10 11 3 20 13 5 5 10 19 10 13 13 5 10 0 19 3 11 13 11 19 20 1 19 15 20 10 2 10 3 5 13 19 19 11 5 13 15 16 14 12 8 5 3 3 1 13 14 15 3 1 1 15 13 19 1 19 19 15 15 1 5 14 1 11 19 15
split_gain=2222.45 652.775 553.747 355.204 271.93 203.542 117.364 84.3056 83.8889 80.2156 61.986 58.3875 54.5162 46.2088 49.1033 42.1117 43.8063 41.8353 28.4629 24.4793 23.865 22.7708 26.6799 21.5166 21.1452 20.5091 18.9339 18.2863 17.7456 26.105 20.9638 16.3234 16.203 14.5167 14.3653 17.6283 13.5656 13.2366 11.3834 10.7908 10.5452 9.88301 9.54122 12.509 7.98583 7.73768 8.66321 7.97775 7.07863 11.5744 6.3347 5.76762 5.54368 5.22051 5.03728 5.3611 4.70975 4.70788 4.23539 4.14794 4.0288 3.68774 3.46182 2.8308 2.75554 2.73934 2.576 2.35467 2.27408 1.89484 1.83306 1.7638 1.64649 1.70671 1.39463 1.37479 1.32322 0.340143 0.195516
threshold=10.115549564361574 -1.0000000180025095e-35 0.41584900021553045 0.76333919167518627 -0.21949218213558194 0.88933449983596813 -0.48451115190982813 -0.2959629744291305 -0.60416874289512623 1.0000000180025095e-35 -0.76559934020042408 0.6154867708683015 -0.60697555541992176 1.1544099450111391 1.0528359413146975 14.424175739288332 -0.50731530785560597 -0.65889626741409291 -0.99267530441284169 1.1089798808097842 1.2829686403274538 1.0488068461418154 -0.97733002901077259 -0.93959930539131153 1.0937868952751162 1.0000000180025095e-35 -0.70610466599464405 0.47708898782730108 -0.6692688763141631 1.5275093317031863 -0.71963202953338612 0.2605386227369309 0.98940369486808788 20.354435920715336 -0.48709145188331598 0.20863409340381625 -0.27163332700729365 8.68780565261841 1.0382344126701357 1.1832136511802676 1.0033200383186343 0.63895303010940563 -1.1046850085258482 -0.84608253836631764 1.5732339024543764 0.87564688920974743 2.8535257577896123 -0.65889626741409291 -0.58218538761138905 1.093451261520386 -0.83383488655090321 -0.2182168439030647 -0.61550182104110707 -0.85484865307807911 -0.84264588356018055 1.7233977913856509 0.55848354101181041 0.49270045757293707 -0.97733002901077259 1.0488068461418154 1.3453013896942141 -0.57127192616462696 -0.73792919516563404 -1.0031489729881284 0.42314687371253973 -0.87088218331336964 0.67756697535514843 0.17533520609140399 -0.021572530269622799 -0.46928115189075464 0.6812579631805421 0.58950465917587291 -0.65688580274581898 -0.96709755063056935 -0.22941467165946958 -1.2581133842468259 0.36866065859794622 1.6116133332252505 0.94978687167167675
decision_type=2 2 2 2 2 2 2 2 2 2 2 2 2 2 2 2 2 2 2 2 2 2 2 2 2 2 2 2 2 2 2 2 2 2 2 2 2 2 2 2 2 2 2 2 2 2 2 2 2 2 2 2 2 2 2 2 2 2 2 2 2 2 2 2 2 2 2 2 2 2 2 2 2 2 2 2 2 2 2
left_child=4 2 3 5 37 12 25 8 26 -3 23 36 61 14 17 16 -5 21 -14 54 41 38 -23 -10 27 -6 63 -11 62 30 42 -21 -27 44 35 74 -8 -1 40 -24 53 -19 -30 -44 48 46 47 -31 49 -15 -12 -9 65 76 59 60 66 -26 -33 -16 -56 -2 78 -7 -58 -29 -35 -36 -38 -39 -37 -60 73 -46 -20 -57 -4 -47 -17
right_child=1 9 13 15 6 7 11 51 10 24 50 -13 18 33 19 28 -18 20 34 31 -22 22 39 -25 57 32 -28 52 29 45 -32 58 -34 56 67 70 68 69 -40 -41 -42 -43 43 -45 72 77 -48 -49 -50 -51 -52 -53 -54 -55 55 75 64 -59 71 -61 -62 -63 -64 -65 -66 -67 -68 -69 -70 -71 -72 -73 -74 -75 -76 -77 -78 -79 -80
leaf_value=-0.0015580782141281148 0.0060648140703247711 0.045023332322237666 0.036690154375812946 -0.041857421615703216 0.0070260925607551934 0.030590201444918239 -0.032564291759525278 0.013875356107084701 0.022861982234558969 -0.025222804047240272 -0.06344031058375979 -0.00058101508270394346 -0.010515335686171686 -0.0075727423084202706 0.042641807566172377 0.03116002145343803 0.022532407301100711 -0.046667328494790751 -0.062388847572324435 -0.013724426991134379 0.014690047449342309 0.021405507712953162 -0.036591508779252574 -0.023275597948782246 0.018562948767920306 -0.052860760420661207 -0.019369963487690763 0.029651783966304846 0.031377175047922604 0.022141756494557231 -0.028631856830217413 0.031055110038879379 -0.011305495916679228 0.013394122457621645 -0.062189829027870784 -0.028530251536549228 -0.044155975709916528 0.021432198336865983 0.040752813847781795 0.00056476026103225363 -0.0054262922980830592 -0.015180037006711495 -0.012623223450400874 0.024017197709251072 0.039733801427943187 0.026983519427180368 0.0335537368953885 -0.0099722795045811309 0.029285436648978324 0.026138869484452914 -0.036623605796827788 0.040755990231244869 0.0002916552401679466 0.0058039885296281212 0.0036148498879563181 0.022378669872717381 0.029095135951282665 0.03955991364042908 0.018594325993529167 0.02463932234776095 0.025114911808170638 -0.016640310374936965 0.019879036858600416 0.013747815146333714 0.041394324056941101 0.010073648114014545 0.032256600538023088 -0.041018733683846058 -0.065913474102514844 0.041379332492106333 -0.010727212841519387 0.0022633850366409378 0.018933992745037011 0.021735608327867941 -0.041030435545643319 0.038454423490861075 0.020292001013000924 0.039874889403276249 0.042959422635446741
leaf_weight=14.174938648939131 12.04142400622368 529.55371232330799 15.61469806730747 21.763563379645348 21.015140444040298 17.862856090068814 14.708455219864843 11.90639905631542 14.380592554807661 13.46134467422962 36.00470557808876 13.288810595870016 13.799066647887228 22.12430015206337 55.210217669606209 22.831285789608955 15.492207080125807 17.240125507116318 20.932371541857719 18.325196385383606 13.844101890921591 22.746662110090256 16.250326275825504 21.325491860508919 19.453492492437363 14.7687441855669 12.499312520027159 15.471939846873282 11.91912144422531 11.760626405477522 17.034371241927147 16.690106391906738 19.721994981169701 13.819354146718981 147.88404573500156 12.071999356150629 12.759627297520636 11.460823461413382 23.280943259596825 11.827734515070913 15.269671857357023 20.550322592258453 21.530325114727017 12.359502434730532 23.98122543096542 15.129562973976133 13.99863678216934 14.422689601778986 16.851846680045128 14.269835934042929 17.100315257906914 24.987489446997643 18.253448277711868 11.634101778268816 14.269743889570238 13.124676808714865 32.540145546197891 26.827625423669815 11.745490685105326 21.217934608459473 17.538241505622864 11.932871058583258 18.279527351260185 23.162205800414089 122.9485021084547 13.045641869306566 17.130805268883705 13.130169510841368 431.54844062030315 15.403847649693491 11.847815975546835 11.7592786103487 12.451000750064848 11.537499040365221 14.798895314335821 23.955603256821632 13.297158345580099 19.876828640699387 19.946665719151497
leaf_count=60 51 2363 68 91 89 77 61 51 62 57 146 56 58 95 243 99 67 71 85 77 59 98 68 89 84 61 53 67 52 51 72 72 82 60 600 50 52 50 102 50 66 86 92 53 105 66 61 62 73 62 71 108 78 50 61 57 142 117 50 92 76 50 79 99 541 56 75 54 1743 68 50 50 54 50 61 103 58 87 87
internal_value=0 0.0152227 0.00338643 -0.0158229 -0.0519945 -0.0318015 -0.0577736 -0.00717173 -0.0176564 0.0402447 -0.0353909 -0.0626196 -0.048789 0.0226183 0.0157591 0.0137759 -0.0151929 0.00437302 -0.0531785 0.0258298 -0.0182445 0.0134326 -0.00223178 -0.00457713 0.0162892 -0.0161601 0.0118794 0.00442206 0.0192457 0.0131276 -0.00116754 0.00924081 -0.0300873 0.0317215 -0.0557869 -0.0416701 -0.0644105 0.0219364 0.0234002 -0.0214585 0.0155724 -0.0303774 0.00943875 0.00104479 0.0221748 0.0249342 0.0153466 0.00473612 0.0137673 0.00599083 -0.0556416 0.0326762 0.0133036 0.0234209 0.0324015 0.0257057 0.0367584 0.0313135 0.0197899 0.0380267 0.0158737 -0.00545013 0.0326423 0.0216346 0.0390228 0.0213403 0.0245173 -0.0607272 -0.0653892 0.0339442 -0.0204965 0.0108498 0.0310353 0.0346428 -0.0549007 0.0335015 0.0300788 0.0352075 0.0375175
internal_weight=0 1983.13 1347.06 674.013 568.851 437.668 527.811 179.229 142.335 636.067 88.8111 472.305 258.439 673.047 385.392 236.345 37.2558 181.556 234.464 203.836 51.6345 129.921 50.8247 35.7061 106.513 55.5059 53.5244 60.2324 199.089 138.032 62.8433 58.5201 34.4907 287.655 220.665 59.6511 459.017 41.0396 79.0966 28.0781 55.8156 37.7904 45.8089 33.8898 101.216 75.1883 40.182 26.1833 53.246 36.3941 53.105 36.8939 46.771 40.546 145.316 68.8883 186.439 46.2811 40.1949 76.4282 31.808 23.9743 61.0575 41.0251 155.489 28.5176 30.9502 161.014 444.308 26.8647 23.9198 23.5048 47.9697 35.5187 35.7313 37.0803 28.9119 35.0064 42.778
internal_count=10892 8570 5748 2834 2322 1815 2144 756 597 2822 368 1912 1059 2914 1657 1019 158 776 958 881 216 560 216 151 459 232 229 258 861 596 269 249 143 1257 900 246 1856 178 344 118 242 157 197 145 439 327 174 113 230 157 217 159 201 176 632 297 818 201 172 335 137 101 265 176 683 123 135 654 1795 118 100 100 209 155 146 160 126 153 186
is_linear=0
shrinkage=0.03


Tree=5
num_leaves=81
num_cat=0
split_feature=20 0 3 19 19 11 11 20 7 0 9 9 3 20 19 20 11 8 20 11 18 12 7 19 7 2 17 18 20 14 7 5 11 10 20 14 20 9 20 17 11 10 11 10 14 8 19 14 0 14 2 6 10 5 10 8 14 19 20 5 19 14 9 8 19 5 3 9 19 3 7 20 6 6 3 11 3 9 9 20
split_gain=2056.07 644.722 542.058 327.177 280.853 187.203 107.083 93.5726 89.6196 79.9165 57.5522 56.6389 54.7025 45.6748 38.7329 32.7041 26.2566 23.8629 23.6375 22.897 21.357 17.6007 33.1358 16.2442 16.0614 15.7065 14.9197 24.8085 28.6664 18.5342 17.9175 14.3921 14.0755 12.9623 12.9155 12.6894 12.451 12.4433 12.2715 10.5814 10.3589 9.82174 9.3333 9.06115 8.25022 11.1001 7.07341 6.53741 16.0428 14.0698 8.99033 6.2707 5.24215 5.21146 7.48962 5.84291 4.57551 4.29778 4.18695 12.3144 4.09539 4.06642 2.99392 2.90773 1.76161 1.62007 1.56177 1.49733 1.35063 1.30506 1.01922 0.893675 3.13939 0.730422 0.671878 0.690952 0.096558 0.0289001 0.30122 0.00273987
threshold=10.115549564361574 -1.0000000180025095e-35 0.41584900021553045 0.91395953297615062 -0.18933521956205365 0.90998005867004406 -0.43851511180400843 14.05134963989258 0.77585679292678844 1.0000000180025095e-35 -1.044983923435211 -0.69668933749198902 1.0770772695541384 24.965030670166019 1.2375513911247256 13.732308864593508 0.96902626752853405 -0.94560715556144703 14.840034961700441 0.94799885153770458 1.2024564743041994 -1.0000000180025095e-35 -0.62513607740402211 1.4749181270599367 -0.72390735149383534 1.0571863055229189 -1.1492972970008848 2.962249875068665 20.354435920715336 -0.70710539817810047 0.96058893203735363 -0.71926864981651295 1.6850889921188357 -0.39641468226909632 13.426944732666017 1.037746846675873 8.68780565261841 -0.97649714350700367 15.384514331817629 -0.94887426495552052 0.65994855761528026 1.0877941250801089 0.76333919167518627 1.0525664091110232 1.0488067269325259 -0.97687327861785878 1.8657783865928652 1.0246931910514834 -0.96076688170433033 1.0488068461418154 1.1762136220932009 1.0274001955986025 1.067700266838074 1.3200116157531741 1.1602370142936709 1.084649980068207 1.1037417054176333 1.2159771323204043 20.354435920715336 -0.70953544974327076 0.66561627388000499 1.1649623513221743 -0.79520127177238453 -0.8744727075099944 -0.39941766858100886 -1.115214943885803 0.51013752818107616 -0.68090879917144764 1.9102806448936465 1.4098740816116335 0.87511003017425548 14.840034961700441 1.0781798958778384 -0.22629341483116147 -0.8259521722793578 1.2369838953018191 0.15049649029970172 -1.3100765943527219 -1.2412000894546507 7.1736445426940927
decision_type=2 2 2 2 2 2 2 2 2 2 2 2 2 2 2 2 2 2 2 2 2 2 2 2 2 2 2 2 2 2 2 2 2 2 2 2 2 2 2 2 2 2 2 2 2 2 2 2 2 2 2 2 2 2 2 2 2 2 2 2 2 2 2 2 2 2 2 2 2 2 2 2 2 2 2 2 2 2 2 2
left_child=4 2 3 5 36 8 20 15 24 -3 34 57 14 26 16 -5 33 -15 -7 79 -6 46 -23 31 -2 44 62 28 29 -28 51 38 -27 -12 -4 -30 -1 -26 -14 -35 41 -33 -19 -10 45 -20 53 65 -49 -50 -51 -31 -41 54 55 63 -18 -8 59 71 -54 69 76 -11 -38 -16 -60 -39 70 -40 -25 -36 -73 -29 -37 -76 -9 -68 -79 -13
right_child=1 9 10 7 6 18 11 13 43 21 12 19 23 17 47 -17 56 42 25 -21 -22 22 -24 68 37 32 27 73 35 30 -32 40 -34 39 58 74 64 67 61 52 -42 -43 -44 -45 -46 -47 -48 48 49 50 -52 -53 60 -55 -56 -57 -58 -59 66 -61 -62 -63 -64 -65 -66 -67 77 -69 -70 -71 -72 72 -74 -75 75 -77 -78 78 -80 -81
leaf_value=0.00020166440099349514 -0.029097295509382417 0.044509203633507133 0.0026417322751453162 -0.00055946681654813249 0.019163267533908752 -0.032823269388243918 -0.027596361194018849 0.02782296135362243 0.016043569450507975 0.014605157636475304 0.0066834047400060386 -0.064048142947538148 -0.0017500468859722466 -0.040813942270561065 0.036869533260830686 -0.055906987818969585 0.021372451370720438 -0.010643979262176322 0.02352632154793868 -0.021777024037894419 -0.030242931146526597 0.022617480881969267 -0.034922365191324467 0.021701526256643931 -0.031320585160180062 -0.032673881168903768 0.024340715805300499 0.027512804768509775 0.0020724220723910823 -0.015119401889764548 0.0055420591748548782 0.011950470863852352 0.010281163748499954 -0.0063540229549265128 0.042551635497978885 0.039352633518590252 0.022385559154220504 -0.048718703281199281 0.024613802334380215 -0.051118670809815657 0.024214987117256188 -0.016896723036236069 0.020190807238700707 -0.015703537588620999 0.03122679985696462 -0.012987802231563086 0.039295634658333273 -0.018722574113317968 0.042853193307813307 -0.0036807335231377704 0.024569732916247328 -0.0466217645594535 -0.035652827810925748 0.036245855883957782 -0.0055823813886540776 0.0033081484694142435 -0.0016640668614706067 -0.0043900588811114118 0.025980143434917374 4.1016351961454191e-05 -0.011180332991031817 0.015744459980483721 0.020885861634593317 0.035357285530394973 0.040951729838522792 0.019283787803160309 0.041009096774732919 -0.062186052405581033 0.040504438262656532 0.038542057249527473 0.035869287871354009 0.019662950511808608 0.040739923740375321 0.043990125869424475 0.018713532656976405 0.032752810094354642 0.040304692757559595 0.026445881555167246 0.03672303996316547 -0.055779816030287331
leaf_weight=15.344687551259993 22.417399033904076 517.25652231276035 12.222191408276556 15.283240064978598 18.092903271317486 14.390805959701536 18.652468234300617 12.60474871098995 14.516851112246515 12.286859706044192 13.142687276005743 387.9012089818716 11.576179414987562 16.244587883353233 13.833591222763063 24.969846725463867 19.563396900892261 20.023715332150459 15.000137627124785 13.869242131710051 12.403459161520002 21.711983606219292 13.927736386656759 17.656225323677063 18.115150526165962 12.377503588795664 11.731165155768393 12.199397444725038 19.060481071472168 11.846316128969194 18.454646691679955 22.136262282729149 13.364788100123404 17.995019868016243 13.095359712839125 14.135024368762968 13.420786440372465 31.86763995885849 16.379277646541595 12.082746639847754 20.918103113770485 18.646386072039604 14.255768924951552 15.909134417772291 21.532566875219345 13.203397303819658 22.378023400902748 12.002084985375403 14.451577872037886 22.596203908324242 17.067887246608734 13.152595877647398 14.910945057868959 12.731094866991041 12.175091698765753 12.842221081256865 12.24437068402767 12.009482994675635 20.136003717780113 12.571471408009527 12.148094311356543 14.797509908676146 20.27742512524128 17.86266393959523 15.684900015592577 13.627226322889326 77.599450320005417 161.03449828922749 43.887004226446152 40.839138060808182 15.213018789887427 19.995671182870865 12.344811722636221 17.171751424670219 12.874797329306604 11.36872439086437 27.486323684453964 16.734308302402496 65.844986632466316 67.00415575504303
leaf_count=65 92 2343 53 65 77 60 77 55 62 53 56 1559 50 67 61 101 85 84 65 57 52 94 59 77 74 52 51 53 82 50 79 95 58 77 58 62 59 130 72 50 91 78 62 67 94 57 98 52 64 97 74 55 62 56 52 55 53 50 88 54 51 64 88 77 70 59 344 650 193 180 67 88 54 75 55 50 121 74 291 270
internal_value=0 0.0147003 0.00265412 -0.0169087 -0.0498016 -0.0362902 -0.0558722 0.00652273 -0.0489851 0.0392894 0.0215877 -0.0591981 0.0147114 0.0133114 0.00311696 -0.0354157 -0.00962064 -0.0120249 0.00111136 -0.0617859 -0.0012534 0.0176649 -0.00020808 0.0248684 -0.0552718 0.00792597 0.0196652 0.0141832 0.00761804 -0.00776622 -0.0167867 0.0187455 -0.0108221 -0.0197703 0.0329482 0.0222785 0.0222086 -0.0579021 0.0267998 -0.0258655 0.00758007 -0.00132759 0.00238808 -0.000527829 0.0176516 0.00657295 0.0246459 0.0169675 0.0115586 0.0184924 0.00878101 -0.0328494 -0.0344539 0.0193174 0.014835 0.0206125 0.0127241 -0.0189328 0.0344849 0.0263839 -0.025456 0.0313501 0.0321183 0.0276405 0.0334187 0.0291269 0.0369311 -0.060224 0.0360684 0.0350462 0.0291243 0.0335147 0.028689 0.0382774 0.0320063 0.0263338 0.037153 0.038138 0.0349818 -0.0629553
internal_weight=0 1958.3 1315.13 646.87 574.383 353.73 529.933 293.141 263.861 643.172 668.259 499.437 417.715 252.887 195.666 40.2531 102.087 50.5241 89.8692 468.775 30.4964 125.916 35.6397 222.049 233.435 75.4784 202.363 141.995 112.624 55.1847 43.4536 145.293 25.7423 70.2795 250.544 57.439 44.4504 211.017 83.5921 57.1368 61.7008 40.7826 34.2795 30.426 49.7361 28.2035 90.276 93.5786 66.1178 54.1157 39.6641 24.9989 39.1418 67.8979 55.1668 42.9917 31.8078 30.662 238.322 58.0073 27.059 72.0159 60.3685 30.1495 29.1057 27.4608 180.315 192.902 76.7562 57.2184 32.8692 45.4358 32.3405 29.3711 38.3785 24.2435 40.0911 160.179 82.5793 454.905
internal_count=10851 8515 5628 2716 2336 1461 2142 1255 1075 2887 2912 2013 1808 1089 841 166 434 213 386 1886 129 544 153 967 946 326 876 612 484 235 184 630 110 296 1104 249 194 854 366 240 264 173 146 129 216 122 391 407 287 235 171 105 163 293 237 185 138 127 1051 254 113 316 264 130 129 120 797 780 337 252 144 200 142 128 167 105 176 709 365 1829
is_linear=0
shrinkage=0.03


Tree=6
num_leaves=78
num_cat=0
split_feature=20 4 3 11 19 7 19 0 11 8 4 11 11 1 15 19 20 7 20 3 7 14 17 11 15 5 3 0 5 5 20 1 13 7 10 20 5 7 15 3 19 15 11 19 19 7 17 1 14 20 20 5 1 17 5 5 4 20 1 1 14 1 13 14 5 8 19 19 1 17 17 15 15 3 6 0 17
split_gain=1933.07 625.839 519.417 343.16 253.826 201.488 122.291 117.291 92.4606 81.1373 64.1559 48.7587 48.7035 47.7693 42.9429 54.6329 39.593 40.4669 38.1558 31.9522 27.601 25.1881 21.0775 22.6544 20.6758 19.375 16.7263 15.5117 14.7881 13.1995 13.0656 11.5725 10.4564 9.72187 9.64017 9.05142 12.3301 8.91744 13.1142 11.442 8.57528 11.3188 7.86934 10.1211 7.82202 10.1745 7.8135 10.7442 9.00866 10.0055 7.75473 7.79119 11.6181 8.80641 7.53203 7.35066 6.89411 6.32501 6.19454 5.32486 4.79235 4.51267 4.38923 3.99059 3.91643 3.77066 3.48619 4.35049 3.126 2.85349 2.74387 2.62811 1.41081 2.27494 1.68674 0.171465 0.0713712
threshold=10.115549564361574 -1.0000000180025095e-35 0.41584900021553045 0.65994855761528026 -0.18933521956205365 0.97403696179389965 0.95087403059005748 -0.32773390412330622 -0.60923027992248524 -1.0000000180025095e-35 1.0000000180025095e-35 0.67102402448654186 1.4346472024917605 -0.60416874289512623 1.4205742478370669 1.5122380256652834 14.424175739288332 1.5315621495246889 7.1736445426940927 1.7699734568595888 0.75842157006263744 -0.46091464161872858 -1.2011730670928953 1.2207441329956057 1.059600353240967 0.17957796156406405 -0.8259521722793578 -1.0000000180025095e-35 -0.54512211680412281 -0.68915426731109608 22.939499855041507 -0.48709145188331598 -1.0582507252693174 0.69494578242301952 1.0246931910514834 14.889966964721681 -1.1234193444252012 2.6835043430328374 0.66848284006118786 -0.094380583614110933 0.54053476452827465 0.84506005048751842 2.8535257577896123 0.85252937674522411 2.0049034357070927 -0.8649296462535857 -1.1570839285850523 -0.63656988739967335 1.0294220447540285 20.354435920715336 19.333067893981937 -0.78218448162078846 -0.83130532503128041 -0.81469812989234913 -0.6708574891090392 -0.67739894986152638 -0.81530666351318348 19.249749183654789 0.423516795039177 -0.87840908765792836 1.0488068461418154 -0.48709145188331598 -1.0530379414558408 1.0488068461418154 1.0185139179229739 -0.24999894946813581 1.4915609359741213 2.1599835157394414 -0.59792935848236073 -0.67637440562248219 -0.85907864570617665 -0.27163332700729365 0.90998148918151867 1.2517491579055788 1.0523370504379275 -0.96772286295890797 -0.95406782627105702
decision_type=2 2 2 2 2 2 2 2 2 2 2 2 2 2 2 2 2 2 2 2 2 2 2 2 2 2 2 2 2 2 2 2 2 2 2 2 2 2 2 2 2 2 2 2 2 2 2 2 2 2 2 2 2 2 2 2 2 2 2 2 2 2 2 2 2 2 2 2 2 2 2 2 2 2 2 2 2
left_child=4 2 3 5 9 6 24 13 27 -1 -3 33 14 56 15 19 17 29 69 20 21 -4 75 26 55 -12 -24 -6 -15 -5 -28 -32 -22 71 -34 36 -14 38 39 -7 -23 -42 43 54 45 64 47 -17 -48 -50 62 59 53 -53 -25 68 -8 -40 -47 -52 -36 -56 -16 -21 -27 -9 70 -68 -2 -13 -45 -10 73 74 -37 -18 -57
right_child=1 10 12 16 8 37 7 65 11 -11 25 18 35 28 50 46 22 -19 -20 63 32 40 23 42 -26 44 30 -29 -30 -31 31 -33 34 -35 60 72 -38 -39 57 -41 41 -43 -44 66 -46 58 48 -49 49 -51 51 52 -54 -55 61 76 -58 -59 -60 -61 -62 -63 -64 -65 -66 -67 67 -69 -70 -71 -72 -73 -74 -75 -76 -77 -78
leaf_value=-0.047184983635914904 -0.025100447540246672 0.043751027863057491 0.014416263352887518 -0.0075172037862150289 -0.019784153364600033 0.011988181244844855 0.016811640110077235 0.018674976443098349 -0.040121906277367669 0.042346574202137353 -0.016404810583707585 -0.054226985162964841 0.036253014316903899 -0.024210812481546534 -0.001020200226467586 0.041431631994589678 0.027290532025406638 0.031072282566359726 0.0101025060583216 0.031473024237624214 0.027268319330980693 -0.040674760147135405 0.021896495002664208 0.017769562085882637 -0.025434340843988497 0.016150496827231613 -0.036964390391458039 0.025402041559210397 -0.058015224527629833 -0.048834237997767711 0.018349504618953454 -0.021038333108733393 0.017217636147943239 -0.030240953779673525 0.0014352074304119506 0.031597024297870556 0.00095135293514040503 0.03630090870897381 0.0048814995100659704 -0.023865221194582585 -0.031961286489723233 -0.0018359617277701132 0.035709395268687633 0.018806267156538787 0.03834913440395149 -0.0078881658359192929 0.033103616646285909 0.0080514062747212359 -0.011688830041862422 0.021814152906515494 0.042464619803551658 0.02896084238226776 0.038882806687592031 -0.0026061572217849632 0.0064736832294115558 -0.04370513947651769 -0.013946456739517049 0.03240083162805938 0.017237650997046997 0.021676785177483573 -0.023509155779330958 -0.01861850276362375 0.023082710529208676 0.010851598216721502 0.037519153358467359 0.042108995332764361 0.0063523494653813482 0.029275417883942431 -0.048685852765986998 -0.030858677008975956 0.041276876704857593 -0.061468317370261844 0.038907880544738545 0.038931171143491129 0.018248765660564079 0.039857361926472656 -0.06022219192555598
leaf_weight=11.401482462882994 12.439395621418955 508.80666807293892 16.39554762840271 11.704233616590498 13.578226879239084 15.395182445645334 12.131067872047426 13.185686990618708 12.750411063432692 33.977982953190804 12.564274430274962 19.17237630486488 16.648215100169182 18.940587818622589 11.390355139970781 41.539454460144043 12.852143868803976 11.477490842342375 15.867105901241301 21.922285154461861 17.057355627417564 23.820203080773354 15.192570626735685 20.378522962331772 23.411638543009758 17.05391027033329 13.511057585477827 11.880403295159338 42.157801166176796 17.827833831310276 12.629081651568411 12.233464747667314 16.929204896092415 12.515666857361792 13.678746417164804 26.375554278492928 18.08542512357235 11.552862167358397 12.910434246063234 14.761344879865645 22.940465152263641 21.376598909497261 21.629702225327492 11.59942811727524 20.818565398454666 16.545748993754387 18.624061465263367 11.603306144475935 13.815515965223314 16.685795560479164 58.254046872258186 12.234298422932627 20.955586358904839 19.564097449183464 11.839447170495989 13.127476677298544 12.11195060610771 18.467161938548088 16.933582425117493 17.975398823618889 12.831585153937338 12.22752460837364 15.577302441000937 15.799617782235144 18.57560721039772 17.942950129508972 18.333724319934849 12.47100420296192 17.961441248655319 13.483161255717279 14.124559864401816 427.67029260098934 108.14959588646889 28.733600541949272 21.259716764092445 26.660716727375984 169.50520183146
leaf_count=47 51 2341 70 50 57 66 52 57 52 152 53 78 74 79 50 186 57 50 66 96 75 99 66 89 97 74 57 51 170 73 54 51 74 51 59 118 78 50 56 62 96 91 96 51 92 71 82 50 59 73 261 54 92 84 51 53 51 80 74 79 54 52 67 68 82 79 81 55 73 55 62 1713 486 128 94 118 681
internal_value=0 0.014249 0.0027861 -0.0155508 -0.0483967 -0.0320336 -0.041403 -0.0160561 -0.0542541 0.0193196 0.0393853 -0.0570802 0.021742 -0.0341516 0.015935 0.00895709 0.0118217 -0.0149309 -0.0276726 -0.000894147 -0.00731384 -0.0182974 0.0169538 0.0123785 -0.0537683 0.0174987 -0.00385138 0.00146533 -0.0480944 -0.0332419 -0.0143425 -0.00109514 0.00808155 -0.0601628 0.000103437 0.0332959 0.0184128 0.0131567 0.00830037 -0.00576443 -0.0262638 -0.0177913 0.0194431 0.0156427 0.0223639 0.0170702 0.0263993 0.0344266 0.0172019 0.00674971 0.0285497 0.0316264 0.0220147 0.0100518 0.00476898 -0.0567487 0.00150099 0.0215784 0.00495163 0.0379069 -0.0110541 -0.00650889 0.0132299 0.0233392 0.0280113 0.0330729 0.0239607 0.0162612 -0.0401419 -0.045782 0.0322273 -0.0609426 0.0359832 0.031392 0.0261374 0.0365443 -0.0592794
internal_weight=0 1954.22 1342.92 682.695 572.297 426.002 352.915 116.47 526.918 45.3795 611.298 501.459 660.223 85.3414 440.971 285.02 256.693 41.0096 48.5226 182.752 145.03 84.5328 215.683 176.17 236.445 102.492 53.5662 25.4586 61.0984 29.5321 38.3736 24.8625 60.4969 452.936 43.4395 219.252 34.7336 73.087 61.5341 30.1565 68.1373 44.3171 122.604 100.974 89.9274 69.1088 102.268 53.1428 49.1254 30.5013 155.951 128.983 52.754 31.7984 44.4455 213.034 24.243 31.3776 33.4793 76.2294 26.5103 24.067 26.9677 37.7219 35.6295 31.1286 56.5287 30.8047 30.4008 32.6555 25.724 440.421 184.518 76.3689 47.6353 39.5129 182.633
internal_count=10876 8554 5767 2870 2322 1757 1443 488 2123 199 2787 2015 2897 352 1919 1232 1113 173 199 782 618 356 940 765 955 446 228 108 249 123 162 105 262 1816 187 978 152 314 264 128 286 187 537 441 393 301 450 236 214 132 687 570 230 138 192 858 103 136 145 340 113 103 117 164 156 136 249 136 124 133 113 1765 826 340 212 175 734
is_linear=0
shrinkage=0.03


Tree=7
num_leaves=79
num_cat=0
split_feature=20 0 1 7 19 18 1 11 18 0 14 15 5 11 1 20 9 1 19 15 7 20 13 7 20 7 1 19 20 11 19 5 7 9 4 10 15 5 15 6 10 19 14 1 10 11 0 9 11 5 7 4 15 10 11 16 19 9 15 1 19 10 1 12 1 9 13 14 9 1 0 9 5 13 7 1 14 7
split_gain=1883.44 572.891 426.655 253.993 234.695 197.08 140.975 86.6375 85.1086 73.2122 69.9312 64.4891 44.8418 41.0291 36.0685 35.7781 35.1814 31.2067 30.3705 23.843 21.2519 21.0662 20.2346 19.5397 18.0179 17.451 15.0124 15.0082 14.0703 13.0055 15.0421 12.425 12.3502 11.9735 18.0095 11.9367 11.2815 11.0058 10.7381 9.94252 9.42663 8.44867 8.27293 19.2831 21.1212 8.21305 7.72353 7.40423 7.04322 9.36531 6.30879 5.43743 5.37383 4.79414 8.16532 4.6926 4.69105 7.91167 4.47417 5.47868 6.19374 3.2391 2.95445 2.83816 2.5433 2.40273 2.23052 2.21762 2.17358 2.0675 2.04947 1.94808 1.91696 1.12568 0.787373 2.45405 3.85717 0.183387
threshold=10.115549564361574 -1.0000000180025095e-35 -0.40405423939228052 0.65001416206359874 -0.18933521956205365 1.0000000180025095e-35 0.69215726852417003 -0.99190020561218251 1.9493540525436404 1.0000000180025095e-35 1.0488068461418154 0.36783254146575933 -0.54512211680412281 0.90998005867004406 -0.6177442967891692 20.354435920715336 -0.14017627388238904 0.423516795039177 1.6932971477508547 -0.31223677098751063 0.89092668890953075 4.3694243431091317 -0.82637459039688099 1.2748934626579287 8.68780565261841 1.0413193106651308 -0.50565800070762623 0.87564688920974743 19.601392745971683 1.3913213014602663 1.1907766461372378 -0.65316012501716603 1.1904959082603457 -0.75355651974678028 -0.32444170117378229 1.0809413194656374 -0.97587963938713063 0.33972619473934179 0.41191348433494573 -0.22629341483116147 1.2440739274024966 1.2530266642570498 1.0415208339691164 -0.6177442967891692 1.0033200383186343 1.0403986573219302 -0.96608966588973988 -0.91298720240592945 0.39027202129364019 -0.77801975607871998 0.29807627201080328 -0.70934182405471791 1.059600353240967 1.1192198395729067 0.76333919167518627 -0.92581817507743824 1.5732339024543764 -0.83568274974822987 1.7063559889793398 1.5745049118995669 0.80231913924217235 1.0917386412620547 -0.96034011244773854 -0.73444142937660206 -0.6177442967891692 -0.14945045858621595 -0.42583502829074854 -0.22941467165946958 -1.0211225748062132 -0.53910723328590382 -0.96076688170433033 -0.91298720240592945 0.33972619473934179 -0.8354012370109557 2.2018502950668339 -1.027609050273895 1.0033200383186343 0.58388370275497448
decision_type=2 2 2 2 2 2 2 2 2 2 2 2 2 2 2 2 2 2 2 2 2 2 2 2 2 2 2 2 2 2 2 2 2 2 2 2 2 2 2 2 2 2 2 2 2 2 2 2 2 2 2 2 2 2 2 2 2 2 2 2 2 2 2 2 2 2 2 2 2 2 2 2 2 2 2 2 2 2
left_child=4 2 5 6 24 39 8 -6 13 -3 20 14 21 31 32 16 18 38 25 -14 22 -9 28 29 -1 35 33 40 36 30 -5 -4 45 46 -35 -13 -7 77 -11 -2 47 -38 43 51 -45 -12 -24 64 49 -30 -37 74 -23 55 -55 -29 57 -25 59 60 -19 -20 -27 -56 -17 -26 -16 -8 -48 70 -50 -33 -62 -18 75 -22 -77 -21
right_child=1 9 3 23 7 10 67 12 -10 17 11 15 19 -15 66 27 73 58 61 37 42 52 26 56 65 62 -28 53 48 -31 -32 71 -34 34 -36 50 41 -39 -40 -41 -42 -43 -44 44 -46 -47 68 -49 69 -51 -52 -53 -54 54 63 -57 -58 -59 -60 -61 72 -63 -64 -65 -66 -67 -68 -69 -70 -71 -72 -73 -74 -75 -76 76 -78 -79
leaf_value=-0.0079772295677686088 -0.053993764712592388 0.043203947354485947 -0.030609259143073046 -0.023516691415596591 0.020256572293878412 0.032619026264345534 0.030875593182629391 -0.050420698675897664 0.012350997810451009 -0.020748198657219177 -0.023304892948601767 -0.003453838974714843 -0.017382187141371446 -0.010616612542297328 -0.02933636174426232 0.032140197992231723 0.021832267198453888 0.00043350892895700793 0.030825014350228313 -0.059806177108318009 0.037177649174254854 -0.0190586356453608 0.0078413244395260425 0.035961169806157003 0.021320673860378399 0.015869428446189261 -0.015197678803673249 0.019012136738675797 0.032920889907010038 0.02791648637351048 0.012174978977167385 -0.038628008209322023 0.02258386884165629 -0.021128961766479236 0.025026017886197221 -0.048088992544717102 -0.015404488949995607 -0.027980382934327093 0.012498401934846338 -0.021865056150433725 -0.0098818029417959072 0.015904547317691364 0.042446130192248015 0.031128028116697039 -0.022059102278666112 0.0087059767615680957 0.039351638964920971 0.0017944281978944337 0.04090458437281877 -0.00039456668383043461 -0.021581405885091005 0.013628846149923277 0.0073730090965023589 0.0013627597875440303 0.03527318330577122 0.038692862557702067 0.038900185494375052 0.0045964388281971042 0.040188864315413991 0.034986037896925802 0.01386983047542612 0.009820256224857318 -0.0044739289761280224 0.015171240690140662 0.012857603153194258 0.041291704928849267 -0.050430457152843076 0.013464647822540891 0.020615635275043426 0.024485163342495488 0.023837534879481304 -0.058843891567266528 0.02975739926665074 0.038273218712516009 0.041544063524370858 0.031407983527526648 0.011050878542810087 -0.044198286872671556
leaf_weight=14.921655908226965 32.751373916864395 502.10355696082115 20.585830062627792 19.712536230683327 13.75809960067272 13.03760105371475 12.709227964282038 15.854787290096281 20.376096665859222 20.012502089142799 16.888413399457935 17.160189598798752 14.056658819317816 21.036919876933098 15.292815610766413 19.640537619590759 12.667814508080484 15.30488185584545 13.44631612300873 433.86793011426926 53.548883587121964 14.099563807249071 20.963985532522202 13.03542844951153 15.63016065955162 11.990978792309763 18.623065426945686 17.693394169211388 15.258149638772013 13.263878375291823 20.915843084454536 12.346850752830504 14.469059422612188 16.747966110706333 12.320936366915701 15.865891396999357 14.896562561392786 12.924646049737929 14.102219328284262 14.403715565800665 14.724666476249693 14.149309009313582 55.87239882349968 12.028824955224993 12.897808969020842 11.386516809463499 17.119154274463657 18.820408970117573 56.319790601730347 14.206236913800238 21.6185342669487 14.128371611237524 12.021123200654982 14.061144471168516 21.24646325409412 52.604732826352119 23.79666168987751 15.647892206907271 18.021974608302116 21.798613652586937 15.102978453040121 14.741796091198919 12.033523529767988 12.207015886902811 11.696364417672156 13.956229537725449 15.569986566901205 18.424492374062538 14.466904878616331 20.883251547813416 12.98733803629875 173.0899241566658 19.053140819072723 14.904741048812864 27.413442596793175 31.849060297012329 13.268904268741606 14.67199821770191
leaf_count=63 132 2348 85 83 59 57 55 65 88 85 71 73 58 90 63 87 55 66 59 1736 241 58 92 58 70 52 79 79 69 59 91 50 63 71 54 66 64 53 61 59 63 62 253 53 55 50 77 81 255 61 91 62 50 60 95 234 106 68 80 96 66 64 52 54 51 64 64 79 63 93 57 694 85 65 123 142 59 59
internal_value=0 0.0145303 0.00321313 -0.0232723 -0.0472453 0.0142978 -0.0382929 -0.0527838 -0.0458483 0.0381135 0.0175369 0.00807077 -0.054761 -0.0511023 -0.0170669 0.0139407 0.00216307 0.0172194 -0.00569439 -0.0573989 0.0251625 -0.0242371 0.019246 0.0160542 0.0185709 -0.015239 0.00853652 0.0225479 0.0257903 0.00324148 -0.00529123 -0.0551651 0.000921278 0.0140704 -0.00138436 -0.0244754 0.0105367 -0.0585776 -0.00704029 -0.0448378 0.0107285 -0.000130984 0.0320574 0.0283082 0.00381802 -0.0105568 0.0224856 0.0168539 0.0310233 0.0173722 -0.0337592 0.0326042 -0.00707107 0.028912 0.0207277 0.0340755 0.0289051 0.0195818 0.0264644 0.0224853 0.0163917 0.0205528 0.00590814 0.0285913 0.0255632 0.0317832 -0.0412269 0.0213117 0.0316663 0.0352436 0.038091 -0.0577123 0.0233267 0.0317481 0.0346066 0.0322816 0.0257905 -0.0593951
internal_weight=0 1931.32 1305.82 384.942 575.763 920.874 278.569 531.255 247.436 625.5 873.719 390.731 517.497 227.06 73.6068 317.125 134.43 123.396 106.857 475.521 482.988 41.9755 261.98 106.372 44.508 78.6691 100.242 182.695 161.738 53.8923 40.6284 206.023 42.744 81.6189 29.0689 54.6446 42.0835 461.465 34.1147 47.1551 64.882 29.0459 221.008 165.135 24.9266 28.2749 52.55 50.1573 119.655 29.4644 37.4844 140.209 26.1207 117.813 47.5146 70.2981 52.48 28.6833 89.2816 71.2596 49.461 28.1881 24.0245 33.4535 31.3369 29.5864 30.8628 31.1337 31.5861 90.1904 69.3071 185.437 34.1561 27.5726 126.08 98.6668 45.118 448.54
internal_count=10853 8518 5631 1606 2335 4025 1141 2138 1007 2887 3834 1692 2079 919 311 1381 577 539 457 1906 2142 173 1154 465 197 334 436 804 718 233 174 829 184 357 125 230 183 1848 146 191 282 126 988 735 108 121 232 219 535 130 157 627 108 522 209 313 232 126 393 313 217 123 104 149 138 134 127 134 140 405 312 744 151 120 565 442 201 1795
is_linear=0
shrinkage=0.03


Tree=8
num_leaves=87
num_cat=0
split_feature=1 2 5 4 1 1 2 19 2 1 9 2 19 19 19 3 3 9 1 7 12 13 1 17 13 8 9 17 7 3 5 12 9 5 1 5 2 7 17 5 11 17 16 6 3 5 10 1 16 14 14 3 6 6 7 5 14 8 1 3 12 19 16 3 11 11 6 14 17 16 13 13 13 1 14 19 7 13 16 17 5 14 3 4 12 11
split_gain=842.361 772.083 574.085 224.293 206.349 208.969 333.895 156.502 130.565 112.678 83.8193 83.6591 64.2855 63.3952 60.7008 54.2277 40.4905 39.9805 31.5442 28.2228 24.4291 29.961 22.8508 22.396 27.1053 22.0207 21.9462 20.7314 19.2717 18.7289 18.1583 16.5062 17.5174 16.4777 13.8116 22.2029 13.7804 13.7463 12.653 10.9756 10.8089 10.9674 10.6978 10.3105 10.1365 9.33541 8.91571 8.83263 9.02313 8.0786 7.84707 7.82305 7.24414 7.06552 7.0587 6.82075 6.6802 6.25202 5.76635 5.69453 5.39283 5.20267 4.88357 3.91201 3.90782 3.90448 3.85876 5.95184 3.72104 5.2684 6.01116 3.90378 10.5927 3.7022 3.21569 3.04047 4.38478 2.76495 4.55317 2.53083 2.43619 0.464635 0.436117 0.252865 0.232487 0.0413636
threshold=-0.42280381917953486 1.0000000180025095e-35 -0.5064089000225066 -1.0000000180025095e-35 0.12020330503582956 -1.0000000180025095e-35 -1.0000000180025095e-35 0.012934417463839056 1.7777055501937868 1.0000000180025095e-35 -1.0378537178039549 -1.0000000180025095e-35 0.1034943349659443 0.69968214631080639 0.88933449983596813 0.2775676846504212 1.0351700782775881 -0.7225346267223357 -0.62397670745849598 1.4515461325645449 -0.41612695157527918 -0.36230663955211634 0.62471026182174694 -1.1356590390205381 -1.1433358788490293 -0.32444170117378229 -0.69024997949600209 -0.89189869165420521 0.21512190252542499 -0.8259521722793578 -0.57418888807296742 -0.69786012172698964 -0.41599752008914942 -0.60202261805534352 -0.66797673702239979 -0.65889626741409291 1.0488067269325259 0.92611545324325573 -0.080437149852514253 -0.71528732776641835 1.0225120782852175 -0.60900557041168202 -0.30808340013027186 1.1401730179786684 0.31859576702117925 -0.9495447278022765 1.0809413194656374 1.6785475015640261 -0.72547480463981617 -0.29759222269058222 1.0690427422523501 1.8830032944679262 1.0033200383186343 1.2182901501655581 0.53045988082885753 1.3930948972702029 1.2065811157226565 -0.42640022933483118 -0.79907712340354908 0.42624995112419134 -0.8366585075855254 -0.1291607320308685 -0.96772286295890797 1.4098740816116335 0.37934374809265142 0.89476415514945995 -0.89552026987075795 1.1308771967887881 -1.2153399586677549 -0.96394696831703175 -1.1897312998771665 -0.85107380151748646 -1.0369959473609922 -1.027609050273895 -0.35960642993450159 2.0830038785934453 2.2018502950668339 -1.0472456812858579 -0.91175445914268483 -0.74932116270065297 -0.64744719862937916 1.3932582139968874 -0.39037963747978205 -0.89442542195320118 -0.6548236310482024 1.5475412011146548
decision_type=2 2 2 2 2 2 2 2 2 2 2 2 2 2 2 2 2 2 2 2 2 2 2 2 2 2 2 2 2 2 2 2 2 2 2 2 2 2 2 2 2 2 2 2 2 2 2 2 2 2 2 2 2 2 2 2 2 2 2 2 2 2 2 2 2 2 2 2 2 2 2 2 2 2 2 2 2 2 2 2 2 2 2 2 2 2
left_child=3 4 26 7 5 6 13 15 17 -7 34 12 22 82 16 28 19 43 23 29 21 37 -6 75 63 -15 33 39 -1 -12 -11 32 -28 53 56 59 -37 44 52 60 41 46 -5 -4 -20 -18 -29 48 55 -43 -17 79 -31 62 -53 66 68 -50 -54 -36 -26 -32 -3 64 -25 -21 -14 -68 -9 70 -70 72 -71 -66 -42 76 -16 -64 -79 -47 -60 -76 -2 -73 -49 -61
right_child=1 2 8 42 11 9 -8 10 -10 30 14 -13 47 25 18 50 45 -19 20 65 -22 -23 -24 24 27 -27 31 40 -30 38 61 -33 -34 -35 35 36 -38 -39 -40 -41 74 49 -44 -45 -46 51 -48 84 57 -51 -52 54 58 -55 -56 -57 -58 -59 80 85 -62 -63 77 -65 73 -67 67 -69 69 71 -72 83 -74 -75 81 -77 -78 78 -80 -81 -82 -83 -84 -85 -86 -87
leaf_value=-0.051231771823639402 -0.042785136385061789 0.011562891760435233 -0.036512443221270369 0.011781523528102644 -0.047896834898808305 -0.057471838989860288 0.0426149282304868 0.038524427989836504 0.033987343493259548 0.035290536472420281 0.0076189127288760405 0.042567204236793332 0.0015363015865940738 -0.025178046641663027 0.016446837203185832 0.026080299778083463 0.031347272222342341 -0.058142786239623413 -0.027204508098220535 0.00013688493845721102 0.029005482245761299 -0.040883029472423144 0.0046858707519827694 0.0080599738777653914 -0.033574177369210298 0.025845712390040635 -0.034678917860853101 0.01114630111610522 -0.0078098903142499732 -0.014067671845526701 0.0041475926146264802 0.024798530431163878 0.0092427641490741251 -0.0072665133138651739 0.013105709332597268 -0.027363355465481753 0.012422495981585359 0.023509504335540037 -0.0014909369068724092 0.0078620173711864017 0.015527351190493165 0.007259335886755384 0.042637769583662909 -0.00026322889424436341 0.009556491874961338 0.0043527721235923876 -0.019951262844661831 0.040752649954720617 -0.011786603851500049 0.036916529534657787 -0.0060035721105850676 0.0018496091414792575 -0.050646288748882988 0.0077120575222891117 0.033108637247595697 0.037804008051951138 0.0084325173927035941 0.014285385038300355 -0.039497181111647031 0.026744634934480725 -0.0057598472095284807 -0.021628101101868552 0.040161580930995339 0.040483854616484273 0.040100982261936029 0.022673040006572488 0.032286384244854492 0.0051881640788835441 0.028637477399157701 0.035377538210771942 0.0020936523566280523 0.041302342902489027 0.0024799906024894152 0.016232932548685568 0.041446618133047369 0.042370350540621091 0.040862811644455502 0.0090806366012828928 0.034592761310637224 -0.014039584867346681 -0.019917744878314277 0.025522600918344619 -0.059492882421112073 0.028977421026851243 0.026515063594153232 0.039588343673900329
leaf_weight=48.153383105993271 16.858277261257172 12.462239071726797 14.533541828393938 11.455883175134657 18.664743497967724 87.826908499002457 116.93444772064686 80.928625851869583 14.261997461318968 10.89938612282276 14.369898363947867 139.50644385814667 13.260177135467528 14.302252978086473 18.905106648802761 11.390242144465448 16.97979724407196 484.19348654150963 13.545971855521204 14.439225405454637 17.215752363204956 18.898509174585342 11.697301879525183 11.273034214973448 13.819777294993402 14.148708194494246 17.745108231902122 15.079527363181116 11.809787973761557 14.70927721261978 13.337091043591499 11.556275084614752 13.88435034453869 15.593355298042296 15.673692137002943 11.791500449180605 19.259436890482903 17.318025395274162 12.812413230538366 19.436553001403809 15.328865662217138 21.755290061235428 270.02872690558434 12.975651904940603 11.864542230963705 11.803316414356233 16.256460100412369 14.168263614177706 14.38688661158085 13.003921642899511 14.713013291358946 13.150184556841852 23.888882994651787 16.838603794574738 12.106874570250509 17.333040207624435 11.334943458437918 16.952524676918983 12.071732789278025 11.128304854035376 11.735623002052305 13.329954594373703 31.214346855878826 26.395919978618622 14.593062192201613 12.306660875678061 16.871909558773044 13.0835625231266 17.213452279567722 25.288931250572205 13.566997796297072 37.480885311961174 13.488146051764486 12.937957763671877 11.532091334462168 33.100241631269455 11.798025310039518 11.377370163798334 16.252520903944973 13.614311337471007 18.349292680621161 11.498706787824629 36.321922346949577 14.523632287979124 12.020238399505613 21.93951690196991
leaf_count=194 68 55 60 50 76 352 553 369 63 51 62 661 58 60 84 50 76 1940 56 62 76 79 50 50 59 62 74 65 50 62 59 50 59 66 69 50 84 75 54 85 68 94 1278 55 51 51 69 63 62 57 63 57 99 73 54 78 50 74 50 50 51 57 140 121 66 54 74 57 79 114 60 170 59 58 52 151 54 50 72 58 76 51 146 65 53 101
internal_value=0 -0.0168565 -0.0390095 0.0180166 0.00752827 -0.00888733 0.0102601 0.0108751 -0.0536329 -0.0390493 0.0148222 0.0259638 0.0101791 -0.0360422 0.00786613 -0.027444 -0.00578594 -0.0561365 0.0151448 -0.0159978 -0.00159417 -0.010469 -0.0281353 0.0198732 0.0151098 0.00021216 0.0133483 0.00796837 -0.0429482 -0.0235254 0.00439425 -0.00455148 -0.0157063 0.0207722 0.0277315 0.0167426 -0.00306842 0.00361026 -0.0290204 -0.00891992 0.0152583 0.00770701 0.0414281 -0.0200232 -0.0103283 0.0127347 -0.00510456 0.0201848 0.0155042 0.0190766 0.00844205 0.00601211 -0.0340366 0.0257582 0.0175238 0.0221785 0.0317351 0.00232223 -0.0390928 0.0291713 -0.0214991 -0.00905284 0.0298541 0.0311112 0.0238788 0.0109499 0.0151981 0.0210007 0.0329916 0.029024 0.0173719 0.0327424 0.0242845 0.0298465 0.027743 0.0354176 0.0268219 0.03347 0.0247715 -0.00565717 -0.0286971 0.0348891 -0.0550839 0.0384719 0.0354333 0.036178
internal_weight=0 1284.79 672.889 1209.06 611.904 323.959 198.566 927.579 525.965 125.393 841.513 287.945 148.439 81.6312 547.895 86.0664 190.602 511.703 357.293 122.947 78.8428 61.627 30.362 278.45 214.647 28.451 146.924 149.447 59.9632 96.2015 37.5664 43.1857 31.6295 103.738 293.618 79.7925 31.0509 42.7285 81.8316 44.992 104.455 66.0952 281.485 27.5092 25.4105 67.6545 31.336 118.077 91.8881 34.7592 26.1033 50.6747 69.0192 88.1451 25.2571 60.5487 213.826 31.3394 54.3099 48.7415 25.5554 26.667 71.3065 65.2 38.8041 26.7459 43.2156 29.9555 202.491 121.562 30.7805 90.7816 38.7771 27.531 38.3597 63.8034 30.7031 58.8442 27.6299 25.4176 30.421 23.0308 53.1802 52.0045 26.1885 33.0678
internal_count=10863 5471 2757 5392 2714 1408 889 4064 2118 519 3707 1306 645 336 2387 357 815 2055 1572 519 337 261 126 1235 946 122 639 651 244 403 167 183 133 456 1320 354 134 182 341 195 456 285 1328 115 107 296 134 519 403 151 113 220 287 390 111 267 966 136 225 220 110 116 317 295 174 116 189 131 916 547 139 408 173 124 171 289 138 262 122 109 126 103 214 235 116 151
is_linear=0
shrinkage=0.03


Tree=9
num_leaves=78
num_cat=0
split_feature=20 0 3 11 19 19 7 16 11 0 4 7 11 9 3 20 7 9 9 16 19 11 20 15 14 13 2 2 17 3 11 20 17 17 3 7 15 7 3 2 2 7 5 7 20 9 3 19 14 9 9 7 15 17 20 11 15 13 3 9 17 6 19 7 20 19 13 14 15 17 13 3 8 7 3 17 19
split_gain=1630.89 547.069 445.005 275.833 207.158 185.302 80.0176 79.6235 74.0017 71.3441 64.9995 78.0577 48.7842 37.177 41.2417 36.1549 34.6675 25.7104 27.237 21.8496 21.6086 21.7117 18.1467 17.0074 17.845 16.6659 18.0926 16.3155 15.2873 17.7969 20.7454 12.7502 22.9735 24.5478 12.9311 11.6821 11.6409 10.7786 10.7312 9.53525 9.21754 8.86646 8.47653 8.27537 13.655 7.9402 7.61432 8.04696 7.55905 6.81775 6.76456 6.36216 8.66874 6.12502 5.33596 4.3444 4.25779 4.13894 4.07415 3.83856 3.51831 3.39685 3.14695 3.12958 2.95752 5.89755 2.9377 2.57299 1.9461 1.82587 1.79828 1.17041 0.850748 0.532596 0.492454 0.1415 0.0805429
threshold=10.490788936614992 -1.0000000180025095e-35 0.41584900021553045 0.84909126162529003 -0.18933521956205365 0.92565125226974498 0.63834100961685192 -1.0000000180025095e-35 -0.42354725301265711 1.0000000180025095e-35 -0.32773390412330622 1.0413193106651308 0.94799885153770458 -0.96657675504684437 0.95233139395713817 14.245427608489992 0.82304781675338756 -0.80780717730522145 -0.18834722042083737 -1.0000000180025095e-35 2.1599835157394414 0.96902626752853405 7.1736445426940927 1.3012265563011172 1.0033200383186343 -1.3004614710807798 1.6966618895530703 -1.0000000180025095e-35 -1.2011730670928953 -0.81323072314262379 3.0563621520996098 20.463960647583011 -1.3755099177360532 0.79145067930221569 0.88766485452651989 1.5569095611572268 -0.27163332700729365 -0.71101665496826161 -0.6692688763141631 1.0488068461418154 -0.76039719581603993 -0.9368055760860442 -0.51577809453010548 0.944391429424286 19.601392745971683 -0.69668933749198902 1.6813681125640871 1.3616777062416079 1.1546983122825625 -0.81428250670433033 -0.69668933749198902 0.47012788057327276 0.53872492909431469 -0.72506588697433461 14.840034961700441 1.3474256396293642 1.2465333938598635 -1.0472456812858579 1.0528359413146975 -0.97649714350700367 -0.94424608349800099 1.043823301792145 2.0830038785934453 0.71236851811409008 19.487177848815922 0.87564688920974743 -0.75832566618919361 1.1002693176269533 0.26438485085964208 -0.85422530770301808 -0.42010326683521265 0.56795701384544384 -0.23512773215770719 0.89092668890953075 0.63895303010940563 -0.8860415220260619 0.91395953297615062
decision_type=2 2 2 2 2 2 2 2 2 2 2 2 2 2 2 2 2 2 2 2 2 2 2 2 2 2 2 2 2 2 2 2 2 2 2 2 2 2 2 2 2 2 2 2 2 2 2 2 2 2 2 2 2 2 2 2 2 2 2 2 2 2 2 2 2 2 2 2 2 2 2 2 2 2 2 2 2
left_child=4 2 3 5 7 6 37 -1 27 -3 11 17 36 31 20 16 -5 -7 42 38 21 23 -14 24 -15 75 39 -6 -17 69 43 32 73 34 -34 -8 -10 -2 54 61 -40 -41 -19 44 -31 62 47 48 -43 -23 -26 52 -46 -48 -11 57 -36 -33 60 -39 -59 64 -13 -38 -27 -66 -54 -56 -57 -30 -22 -70 -12 -4 -52 -16 -71
right_child=1 9 13 15 8 10 35 -9 12 19 72 45 22 14 25 28 -18 18 -20 -21 70 49 -24 -25 50 26 -28 -29 29 30 -32 55 33 -35 56 -37 63 59 40 41 -42 46 -44 -45 51 -47 53 -49 -50 -51 74 -53 66 -55 67 68 -58 58 -60 -61 -62 -63 -64 -65 65 -67 -68 -69 71 76 -72 -73 -74 -75 -76 -77 -78
leaf_value=-0.048400025979420877 -0.029659121401905741 0.042164620290151611 0.026322177038744735 -0.044720392810533097 -0.023498323691715662 0.00016390103520839752 -0.016870369728917825 0.040859779998166285 -0.024903855818796401 0.010435582600425517 0.025107629851516725 0.017720079981790583 -0.035026057084222004 0.0034082803162994637 0.041944958211774866 0.03784246305751663 0.021133585253372372 -0.027428836569167652 0.00055337205932813572 -0.020464675158778686 0.03225116544120931 0.0014349797080246067 0.0088062721856371519 0.010406095562782578 -0.015942233374534671 0.0046546389336091882 0.039416833767914702 0.020005781112783613 0.018674555949805147 -0.028162616874940004 0.037361739471572876 0.034972160833889383 -0.02393953084147369 0.035623566443280297 -0.0024471731047605019 0.016926170712444059 -0.056380086601877863 -0.033969486070760294 -0.0046006437802157563 0.030170014791824178 0.024510040273377463 -0.0282169167168713 -0.053513075908916644 0.017314354093745085 -0.010346264332144493 0.0022442270139183141 0.026096754331865771 0.01216775119400503 0.0022268774011684031 0.027972720696973197 -0.048745327514664379 -0.011324380400856773 0.0078046808838858894 0.0010375814821464082 0.036770488485566667 0.022263711306721095 0.018779245049571781 0.022577219772122566 0.029270913848169908 -0.05525617568738464 0.00061089122346967952 0.033362069937685701 0.039481496282320033 -0.035709667573462875 0.0059221791486408926 0.034541962165490908 0.028188276794857553 0.021230485157262273 0.028616495314073728 0.027151725162989093 0.014710836938043072 0.040257826666471166 0.040564266615409982 0.041084970657172815 -0.031162283613180419 0.028223292414316949 0.03986097791790532
leaf_weight=11.300442859530447 22.419049844145775 483.98913998901844 11.224955722689627 16.629667684435848 15.525530993938448 21.738977447152138 22.468666881322861 32.992278099060059 13.554338932037352 14.786372378468512 14.020735248923303 17.596135959029201 19.227235868573189 18.483170792460442 28.985692098736763 28.638011530041695 11.366467341780661 20.492828160524368 14.264717817306517 12.238753721117972 13.658447846770288 17.427141800522804 14.091156691312788 19.775642797350883 17.531680598855019 13.123418793082235 27.357354879379272 13.642908349633215 13.278445452451704 14.505896523594854 16.635316222906113 29.981143265962601 16.419848188757896 20.113861814141273 17.092408508062363 14.17664812505245 433.24125222861767 14.145684942603109 22.90815494954586 11.495495483279226 15.767595276236532 15.346552506089212 40.75995697081089 22.43192346394062 12.113538160920141 18.361595451831818 16.125106230378151 14.472644150257109 13.075253352522848 16.655104324221611 12.547673597931864 16.973191738128662 12.515627980232237 18.188301175832748 36.057705223560333 13.146327137947081 15.537889674305914 11.396380022168161 21.017980143427849 185.93691003322601 14.065938755869864 17.932421803474426 11.609710171818731 13.332759678363798 11.903025925159456 14.642631843686102 14.577377170324327 20.609146684408188 22.735849916934967 13.88177001476288 12.963519215583799 78.955954477190971 16.159557849168777 26.868740543723106 12.608484566211699 10.954350635409353 15.133430600166319
leaf_count=46 91 2341 51 68 65 93 94 153 55 66 62 78 78 79 136 131 50 85 60 52 61 77 59 86 74 58 123 59 60 62 75 138 71 91 75 61 1739 57 99 51 69 66 164 99 52 79 71 64 56 74 51 73 55 79 162 60 70 51 95 746 61 81 52 54 52 66 64 92 104 61 58 370 73 125 52 50 69
internal_value=0 0.0134928 0.00248502 -0.0152275 -0.0444337 -0.0288304 -0.0448882 0.017521 -0.0497079 0.0369891 -0.00493185 -0.0133121 -0.0524473 0.0198968 0.0132781 0.0130751 -0.0181768 -0.0286195 -0.0367992 0.016343 0.000709248 -0.00497283 -0.0167719 -0.0133904 -0.021127 0.0215709 0.0173709 -0.00316156 0.0179909 0.014029 0.00752379 0.0277018 0.0191044 0.00857166 -0.00301156 -0.00369349 -0.0549887 -0.051626 0.0205808 0.0130089 0.00758603 0.00671291 -0.0453671 0.00185295 -0.00322678 0.0179303 0.00287926 -0.00550498 -0.0146118 0.014831 -0.0315853 0.00359171 0.0101702 0.0132193 0.0274128 0.0323978 0.00791827 0.0260393 0.0196622 -0.0539276 0.0109242 0.0224244 0.0273912 -0.0558441 0.0167813 0.0223898 0.0193851 0.0315849 0.0363701 0.0303463 0.0245517 0.0379591 0.0344192 0.0375194 -0.0414609 0.0389628 0.0348877
internal_weight=0 1903 1296.64 642.832 566.908 434.151 259.147 44.2927 522.615 606.357 175.004 144.824 493.447 653.81 355.253 208.681 27.9961 97.2565 75.5175 122.368 141.651 115.029 33.3184 80.9467 61.171 213.602 173.662 29.1684 180.685 152.047 109.753 298.557 107.258 69.164 49.0501 36.6453 460.128 222.502 110.129 146.305 38.6758 88.7034 61.2528 93.1176 70.6856 47.5674 77.2079 42.8945 28.4218 34.0822 42.6878 56.1797 39.2065 34.3134 71.4532 191.3 32.6303 76.4614 46.4803 200.083 25.4623 57.6015 29.2058 446.574 39.6691 26.5457 27.093 56.6669 114.838 42.2936 26.622 101.692 30.1803 38.0937 25.1562 39.94 29.0152
internal_count=10830 8522 5641 2714 2308 1795 1049 199 2109 2881 746 611 1985 2927 1565 919 118 402 309 540 612 493 137 342 256 953 767 124 801 670 480 1362 483 307 216 155 1848 894 488 644 168 387 249 405 306 209 336 186 122 151 177 244 171 150 320 879 145 345 207 803 112 257 130 1793 176 118 119 254 534 190 119 474 135 176 103 186 130
is_linear=0
shrinkage=0.03


Tree=10
num_leaves=83
num_cat=0
split_feature=20 0 3 11 19 19 5 2 16 8 1 9 3 1 5 19 1 20 5 5 20 5 20 2 17 18 12 2 13 19 20 5 13 11 6 1 11 1 11 9 12 5 17 3 19 1 13 6 9 5 19 8 2 12 9 5 14 20 17 20 20 13 18 17 13 1 3 13 1 17 13 9 20 13 11 19 11 17 17 11 19 0
split_gain=1585.78 513.444 430.842 243.379 194.077 144.968 81.8914 76.5237 76.2959 62.655 54.2584 42.9929 48.3678 42.1601 37.0611 35.6956 35.3414 32.7788 30.7355 22.1982 21.8689 17.0635 15.9396 15.3099 14.3941 17.2076 21.047 18.0197 13.136 14.3202 12.6454 23.485 12.1442 11.6166 15.6774 11.298 11.007 10.8734 10.7933 11.5574 10.5718 9.72112 9.48433 10.1048 9.01384 8.15147 7.93965 7.87469 7.77817 8.95778 6.88568 6.29413 6.20101 14.6083 5.9829 5.8232 5.25553 4.74754 4.7239 4.01827 3.39591 3.77777 3.38758 2.97745 2.74508 2.54098 2.43016 4.36294 5.14687 4.12111 2.42766 2.16802 1.91492 1.89845 1.63894 1.50688 1.35243 1.12513 1.00463 0.915352 0.468608 0.31634
threshold=10.115549564361574 -1.0000000180025095e-35 0.37036192417144781 0.76333919167518627 -0.17579106986522672 0.92565125226974498 -0.53012174367904652 -0.5125412344932555 -1.0000000180025095e-35 -0.31497669219970698 -0.57611030340194691 -1.044983923435211 0.9382694959640504 -0.58442953228950489 -1.197667062282562 1.017539978027344 0.49270045757293707 14.424175739288332 0.54951700568199169 -0.80542302131652821 18.711833000183109 -0.68316787481307972 4.3694243431091317 -0.63686633110046376 -1.2011730670928953 1.0465342402458193 -0.99669736623764027 1.0566510558128359 -1.2880936264991758 1.9308780431747439 19.249749183654789 -0.93168389797210682 -1.0314944982528684 0.98701399564743053 1.0180232524871828 -0.62397670745849598 0.98701399564743053 -0.40405423939228052 0.1437950283288956 0.40901891887187963 -0.72231367230415333 -0.99267530441284169 -0.59640690684318531 1.9382516741752627 0.86181354522705089 -0.41134090721607203 -0.58807033300399769 1.0809413194656374 -0.65325558185577381 -0.65889626741409291 0.43537440896034246 -0.80564945936202992 -0.41892021894454951 -0.66487044095993031 -0.60848626494407643 -0.69441443681716908 1.1554339528083803 23.101475715637211 -0.73034092783927906 20.354435920715336 19.601392745971683 -0.5750029683113097 4.2660624980926523 -0.94424608349800099 -0.85107380151748646 -0.76219502091407765 1.0351700782775881 -0.78333985805511464 -0.66797673702239979 -0.18478429317474362 -0.66366487741470326 1.0256014466285708 23.101475715637211 -0.62271314859390248 0.81419390439987194 0.90078768134117138 0.27022401988506323 -0.88046041131019581 -0.94887426495552052 1.5275093317031863 1.2159771323204043 1.0000000180025095e-35
decision_type=2 2 2 2 2 2 2 2 2 2 2 2 2 2 2 2 2 2 2 2 2 2 2 2 2 2 2 2 2 2 2 2 2 2 2 2 2 2 2 2 2 2 2 2 2 2 2 2 2 2 2 2 2 2 2 2 2 2 2 2 2 2 2 2 2 2 2 2 2 2 2 2 2 2 2 2 2 2 2 2 2 2
left_child=4 2 3 5 8 13 22 16 -1 10 40 30 15 20 -12 21 38 19 45 -5 -2 32 -6 -22 -19 26 -26 52 77 36 31 70 -13 34 -17 41 42 -16 39 -3 63 -36 43 58 -29 -8 -34 -24 49 -15 -44 -23 53 75 -25 -39 64 -46 76 -52 61 -38 -11 -7 -18 -35 67 69 -69 72 -4 -66 -32 -51 -47 -27 -30 -14 -31 -67 -62 -9
right_child=1 7 11 17 6 9 18 81 -10 62 14 12 28 48 37 33 56 24 -20 -21 23 51 47 54 25 27 -28 44 29 78 66 -33 46 65 35 -37 60 55 -40 -41 -42 -43 50 -45 57 74 -48 -49 -50 73 59 -53 -54 -55 -56 -57 -58 -59 -60 -61 80 -63 -64 -65 71 79 -68 68 -70 -71 -72 -73 -74 -75 -76 -77 -78 -79 -80 -81 -82 -83
leaf_value=-0.048501437216687003 -0.045824928381478211 -0.040576740345517524 0.020571014366317187 0.015181959532115569 -0.033076809510270373 0.026034877448460381 -0.026510882380340443 0.041650864334377265 0.040333972583486782 0.019706750836075357 0.016939204017501819 0.022783499760083419 0.040662976186885816 -0.014295963638662037 -0.016957845230481126 0.027046251967513955 0.038188196130469282 0.035504781719388097 -0.0050676661785047702 -0.033514861317169499 0.017592844984495856 -0.038452483578205 -0.010831595361959342 -0.0070625072791149785 0.018266347852142956 0.020430619558402391 -0.033728450249214476 -0.010383013298811323 0.0050318485747903935 0.026227774399413439 0.022966540010858235 -0.011341060530342954 -0.028543124314745448 0.01143606391980747 0.028268162887137155 -0.021126696374665688 0.0042678374603752024 -0.025309905323332771 0.010563369220357293 -0.00043509565926702729 -0.013014711606072012 -0.0071621752579726656 -0.00064397916645856377 0.01630189859575322 0.0011639102047685981 -0.054823733894891681 0.0042111685943254009 0.018800527480456138 -0.053791470678246293 -0.033203147449411045 0.014540231696174964 -0.011327593578695696 0.04045625380630466 -0.0052650671984250464 -0.035020113108551083 -0.052619175515683292 0.0097289196879648838 0.027162885000557739 -0.024396617303815375 0.0383734385606678 0.035067689872013461 0.026072302520234941 0.041217737300145489 0.0071967070079057534 0.029097440832341708 0.021874975718159204 0.03673912376397017 0.030869806671743827 0.0060053390781847618 0.014278342482975952 0.040476626914065131 0.011457186305938444 0.037590632501832644 -0.05436541805883937 -0.036380167334219081 0.037364842773195135 -0.0085675334402962357 0.024663943591730495 0.039649150964830508 0.036734605988038981 0.022488566535717736 0.029431226194529595
leaf_weight=10.870080322027205 20.190197542309761 11.848748877644541 15.673573806881906 12.773594886064528 18.532732889056206 19.383889809250828 12.524173542857168 474.59389647841454 32.116071611642838 17.844816759228706 11.753782927989958 12.468718841671942 31.306212097406387 12.611341044306753 16.340403765439987 18.801760822534561 25.925008073449135 28.983127906918526 12.217718586325644 21.348722964525223 13.284640774130819 22.685370177030563 18.611054211854938 15.281702637672423 12.450100198388101 12.758505180478098 13.75997483730316 22.549173936247826 12.208982691168787 21.112375348806381 16.544809684157372 18.641826644539833 12.309391185641287 11.057665243744848 11.090988531708719 20.191540524363518 14.454666003584864 12.257117569446562 15.864671796560286 13.016852900385855 12.28827892243862 15.729882448911665 11.787420332431791 20.155828475952148 11.731624856591226 440.68013115227222 12.885552033782007 12.723362088203428 144.98675444722176 14.921159297227858 15.326596558094026 13.056319311261175 21.928226917982101 13.84797143936157 12.588773638010027 37.738906279206276 15.146477416157721 12.94712510704994 11.839956596493719 13.069548591971396 19.332968980073929 14.124931275844572 14.539070188999174 13.605880856513979 19.754481628537182 15.222501397132875 84.834647923707962 13.656772688031198 16.579021170735359 12.163450807332991 13.838346183300017 11.824270799756048 60.339779004454613 16.456390067934993 12.412101462483404 18.314871922135353 12.186436071991919 11.802760392427443 21.761241659522057 13.411537855863569 13.480136379599569 12.743412733078001
leaf_count=44 82 50 71 56 77 86 51 2337 151 79 52 55 149 52 67 84 119 134 51 88 57 93 77 63 55 57 59 96 53 97 76 81 52 50 51 85 64 51 69 56 52 68 51 88 51 1776 55 53 583 60 67 54 99 61 51 152 67 58 50 58 88 64 67 59 88 69 397 63 74 55 65 53 282 66 50 84 53 54 100 62 62 57
internal_value=0 0.0133608 0.00264655 -0.0156259 -0.0436751 -0.0290192 -0.0486636 0.03623 0.0172779 -0.00623433 -0.0159936 0.0191404 0.0132412 -0.0431149 -0.0310021 0.00137538 0.0138732 0.0111249 -0.0524775 -0.0153721 -0.0210217 -0.0145761 -0.0118051 -0.00805507 0.0165252 0.0123805 -0.00926667 0.0173914 0.0219024 0.0185074 0.0289374 0.014665 -0.000376391 0.0125062 0.0046371 -0.00470169 0.0141736 -0.039622 -0.00837069 -0.0203923 0.0100018 0.00797846 0.00772919 -0.00025929 0.00309263 -0.053708 -0.0122702 0.00140987 -0.0501385 -0.0371701 0.0186738 -0.0291218 0.0272987 0.0201348 -0.0204662 -0.0465516 0.0262883 0.0153303 -0.00966181 0.0264419 0.0240247 0.0155614 0.0303097 0.0187058 0.0304092 0.0251196 0.0322165 0.0287214 0.0178648 0.0321684 0.0309256 0.0230467 0.034779 -0.0456383 -0.0543997 0.0312656 -0.00183142 0.0369411 0.0337885 0.0298396 0.0307179 0.0413923
internal_weight=0 1885.32 1284.6 609.466 570.687 406.073 527.701 600.718 42.9862 155.752 123.368 675.134 422.861 250.321 78.0902 178.911 113.381 203.393 477.834 34.1223 61.3453 73.4054 49.8671 41.1551 169.271 140.288 26.2101 114.077 243.95 200.841 252.272 48.1537 37.6637 105.506 65.8142 47.0124 157.967 66.3364 40.7303 24.8656 45.278 26.8209 96.5748 56.3912 47.2279 465.616 25.1949 31.3344 188.976 43.9889 40.1836 35.7417 66.8496 44.9213 27.8705 49.996 72.6502 24.6787 36.2354 28.3961 61.3927 28.5796 32.3839 32.9898 57.5038 39.6917 204.118 119.284 30.2358 89.048 29.5119 31.5788 76.8846 31.3775 453.092 31.0734 24.3954 43.109 42.8736 28.634 32.8131 487.337
internal_count=10843 8513 5617 2577 2330 1679 2135 2896 195 665 519 3040 1876 1014 322 778 502 898 1928 144 253 309 207 171 754 620 114 506 1098 895 1164 217 162 469 288 204 698 270 175 106 197 119 420 244 205 1877 107 130 761 178 176 147 301 202 114 203 327 109 156 125 278 128 146 145 260 181 947 550 137 413 136 141 358 126 1826 141 106 203 197 131 150 2394
is_linear=0
shrinkage=0.03


Tree=11
num_leaves=82
num_cat=0
split_feature=20 4 7 15 19 9 9 18 16 5 4 20 5 9 5 18 5 17 14 15 13 17 13 6 5 9 9 17 19 19 5 7 7 5 8 15 5 14 13 20 13 20 9 19 15 13 13 17 7 16 20 17 13 9 17 19 13 13 7 13 2 15 6 5 9 9 15 19 12 19 18 14 7 19 18 9 7 17 14 5 13
split_gain=1496.81 510.784 308.538 254.311 186.549 151.517 140.424 92.147 74.5859 72.6765 57.8085 47.6349 39.2724 35.0018 39.1528 41.2925 32.5272 30.1367 27.9432 28.7258 27.8441 25.0455 24.8994 20.5849 18.311 15.4321 14.1561 12.5565 11.8432 11.766 11.6395 11.2828 10.4135 10.3736 10.2225 9.14637 23.0453 8.54556 11.249 8.14682 8.04635 8.02462 7.18099 7.12006 6.9088 6.37906 7.79453 6.13013 5.77669 5.48904 5.44402 12.2194 5.0507 4.76982 6.34156 4.70304 6.01346 5.64881 4.57803 6.37851 7.75435 11.095 4.53093 5.53045 4.23144 3.93423 3.19911 2.80962 2.61501 2.80126 2.72151 2.04212 2.00185 1.83125 3.10285 2.98545 1.75228 1.16243 1.14118 0.16483 0.0890785
